<?xml version="1.0"?>
<MethodSetup Method="MLP::MLPBNN">
  <GeneralInfo>
    <Info name="TMVA Release" value="4.2.1 [262657]"/>
    <Info name="ROOT Release" value="6.12/06 [396294]"/>
    <Info name="Creator" value="nlane"/>
    <Info name="Date" value="Mon Jan 29 09:44:07 2024"/>
    <Info name="Host" value="Linux buildservice008.fnal.gov 3.10.0-693.17.1.el7.x86_64 #1 SMP Thu Jan 25 04:11:40 CST 2018 x86_64 x86_64 x86_64 GNU/Linux"/>
    <Info name="Dir" value="/uboone/app/users/nlane/NeutralKaonAnalysis/TMVA/SelectorMVA"/>
    <Info name="Training events" value="267"/>
    <Info name="TrainingTime" value="5.07673025e-01"/>
    <Info name="AnalysisType" value="Classification"/>
  </GeneralInfo>
  <Options>
    <Option name="NCycles" modified="Yes">60</Option>
    <Option name="HiddenLayers" modified="Yes">N+5</Option>
    <Option name="NeuronType" modified="Yes">tanh</Option>
    <Option name="RandomSeed" modified="No">1</Option>
    <Option name="EstimatorType" modified="No">CE</Option>
    <Option name="NeuronInputType" modified="No">sum</Option>
    <Option name="V" modified="Yes">False</Option>
    <Option name="VerbosityLevel" modified="No">Default</Option>
    <Option name="VarTransform" modified="Yes">N</Option>
    <Option name="H" modified="Yes">True</Option>
    <Option name="CreateMVAPdfs" modified="No">False</Option>
    <Option name="IgnoreNegWeightsInTraining" modified="No">False</Option>
    <Option name="TrainingMethod" modified="Yes">BFGS</Option>
    <Option name="LearningRate" modified="No">2.000000e-02</Option>
    <Option name="DecayRate" modified="No">1.000000e-02</Option>
    <Option name="TestRate" modified="Yes">5</Option>
    <Option name="EpochMonitoring" modified="No">False</Option>
    <Option name="Sampling" modified="No">1.000000e+00</Option>
    <Option name="SamplingEpoch" modified="No">1.000000e+00</Option>
    <Option name="SamplingImportance" modified="No">1.000000e+00</Option>
    <Option name="SamplingTraining" modified="No">True</Option>
    <Option name="SamplingTesting" modified="No">False</Option>
    <Option name="ResetStep" modified="No">50</Option>
    <Option name="Tau" modified="No">3.000000e+00</Option>
    <Option name="BPMode" modified="No">sequential</Option>
    <Option name="BatchSize" modified="No">-1</Option>
    <Option name="ConvergenceImprove" modified="No">1.000000e-30</Option>
    <Option name="ConvergenceTests" modified="No">-1</Option>
    <Option name="UseRegulator" modified="Yes">True</Option>
    <Option name="UpdateLimit" modified="No">10000</Option>
    <Option name="CalculateErrors" modified="No">False</Option>
    <Option name="WeightRange" modified="No">1.000000e+00</Option>
  </Options>
  <Variables NVar="7">
    <Variable VarIndex="0" Expression="separation" Label="separation" Title="Track Start Separation" Unit="cm" Internal="separation" Type="F" Min="3.57186459e-02" Max="4.96464396e+00"/>
    <Variable VarIndex="1" Expression="pion1_trkscore" Label="pion1_trkscore" Title="Pion1 Candidate Track/Shower Score" Unit="F" Internal="pion1_trkscore" Type="F" Min="5.04645646e-01" Max="1.00000000e+00"/>
    <Variable VarIndex="2" Expression="pion2_trkscore" Label="pion2_trkscore" Title="Pion2 Candidate Track/Shower Score" Unit="F" Internal="pion2_trkscore" Type="F" Min="5.04645646e-01" Max="1.00000000e+00"/>
    <Variable VarIndex="3" Expression="pion1_dEdX" Label="pion1_dEdX" Title="Pion1 Candidate Mean dE/dX" Unit="F" Internal="pion1_dEdX" Type="F" Min="5.02278090e-01" Max="2.00000000e+01"/>
    <Variable VarIndex="4" Expression="pion2_dEdX" Label="pion2_dEdX" Title="Pion2 Candidate Mean dE/dX" Unit="F" Internal="pion2_dEdX" Type="F" Min="5.02278090e-01" Max="2.00000000e+01"/>
    <Variable VarIndex="5" Expression="pion1_LLR" Label="pion1_LLR" Title="Pion1 LLR PID Score" Unit="F" Internal="pion1_LLR" Type="F" Min="-4.88725603e-02" Max="9.93764102e-01"/>
    <Variable VarIndex="6" Expression="pion2_LLR" Label="pion2_LLR" Title="Pion2 LLR PID Score" Unit="F" Internal="pion2_LLR" Type="F" Min="-8.34757015e-02" Max="9.79369938e-01"/>
  </Variables>
  <Spectators NSpec="0"/>
  <Classes NClass="2">
    <Class Name="Signal" Index="0"/>
    <Class Name="Background" Index="1"/>
  </Classes>
  <Transformations NTransformations="1">
    <Transform Name="Normalize">
      <Selection>
        <Input NInputs="7">
          <Input Type="Variable" Label="separation" Expression="separation"/>
          <Input Type="Variable" Label="pion1_trkscore" Expression="pion1_trkscore"/>
          <Input Type="Variable" Label="pion2_trkscore" Expression="pion2_trkscore"/>
          <Input Type="Variable" Label="pion1_dEdX" Expression="pion1_dEdX"/>
          <Input Type="Variable" Label="pion2_dEdX" Expression="pion2_dEdX"/>
          <Input Type="Variable" Label="pion1_LLR" Expression="pion1_LLR"/>
          <Input Type="Variable" Label="pion2_LLR" Expression="pion2_LLR"/>
        </Input>
        <Output NOutputs="7">
          <Output Type="Variable" Label="separation" Expression="separation"/>
          <Output Type="Variable" Label="pion1_trkscore" Expression="pion1_trkscore"/>
          <Output Type="Variable" Label="pion2_trkscore" Expression="pion2_trkscore"/>
          <Output Type="Variable" Label="pion1_dEdX" Expression="pion1_dEdX"/>
          <Output Type="Variable" Label="pion2_dEdX" Expression="pion2_dEdX"/>
          <Output Type="Variable" Label="pion1_LLR" Expression="pion1_LLR"/>
          <Output Type="Variable" Label="pion2_LLR" Expression="pion2_LLR"/>
        </Output>
      </Selection>
      <Class ClassIndex="0">
        <Ranges>
          <Range Index="0" Min="4.8586288094520569e-01" Max="4.5042405128479004e+00"/>
          <Range Index="1" Min="6.9874888658523560e-01" Max="9.9999982118606567e-01"/>
          <Range Index="2" Min="5.5016213655471802e-01" Max="1.0000000000000000e+00"/>
          <Range Index="3" Min="1.5411539077758789e+00" Max="2.0000000000000000e+01"/>
          <Range Index="4" Min="1.2943654060363770e+00" Max="2.0000000000000000e+01"/>
          <Range Index="5" Min="1.6184033453464508e-01" Max="9.5947563648223877e-01"/>
          <Range Index="6" Min="5.1972460001707077e-02" Max="9.7936993837356567e-01"/>
        </Ranges>
      </Class>
      <Class ClassIndex="1">
        <Ranges>
          <Range Index="0" Min="3.5718645900487900e-02" Max="4.9646439552307129e+00"/>
          <Range Index="1" Min="5.0464564561843872e-01" Max="1.0000000000000000e+00"/>
          <Range Index="2" Min="5.0464564561843872e-01" Max="1.0000000000000000e+00"/>
          <Range Index="3" Min="5.0227808952331543e-01" Max="2.0000000000000000e+01"/>
          <Range Index="4" Min="5.0227808952331543e-01" Max="2.0000000000000000e+01"/>
          <Range Index="5" Min="-4.8872560262680054e-02" Max="9.9376410245895386e-01"/>
          <Range Index="6" Min="-8.3475701510906219e-02" Max="9.7672075033187866e-01"/>
        </Ranges>
      </Class>
      <Class ClassIndex="2">
        <Ranges>
          <Range Index="0" Min="3.5718645900487900e-02" Max="4.9646439552307129e+00"/>
          <Range Index="1" Min="5.0464564561843872e-01" Max="1.0000000000000000e+00"/>
          <Range Index="2" Min="5.0464564561843872e-01" Max="1.0000000000000000e+00"/>
          <Range Index="3" Min="5.0227808952331543e-01" Max="2.0000000000000000e+01"/>
          <Range Index="4" Min="5.0227808952331543e-01" Max="2.0000000000000000e+01"/>
          <Range Index="5" Min="-4.8872560262680054e-02" Max="9.9376410245895386e-01"/>
          <Range Index="6" Min="-8.3475701510906219e-02" Max="9.7936993837356567e-01"/>
        </Ranges>
      </Class>
    </Transform>
  </Transformations>
  <MVAPdfs/>
  <Weights>
    <Layout NLayers="3">
      <Layer Index="0" NNeurons="8">
        <Neuron NSynapses="12">
          1.9651012833734299e-01 2.4416002448422729e+00 1.8535424565110936e+00 2.4836054884995789e+00 -7.9478756356363489e-01 -5.3946704906069365e-01 -1.5264240878811679e+00 7.3522981613764871e-01 -7.1118479907139753e-01 -4.2364960532420143e-01 -9.8669252712103517e-01 -2.1515439323126254e-01 
        </Neuron>
        <Neuron NSynapses="12">
          -8.3969057689816451e-01 -8.2456790524834711e-01 7.1689053975532868e-01 4.3020213502196769e-01 1.0858154996701956e+00 5.2818690550901781e-01 -1.7178570868653387e-01 5.1252137548533638e-01 1.4634437140059301e-02 1.0255372728021250e-01 7.5532704062298817e-01 5.1420837030454725e-01 
        </Neuron>
        <Neuron NSynapses="12">
          -1.3068054155035128e-01 7.9547433916725685e-01 1.4228074906150809e+00 -2.5539480558834917e+00 -1.5264765845059660e+00 2.4066184902275092e-02 9.3593530477759102e-01 2.7667448176772744e+00 3.8808455667703085e-01 -8.2024681718040982e-01 6.9231926928798226e-01 6.9586757646345299e-01 
        </Neuron>
        <Neuron NSynapses="12">
          6.9328334082268150e-01 2.7656476955409945e+00 -1.5958709789304000e+00 2.1213852672754574e+00 1.5290062756477176e+00 4.4348395207036706e-01 2.9626844151824687e+00 1.7653281384857524e+00 -3.3977636138097089e-01 -1.0771307992063524e+00 4.3231002125346818e-01 6.7192670798263032e-01 
        </Neuron>
        <Neuron NSynapses="12">
          5.0713403228473330e-01 -8.2555881037373835e-01 7.9002310130203623e-01 1.1820740687101305e-01 -8.6711967848493710e-01 2.2247645855050047e-01 -1.6018437647289556e+00 -1.4956824541658991e+00 -5.9172661592330622e-01 -7.2725936689902948e-01 5.4356411460045620e-02 2.3650470159069523e-01 
        </Neuron>
        <Neuron NSynapses="12">
          -2.3392793895920567e+00 -9.4498584879606273e-01 -7.2839866814347720e-01 1.3063291073708314e+00 3.4024293635952801e-02 -2.4351817682318860e-01 5.7646472628184939e-02 -2.0593252852945847e+00 1.2321640229312983e-01 -5.6496443167087462e-01 -2.8972055733926616e-01 2.7311562904095393e-01 
        </Neuron>
        <Neuron NSynapses="12">
          1.4531404185884983e-01 -2.4166016367236262e-01 -1.0139067839149951e+00 5.8396741743767144e-01 -1.6919571217632419e+00 -8.8532464355403739e-01 1.6153360478697305e+00 9.9690151669279659e-01 6.4764119613565130e-01 -6.7876967192650617e-01 1.5999436524789967e-01 -3.8009260974908554e-01 
        </Neuron>
        <Neuron NSynapses="12">
          -2.8421901283557460e-01 1.5667601748520772e+00 1.1894040037128744e+00 -8.8446301745024591e-01 -7.8874854254596005e-01 -6.7070353183467479e-01 -2.6818339502897914e-01 1.7607892466450195e-01 1.0475093078242081e+00 -1.5752415113368958e+00 -1.9594753847360236e-01 1.2368767057244383e+00 
        </Neuron>
      </Layer>
      <Layer Index="1" NNeurons="13">
        <Neuron NSynapses="1">
          -2.4976640268438257e+00 
        </Neuron>
        <Neuron NSynapses="1">
          -3.4002990421004595e+00 
        </Neuron>
        <Neuron NSynapses="1">
          -2.9663504849214419e+00 
        </Neuron>
        <Neuron NSynapses="1">
          3.4907849714018435e+00 
        </Neuron>
        <Neuron NSynapses="1">
          -1.7781066862222177e+00 
        </Neuron>
        <Neuron NSynapses="1">
          1.0720027982494966e+00 
        </Neuron>
        <Neuron NSynapses="1">
          -2.9960741370202504e+00 
        </Neuron>
        <Neuron NSynapses="1">
          4.7438858551792409e+00 
        </Neuron>
        <Neuron NSynapses="1">
          -9.3253368801047165e-01 
        </Neuron>
        <Neuron NSynapses="1">
          1.5506596402674058e+00 
        </Neuron>
        <Neuron NSynapses="1">
          8.3965564117462976e-01 
        </Neuron>
        <Neuron NSynapses="1">
          -8.6769448136668215e-01 
        </Neuron>
        <Neuron NSynapses="1">
          -1.1446203390571419e+00 
        </Neuron>
      </Layer>
      <Layer Index="2" NNeurons="1">
        <Neuron NSynapses="0"/>
      </Layer>
    </Layout>
    <InverseHessian NElements="11881" NRows="109" NCols="109">
      <Row Index="0">
        2.8879491611651808e+01 -6.9130206999261112e-01 1.0063142242813021e+00 3.8209880818151767e+00 2.6882488932980704e+00 4.9206006786552758e-01 -1.0604840494013064e+00 1.3051138010634731e+00 6.3801868410760619e+01 1.0729948177436643e+00 1.2846757861720928e+01 -4.3829454971714000e+01 -1.5328528100495292e+01 -4.5750957836871886e-02 -6.1489090663433243e-01 1.1254563468675427e+00 1.0679283618730752e+01 5.0727514805416067e+00 -1.9410798346714073e+00 6.9986446153267129e-02 -2.1619076998380802e+01 3.4774696681161195e+00 -7.7070458791445171e+00 4.3803458276931153e+01 8.0318853767334879e+00 -1.0249632107865498e+00 1.4289025325542954e+00 -5.0757203816149046e+00 -2.6030488634283153e+00 1.4818913525331112e+01 1.9949871188600066e+00 3.8162379960267079e+00 -1.2501062437403267e+01 7.5058496568272703e+00 -1.2852255925636268e+01 3.6484537763185045e+01 -1.8685497141893634e+00 -6.3891819844696096e-01 1.5727884329818185e+00 2.0950048013797842e+00 -2.5374525467749987e-02 -9.7294549908075068e-01 3.5651826224846523e+00 -4.5501673233050077e-01 1.1560509721492959e+01 -1.4996867688454451e+01 -1.7104705611184578e+01 1.3203791934634463e+01 -3.6832771716843515e-02 -8.2720112822438030e-01 -6.3363969438479373e-01 -3.2943536214787084e-01 -1.2251031288153773e+00 6.9926032471538346e-01 -4.4275613660716555e+00 -1.8509330667481567e+00 2.7716665871339774e+01 -2.1328557102262833e+00 -9.5414095544361803e+00 -7.1341765854418728e+00 -2.0138843240962232e+00 -2.1100064781938483e+00 -4.1997558551312153e+00 5.9984146184292140e+00 -4.7694641392530652e+00 -8.6997114065058003e+00 -3.2134640075088647e+00 -1.5413266379212636e+00 -8.4213622506523329e+00 -2.7718245499867677e+00 -2.5551640555852600e+01 2.0109235395637640e+01 2.6917251428789246e-01 8.6281929815199687e-01 -1.0595316630210139e-01 1.1123041683188506e+00 7.4679636669620475e-01 -2.1365165624840962e+01 3.0600768306919526e+00 1.0602820389884757e+00 -1.9531750485413752e+01 9.8993261681178915e+00 1.9934162247996113e+01 2.4995370107447496e+01 1.2522266110676295e+01 1.5388522577694568e+00 1.7796647690339413e+00 -5.0802960824708396e+00 -4.8776770487792787e+00 2.4591376278187314e+00 1.3907212403756364e+00 -2.8558237067143040e+00 -1.5839989052635575e+01 -8.7188413634276127e+00 2.0742904624233031e+01 -3.5146223561653244e+01 4.2254503219330530e+00 1.9099013741428612e+00 4.7574322820810089e-01 -3.3770919717975389e+00 1.4039101541580237e+01 -3.7722202524524462e+01 5.9748666925526166e+00 -6.3063375057092523e+00 -4.7788006614454403e+01 -2.3222977381938431e+01 1.5944737288801091e+01 2.0338004657696153e+01 -1.9499237280887552e+01 
      </Row>
      <Row Index="1">
        -6.9130206999633170e-01 1.3869518201467566e+01 7.1661009143985233e+00 3.6143828482147402e+00 -3.5408982025410385e+00 -2.2377432638904565e+01 -9.0431986182510660e-01 1.1104629189229585e+00 -2.0388485256561900e+01 4.7185066051818367e+00 8.6854532183359301e-01 1.8062036618546326e+01 -2.8467091420647530e+00 -4.9359663787305852e+00 -1.8194860278173475e+00 -1.8157913566298628e-01 -4.2763538740804119e+00 1.6467722131439555e+01 5.8090633074101516e-01 1.2893040285753132e+00 1.2279966631314954e+01 -1.1540409252651168e+01 -6.9011214399625587e+00 -8.4419204503135159e+00 1.3858841318957456e+00 7.3120844494575454e+00 4.2899533411398547e+00 -1.1116962668884665e+00 -1.4426495550622238e+00 -3.2005730507143362e+00 6.8758556404861459e-01 4.2923212474615227e+00 5.3866809127067636e+00 -7.8868937673786110e-03 -1.0995362247226874e+01 -1.8431044279374935e+00 1.8688559100396456e+00 1.3963014416354513e+01 4.0454192726377747e-01 1.1043237374973609e+00 6.8206438115787482e-01 5.6845680343165084e-01 5.3229048406148438e+00 1.6156715896618008e+00 -3.6124472643498091e+00 -1.3574979733838699e-01 -7.8150845354857656e-01 1.0303172356821944e+01 1.1894958102655795e+00 -5.4273459517012466e+00 4.0713876645837033e-03 -3.2336277083140006e+00 -4.7168759320026563e+00 5.4198101779661609e+00 -1.0807159874525234e+00 -1.2808020363564521e+00 -6.8946874097540141e+00 5.2707618481104568e-01 -1.2688764473245602e+00 -1.2241923937933857e+01 -5.7923604171607241e+00 -5.1805249812377641e+00 -1.4033815463815760e+00 -2.1668683957179802e-01 1.6134545659904385e+00 -1.3880182185283516e+00 -1.4905336471911925e+00 -2.5303418051197992e+00 -1.3264619442922202e+01 1.5518318763798167e-02 1.0634075160759508e+01 -1.3307052938562443e+01 -1.9748805072660527e+00 1.3788683347669473e-02 -1.6891133327116541e+00 7.6052313805840432e-02 -3.2870807126627217e+00 -1.5253275366387944e+01 5.5723377914696415e-01 6.6609130696342489e-01 -3.3427376162278746e+00 -9.9023894160196413e-02 8.1432869498899207e-01 -1.1094059535472313e+01 1.7726759791923814e+00 6.3285393471934803e+00 4.0423555856819577e+00 -2.0175828933632696e+00 1.6022660655042145e+00 -1.4719863325975595e+01 3.4550128595761107e+00 -1.2125202991767443e+00 2.5667831038224067e+00 1.1248805944583751e+01 4.0763708405077628e+00 1.9937825971336864e+01 6.6819012648725797e+00 1.9525058165604236e+01 1.0807349281936139e+01 -2.0224552325098331e+00 1.6457504644240177e+00 -1.4652952513596162e+01 5.8113475586129404e-01 -4.3369949743247815e+00 -2.4785325560851987e+00 1.1286528772962685e+01 1.6149763204858601e+01 -2.2349800802085058e+00 6.7337063463332720e+00 
      </Row>
      <Row Index="2">
        1.0063142242953376e+00 7.1661009143968961e+00 5.0234998469964161e+01 -8.4945828426709298e+00 -1.2569611966986841e+01 -2.4785532645646867e+01 3.9093427079131411e+00 3.8440904447178235e+00 -6.2893138681875413e+01 1.6933440913073561e+01 -3.0104957185276241e+01 -9.5492393734914653e+00 -9.8617791458133794e+00 -5.2008202711503859e+00 9.8637401425651934e+00 -1.7272198889779242e+00 1.6621458721895007e+01 1.1028116996474941e+01 5.2526889625736617e+00 3.7677574418643514e+00 7.1188447299380089e+00 -7.5370320684711958e+00 -3.8489565093385849e+00 2.0287105382847290e+01 9.7263345913173849e-01 3.8657342245404553e+00 2.0282813115720764e+01 6.2295128586153385e+00 -2.0825026742582619e+01 -6.6940838086879673e+00 6.2324990482191147e+00 6.6693464998476593e+00 3.7591759660625796e+00 -1.3946619670321390e+00 -5.8373105418279287e+00 3.1914094744389931e+01 7.3640381441927483e+00 5.4061077016828820e+00 -1.5194399493608344e+01 -4.2842115041780060e+00 6.0410452687770686e+00 -2.6308223338453018e-01 1.4763858942649833e+01 -2.3577070778802529e+00 -1.2198994028823442e+01 8.7284958374468733e+00 1.8570757109105863e+01 -1.2466925928430603e+01 4.5058954613690689e+00 -6.2720972108023414e+00 7.1314371820650724e+00 -2.7694930005794172e+00 -8.4386022309322897e+00 -3.8988739970225121e+00 -3.2263729516597506e+00 -6.2374033482405100e-01 -6.7953790287292506e+01 1.7876282930918659e+01 -9.6399774102229330e+00 3.3565515174795351e+01 -3.3259638318528388e+01 -2.2756284496592647e+00 -1.1369452414415301e+01 -2.7145968473969018e+00 -4.2005834933989021e+00 1.1665974962452048e+00 -4.1527028085866222e+00 -4.7681483849792183e+00 -2.4351727991957382e+01 -1.5693328380092015e+00 -3.6277957831607424e+00 -1.4072652744276404e+01 2.4297783761925573e+00 1.2430262436912964e-01 -2.1401199199650662e+01 -5.6955958659929840e-01 -1.9917942658659875e+01 -9.4287780911596890e+00 1.5148389856594768e+00 1.6714516043383865e-02 2.9776318881804389e+01 1.2876261211418196e+01 1.5651961569146803e+01 -4.7337386964208889e+01 -1.3859273546387729e+00 2.7833312062555864e+00 2.4376101264980981e+01 -1.0706714862964217e+00 -1.4028882539357628e+00 -1.0395977703688706e+01 3.3159250981332620e+00 -7.0714640050564057e+00 5.8237100036495391e+01 2.4737641550389338e+01 1.7461630020722922e+01 6.8000641551425076e+01 2.5421850263131912e+01 1.8597472052906102e+01 5.9595997350981882e+01 1.1277771175533461e+01 2.7109899856324557e+01 -5.4901591060690622e+00 3.4600989384855239e+00 -8.5105159898725304e+00 6.5870099437908110e+01 3.2135044169493177e+01 -1.2272424053571291e+01 5.0706604219120251e+01 -4.1848662850136940e+01 
      </Row>
      <Row Index="3">
        3.8209880818079398e+00 3.6143828482153850e+00 -8.4945828427401580e+00 3.8175197994630707e+01 -1.0790103004717547e+01 -2.6860573818052575e+01 -6.0939953998121767e+00 2.0950561204713400e+00 -3.4613274888514518e+01 -8.7686222738149375e+00 1.2825783193302181e+01 3.9888219029390740e+01 1.4368211477264046e+00 -3.3913245871229192e-01 -4.6743439505109015e+00 5.4833012766619937e+00 1.0462561460199375e+01 -5.0687032321344869e+00 -6.9737152459312011e+00 1.3887557503939423e+00 -2.3479688285462608e+01 1.1331270791075715e+01 1.3795566877827342e+01 1.5078887897358589e+01 -6.4606535168858343e+00 4.8380418155752434e+00 3.6979540428756197e-01 -2.9644051761632618e+01 -1.3477958369513429e+01 3.4274323255226014e-01 -6.2915245480144777e-01 6.5443766626587312e+00 3.2191357535571569e+01 3.5822406248084189e+00 4.9629363131128343e+00 4.6070584919801121e+01 4.2836260546432947e-01 4.6685323922031063e+00 4.2331739922849172e+00 2.6339570897953767e+01 1.2346432376740141e+01 2.1008131409141445e+01 4.1903519271292273e+00 3.5837788976782341e+00 -8.0741327407451813e+00 -2.6869008854609739e+01 1.5643940915764478e+01 2.4481572289409883e+01 -2.0763651671322114e-01 -3.5414620341674703e+00 -3.8183747785409801e+00 -9.2820418610870634e-02 -1.3115888726754832e+01 2.3565143791524555e+01 -1.9494769298660419e+00 -2.6322361836533150e+00 -1.1906059364782411e+01 -3.2034322742540937e+01 -5.3272126892586265e+00 -5.9674939844929831e+01 1.6475240247261610e+01 -1.7592909410063504e+00 2.0717491299031101e+00 1.6347690016976149e+01 -2.3226445572992951e+00 -1.4572976079620668e+01 8.2474033175727213e-01 -3.2203589159081587e+00 2.6167035126825603e+01 -4.1115286243939719e+00 5.3954174038775253e+00 2.2215139409802394e+01 3.1700697175857191e+00 -1.3862673991295049e+00 2.1880595893018664e+00 8.0630176956325244e+00 -2.1947437962618171e+01 -1.1118545525769859e+01 2.1453703798484725e+00 4.8109484879993525e-01 1.3049998010705348e+01 -2.0058628288991855e+01 -1.4276568849967399e+01 4.0798359921159326e+00 7.9171634190683644e+00 1.5460139162436459e-01 -5.9570530110636533e+00 -1.0913546385132605e+01 -8.0437374864485651e+00 7.5594319869406403e+00 7.4626044857797913e+00 -1.7189418668756548e-02 1.7161863498460281e+01 -4.0837834052551123e+01 3.1725537527913872e+00 -1.1188423085767198e+02 -1.8584012544088896e+01 6.7229443901892392e+00 -1.1630455678006166e+00 -4.0187916614634972e+01 1.9210200155595036e+01 -1.5006364003900009e+01 7.3859682404117875e+00 -8.1936015193716045e+00 1.3641414446240027e+01 -3.8608565624919692e+01 -8.6553563279428847e+00 2.4873633167700447e+01 -1.0513100791914303e+02 
      </Row>
      <Row Index="4">
        2.6882488933393631e+00 -3.5408982025548141e+00 -1.2569611966910891e+01 -1.0790103004619317e+01 7.7272087892550175e+01 3.7160941578673132e+01 1.2840303217338307e+00 -3.9814966019724092e+00 1.0018162583344055e+02 7.1665111618140159e+01 3.1116314863185053e+01 -4.3150869173458773e+01 -1.9254425029307210e+01 -5.8871129637890824e+00 -7.8927831052769761e+00 -1.0676099827936280e+01 -6.8740320535650383e+01 -5.2476055344626886e+01 3.6300245798377473e+00 -1.5884920516076737e+00 -7.0356845222103928e+01 -4.1254226743221395e+01 -2.7910263443321710e+01 5.9077030268237593e+01 6.1690141284532918e-01 -5.4104708602229072e+00 -2.7349319437921293e-01 9.9531171800859486e+00 8.0097265701064842e+01 -1.4726548090771236e+00 8.3949310101028352e-01 -6.9298180346976341e+00 -3.0911601881796692e+01 5.7921501151057955e+00 -7.0597211837326679e+00 -7.0621694147504783e+01 -3.8748815216583976e+00 -1.3225926632826333e+00 -2.4397256797752607e+00 -5.6933226287694954e+00 -5.4517053843227878e+01 -1.5013893963803746e+01 -6.6041628784164184e+00 9.1605500242406617e+00 7.7487834544731570e+01 2.4262070447971901e+01 4.5184806100900531e+01 6.2177671944994671e+01 -5.8223108042937799e+00 8.9478167739093077e+00 4.7194495866642168e+00 2.5546048914036672e+00 5.5907344361940467e+01 -4.1966655975620640e+01 1.7253060474074504e+00 -7.8800679452587752e-01 3.1571786396945114e+01 2.9847076709185437e+01 -1.0787623044561746e+01 -5.9525219883963253e+01 2.1446049739429842e+00 6.1288733982347301e+00 1.2725406516445986e+01 -2.2701139445811798e+00 6.8586703834408702e+00 4.1649703059777110e+01 4.5138052235709987e+00 6.4369564681959632e+00 2.9895279644393813e+01 1.3243712446839744e+01 1.8001139247522744e+01 -5.0562987105145965e+01 1.6215883202263495e+00 5.9849080539582982e+00 6.3008013348035643e+00 -1.8892691265951878e+00 8.4917054941654911e+01 -5.2663587297913761e+00 -7.6783331180676520e+00 -3.9382803399001243e-02 -8.4670551525906419e+01 7.3221511353376684e+01 2.9231398077609541e+01 -2.8344883915572250e+01 6.3223892820489676e+00 5.1527500051316819e+00 -1.0597777253298391e+01 1.1968255485872723e+01 4.1759250625554920e+01 4.0643451444718750e+01 -5.6339546228388198e+00 7.2833054852712182e+00 -2.8354192899920882e+01 5.2423149194178229e+01 1.7596531548146302e+01 5.8940827241037852e+01 2.4815544981212305e+00 -1.6564050235393260e+01 -2.0546596195463877e+01 2.0753219744540594e+01 -6.3296081388452329e+01 2.4267277908629037e+01 -1.3853887977743199e+01 8.9603599272605852e+00 -7.8959976531392158e+01 1.0516490751282646e+02 4.0729685608030202e+01 6.4303903432284784e+01 6.4449909098175212e+01 
      </Row>
      <Row Index="5">
        4.9206006785935585e-01 -2.2377432638915849e+01 -2.4785532645653909e+01 -2.6860573818085886e+01 3.7160941578738559e+01 5.2929593659137322e+02 4.5389103440655010e+00 -6.9919881152508072e+00 1.3154125955312986e+02 -1.3191679340629196e+02 3.6307849266428768e+01 -2.1639257897923392e+02 1.4276992918811420e+00 1.1932404047917728e+01 3.3851572048622480e-01 -9.6347468867056634e+00 6.0021593916500926e-01 -2.0678395382261027e+02 -6.6289745359619179e+00 -7.4989170429265928e-01 3.4736480729048964e+01 -2.4820187131198107e+01 -2.4808956882906596e+01 -1.1775732490598818e+02 1.5531391796618252e+01 -5.3449797110758608e+00 -7.6812239222509913e+00 2.0480771132729725e+01 1.1693554467681567e+01 1.1842394185707386e+02 8.7722014002064874e+00 -1.9227787012661071e+01 1.5761927577719848e+02 -1.1954281364616229e+01 2.2455839200096094e+01 -1.2903849348090958e+02 1.3289384395517718e+01 -2.3538693154983261e+00 1.9114835950711438e+01 -2.7474234270069669e+01 1.6140175547056636e+01 -1.3429340402415158e+02 5.4129242916438542e+00 -2.2544642623931239e+01 3.1915568474183470e+01 -7.2736671396073902e+00 -2.7274910854080851e+01 -1.6121251268980345e+01 7.2960870742395780e+00 1.5647278536263443e+01 4.5382208630118459e+00 1.2104206359353462e+01 3.0091518240271565e+01 -5.0079275526055824e+01 -1.3874971097692834e+01 4.4415323546454406e+00 -1.3623812846471600e+02 -1.2035901884334661e+01 5.4106058034667704e+01 4.0779652753315034e+01 -3.8379474031868433e+01 -9.3482722881620584e-01 3.8987198373067544e+00 -1.6766159078202487e+00 2.7171141548750072e+01 1.4322510162476442e+02 3.5793331958726236e+00 4.6084038092303032e+00 6.7329597195220060e+01 -1.5859363644228928e+01 3.6023073062905091e+01 -4.8811764804314485e+01 -9.0993535071221210e+00 -6.2189761887265611e+00 -3.4751825032768394e+01 -1.0212136186433034e+01 3.1855923974243940e+01 2.5490557020885831e+02 6.9155642397805028e+00 -3.8235897471197693e+00 -9.4036092692036519e+01 1.8538188137839612e+01 2.4727637839082863e+01 2.0363723822243472e+02 -1.0723792700405182e+01 9.2831725433924710e+00 2.9003540163300801e+01 7.5521023521427733e+00 5.7268185497679447e+00 5.6865186529413648e+01 -1.3325360250001744e+01 -6.1358975011091479e+00 -4.5442182443908607e+01 -3.5278789798239259e+01 -1.9029963958283240e+01 -1.5966799959749758e+02 3.9013192138982419e+01 -2.5011686671420449e+01 -4.5728362402131182e+01 2.5391628394979996e+01 7.4631964620468210e+01 3.5880735209601784e+02 3.4449058511601734e+01 1.6281885709125287e+01 2.8837965475452722e+02 -5.4063004138941039e+01 -5.3688202382087074e+00 -7.5461979294597484e+01 9.5116183303738723e+01 
      </Row>
      <Row Index="6">
        -1.0604840493999852e+00 -9.0431986182585433e-01 3.9093427079453527e+00 -6.0939953998058423e+00 1.2840303217677924e+00 4.5389103440725780e+00 9.0083111783303149e+00 -8.6033413889330268e-01 7.4008554491633589e+00 9.7811200472199218e+00 1.5800102472303267e+01 -2.9864961005245569e+01 -1.7895443694576716e+00 -9.7197982107452940e-01 1.3335158140623691e+00 -4.7183910542476087e-01 -1.7323221352510658e+00 -5.0310677813424896e+00 1.1484506932507472e+00 -6.8302988619862981e-01 -2.9385309604586620e+00 -7.7751055003501897e+00 -1.3455429044467477e+01 1.3998223039251251e+01 -1.7133027630883102e-01 -5.9548160167612274e-01 -1.9116430456037270e+00 4.4792601375292627e+00 6.9761803877089941e+00 -9.4020522301072518e+00 -1.0221678796625544e+00 -1.7644372566889943e+00 -4.8824707210672003e-02 4.0065144864599311e+00 -1.2423914927757068e+01 -7.2498852027082830e+00 1.2815468383342410e+00 -9.2923575099980060e-01 2.1576891184978009e-01 -3.9125063534046234e+00 -5.2468081490445186e+00 5.6416452242778758e+00 -4.7319781515063344e+00 2.5191654459691626e-02 2.7798596280154868e+00 1.2794470716648236e+00 -6.3884350800911083e+00 -4.6140016185705477e+01 5.0487039357638208e-01 -6.1120635472515028e-01 -1.5603847530224924e-02 -3.5696628293317745e-01 6.5514866189890277e+00 -6.2763267807787715e+00 4.2708036963412521e+00 3.7748677686776450e-01 1.4790037898216402e-01 1.3400196156821405e+01 -3.0812643794445536e+00 1.1943602100853631e+01 -8.4754691436453591e+00 4.6559549783650084e-01 9.6811978291510803e-01 -3.2194174850717920e+00 -3.0074238498108397e+00 6.1477681238972428e+00 2.6198951523476594e-01 1.3832087376503901e+00 -1.3222394829961637e+00 5.0982656457039921e-01 7.4365283275923222e+00 -1.7114782545767596e+01 6.1325747970234090e-01 1.7580629219589053e-01 3.8254993063352255e-01 -1.6660957993255039e+00 4.2915654705150814e+00 -3.4716439576080553e+00 -2.6798886913692441e+00 -5.8989060842593000e-01 2.4590724716160608e+00 1.0776681672146399e+01 4.9970320519730773e+00 -2.1829863925006968e+01 -1.0559766025067487e+00 -8.0210571354532523e-01 4.5704145995463963e-02 1.4045227794410411e+00 2.1012477307877955e+00 8.9814717756646694e+00 5.1700988848112217e-01 2.2173129388628621e-01 4.6323421002728375e+00 6.2594787729995538e+00 6.0449966105792550e+00 -1.4656095519762822e+00 3.2352670245979245e+00 -1.7260471981143697e+00 3.6000326271052696e+00 6.4098996344329295e+00 -8.9473522623459942e+00 5.5718527793675001e+00 -1.0274164984750261e+01 2.6342012151919367e+00 -5.8194131250000751e+00 3.2242982357824054e+01 2.2702636742713629e+01 3.1101314890524989e-01 2.6901324957725013e+01 
      </Row>
      <Row Index="7">
        1.3051138010627596e+00 1.1104629189255650e+00 3.8440904446967075e+00 2.0950561204726186e+00 -3.9814966020021734e+00 -6.9919881152540864e+00 -8.6033413889422405e-01 4.9356520854840857e+00 -2.4196833545837585e+01 -9.5423636691797853e+00 -3.9633617384564297e+00 -3.4125910368548569e+00 1.7953616957058893e+00 -3.8141677335412361e-01 1.3734028412440544e+00 3.3412642763363305e+00 7.8118703374492808e+00 4.7997163472276219e+00 -8.6121417654808718e-01 -4.5885183704283838e-01 3.7232553706164850e-01 -1.3019726087056003e+00 7.8016189798054816e+00 -1.3264847707990292e+01 4.1148214878751714e+00 7.3395858968299754e-02 2.0589279792243196e+00 -2.1978137699081906e+00 -1.1037166515072332e+01 6.0856443570030851e+00 1.7803313737903954e+00 5.2730636733168845e+00 1.3730002933796602e+01 -5.2508214679549861e+00 1.1749991756751509e+01 -1.9764673243250797e-01 -2.7738293379509535e+00 1.6093189815721285e+00 -7.0033900306908692e-01 2.3309910327421033e+00 7.1479104193502003e+00 -8.1217456340233518e+00 3.0786765281120392e+00 2.0788520318092569e+00 -1.0053168813903374e+01 -6.5202298890232022e+00 1.0072954739359711e+01 4.2075797373490813e+00 -6.4061162837169250e-01 -9.5941493737128092e-01 -3.2998089667495147e+00 -5.9948780599857432e-01 -8.1500848520085025e+00 5.7312606796183001e+00 -2.2588636558224060e+00 -1.7885597698916906e+00 -1.4280913788230887e+01 -1.0288194418322348e+01 -5.6261349138476993e+00 -1.0668846548328496e+01 4.5147510632533230e+00 -4.4861304519743772e-01 -2.7763727177014679e+00 4.3570791359061484e-01 1.1955708043891895e+00 -4.1098003403771006e+00 -1.4739444765530110e+00 -4.3959486320280909e+00 9.3603871578835118e+00 4.1759256213811602e-01 -6.2348796298238636e+00 7.6791595616736856e+00 -7.2085062010108647e-01 -4.3239463378979415e-01 -2.5959822674945641e+00 2.9565250611620519e-01 -8.9523350011661122e+00 -3.1354303020848304e+00 1.6954125935034983e+00 2.5028733998503827e+00 1.8672940523114544e+01 -4.2733978788549951e+00 -3.8489872530090135e+00 4.2227051947334182e+00 -3.1132250420193426e+00 1.6252270775009088e+00 2.6247401176864377e-01 -2.9145366371972017e+00 -5.6903818440001377e+00 -3.7804242307625806e+00 4.3376219252214665e-01 4.7499214211694857e-01 1.2264816494425240e+01 -7.9404220206550367e+00 -7.9527182369322202e-01 -1.9101907348774951e+01 -1.1741290270768974e+00 4.2001987477854650e+00 4.1454714144246294e+00 -3.0964975644472412e+00 1.2658476841432641e+01 -8.2846634450088175e+00 4.9172575573176660e+00 -8.3422819442466825e+00 2.0794738486311076e+01 -1.6332901769322675e+01 -5.3620616948358313e+00 3.0883300418843973e+00 -3.4578281481031382e+01 
      </Row>
      <Row Index="8">
        6.3801868410876637e+01 -2.0388485256564252e+01 -6.2893138681277151e+01 -3.4613274888200259e+01 1.0018162583373261e+02 1.3154125955270118e+02 7.4008554492070857e+00 -2.4196833545756817e+01 1.9895289885677473e+03 5.1234034144236212e+01 1.5219554830437272e+02 -4.2015702013417427e+02 1.6465903751594315e+01 9.3953402842394240e+00 -2.3906411093081321e+01 -1.0868995198441988e+01 4.6931028875770991e+01 3.3545678045141202e+01 -3.7006350311831993e+00 -1.0985681677035108e-01 -2.2620443752002919e+02 1.6566198562281720e+01 -1.1583902627820618e+02 3.7885424376986873e+02 -6.1622881764282319e+01 -5.6121755704931040e+00 2.2359759861245871e+00 2.0836484179321118e+01 1.5936836540659425e+02 1.8575519239131137e+02 6.5309448688960776e+00 -9.5263778599230058e+00 -5.4256642383502106e+02 7.9443506892114769e+01 -1.0580801965368410e+02 -4.3838271701252140e+01 -2.2464079524855201e+01 -5.6261710673583254e+00 1.6399439827911035e+01 -2.9591931751462251e+01 -7.2782145760690369e+01 2.9558652436562149e+01 2.1284420900189296e+01 -3.0679594075575185e+01 4.4280303846425085e+02 1.0173273942875565e+02 -2.0521440620618199e+02 -7.1410846655367692e+01 -5.9461373557453161e+00 7.2142062667918516e+00 3.0362191431922941e+01 1.8488673471525289e+01 1.0981430006412866e+02 -1.8454024191352264e+02 -2.6176056761941471e+01 -2.5358349869843901e+00 7.7994546293550059e+02 4.4413810335887263e+01 -1.4176887799246830e+02 -1.6238631165826698e+02 8.3010418918083673e+01 1.3229193837006776e+00 2.6053055327219198e+01 9.8841438254106002e+00 -5.5826743856672358e+01 -7.1124148461842992e+01 -1.5448527572800594e+00 4.1578550138186525e+00 -8.9652768077973192e+01 -1.7005989212748617e+01 6.1607431777634886e+01 2.3293960248475886e+02 2.3269541906041734e+01 1.4992837162648081e+01 3.8470789881093509e+01 -2.4736394470464287e+00 1.5882636642396596e+02 -2.9559835392868955e+01 2.4081889945303658e+01 -8.2757781556666856e+00 -7.2522657581694011e+02 1.5677998203124380e+02 2.1915804450852477e+02 -1.1936859517855503e+02 6.1374055183432908e+01 -1.3900103844730817e+01 -3.2498297227319256e+01 1.0422357625263700e+01 -1.4397274738774140e+01 8.0945227749099288e+01 -1.5229098438331082e+01 -1.8268159325672173e+01 -7.2527233053423868e+02 3.7087876109992173e+01 -2.1213177315611762e+02 -2.6017728172288793e+02 -1.1660836253214167e+02 -7.2205734523564956e+01 -1.0891550332415197e+02 3.4304405881781598e+01 -8.5825146858216513e+01 -3.5306246279493581e+02 2.4888081075984537e+01 -2.1696875118509018e+00 -1.5923659632140764e+03 2.0116802654926539e+02 1.3372273729474972e+02 2.5087685316008924e+02 9.1427766877463114e+02 
      </Row>
      <Row Index="9">
        1.0729948179887732e+00 4.7185066051048352e+00 1.6933440913265354e+01 -8.7686222730553940e+00 7.1665111617706486e+01 -1.3191679340665780e+02 9.7811200469611901e+00 -9.5423636689809666e+00 5.1234034140311365e+01 3.6450979180979363e+02 -2.0297405706737333e+01 -7.3980647963790005e+01 -6.4135234400355188e+01 -1.6950560905204732e+01 -2.0549891659156160e+01 -4.1159513322005466e+01 -6.5426358314054553e+01 -1.1394027948858543e+01 1.7159466801621225e+01 -1.7959133014109798e+00 -9.9772938189904323e+01 -1.5838403767343013e+02 1.0608584898607251e+01 3.5307542505764809e+02 1.0754605456368648e+01 -4.0157877531212236e+00 6.5521166665207886e-01 1.2649603590770052e+01 4.3385754053483119e+01 2.2052073770168541e+01 8.9034293923149632e-01 -9.3412537579075483e+00 -1.0896815070177507e+02 1.0511812585620918e+02 -1.7335646010318939e+01 2.4037339961485131e+01 -1.2904352997628794e+00 -3.9102441066758176e-01 -8.0076462429015960e-01 -7.9168524534223650e+00 -1.2113684207465516e+01 4.7683223931892911e+01 4.5070551262796208e+00 1.4056398116364148e+01 5.2638854035496649e+01 1.4673884943315744e+02 1.0716825189645388e+02 1.2748384835532627e+02 -1.3197999784701986e+01 6.4418388172633776e+00 8.4282608919424540e+00 -1.0826122086121766e+00 3.7312328170873315e+01 8.3843784959621850e+00 9.0482000888557419e+00 -3.4910619917713350e+00 3.6874335030845216e+01 2.5098804016845679e+02 4.2627892718790097e+00 -8.0550749538182032e+01 -2.1005334964150620e+01 9.0953145713934891e+00 3.7358241026142466e+01 -3.3152527203420457e+00 -2.0873976944804273e+01 1.2672412659020603e+01 3.3548605605839330e+00 1.7943053394973671e+01 -3.5494125198658857e+01 6.2041110060652471e+01 -1.1294894691260227e+01 -1.5864176239011499e+02 3.9059117481919436e-01 8.8009277470706468e+00 3.3553957602288627e+01 -1.8666229323449546e-01 5.0805153663484475e+01 -1.0010070153518788e+02 1.9471722407753294e+00 -1.2829976519358839e+00 -8.9405914822228169e+01 2.4691025268844041e+02 7.6602826365310889e+01 -5.5199899955326396e+02 1.8485663132072197e+01 6.7262693625002052e+00 -2.4418053738915802e+01 3.5212318082672354e+01 5.8931229837716501e+01 -2.5490335032557567e+00 -1.1788466261383263e+01 3.6990445662388249e-01 3.9158666422657298e+01 3.0823649525295900e+02 3.5128409219490614e+01 3.8439465925868677e+02 8.8204151975661027e+00 -2.4804825358440259e+00 -5.0331541578960994e+00 3.6187670281308975e+01 -5.1829611701529558e+01 -1.5899662133208966e+02 -4.0527458490949279e+01 2.1966069451806806e+01 -1.4829650785016392e+02 6.9570673607898152e+02 2.8619040466603916e+01 7.1782152244427959e+02 -1.1294816221282474e+01 
      </Row>
      <Row Index="10">
        1.2846757861635581e+01 8.6854532184749189e-01 -3.0104957185189207e+01 1.2825783193021516e+01 3.1116314863549075e+01 3.6307849266661719e+01 1.5800102472411094e+01 -3.9633617385469080e+00 1.5219554830611500e+02 -2.0297405705550510e+01 3.0920837371109832e+02 -7.5478093791955843e+01 -6.2401773992119862e+00 -2.0738990964781916e+00 4.6590916166706791e+00 -1.6205980798529327e+00 -3.0133347400212696e-01 -8.0640182142445937e+01 -5.8754926566383663e+00 9.7252258747196685e-01 -7.4352638988262015e+01 3.3516895756715698e+01 -1.8046430896008133e+02 1.6683614442273417e+01 5.9758789651796107e+00 1.4434157337026329e-01 2.3950989102533446e+00 -9.4820978044478910e+00 8.1047963852384711e+01 -1.1159727262591075e+02 -6.6573944103584202e+00 3.1067077971332222e+00 -4.9539352899880136e+01 2.5619968109191042e+01 -8.5904899379980662e+01 -6.6040821862724016e+01 -1.0518341689193313e+01 2.3486726200298236e-01 -2.1646564015662535e+00 3.8709566532269921e+00 -4.3000733352722342e+01 4.8811304703194402e+01 -2.3828006092413776e+01 3.6971352512033948e+00 1.0720029484331560e+02 -4.8174446854807968e+01 -1.2570480308184626e+02 -2.0163931248854757e+02 -1.0956223710710056e+01 -4.1151698953491156e-01 1.9879220170232998e+01 8.6079386605998174e+00 5.6806971882511341e+01 -2.8453054373925042e+01 9.9930625430534281e+00 -4.6505457113479824e+00 1.7216884958449833e+02 -3.6736713695147586e+01 -1.8140236813752871e+01 -1.1091542250941895e+02 4.2600935321980039e+01 -1.6901269934728682e+00 3.0407421167027646e+00 1.0044100740326591e+01 -2.5884827622274116e+01 3.2856516885724240e+01 -3.6256552494564692e-01 -8.9976523039333900e-01 5.1048101020949815e+01 -1.5453419856531518e+01 1.0946107086535768e+02 -6.8186181897480225e+01 7.2279335394162612e+00 2.1961839489361115e+00 9.7568255089031783e+00 3.1120462776294211e-01 5.8853605234341728e+01 2.6448642119127946e+01 -7.5189825119495444e+00 -1.1920533420204347e+00 -7.4306729122806800e+01 -1.6932968516012224e+01 -3.3672048486624448e+01 1.9437298689858898e+02 5.2343498934039712e+00 -1.0822307232465795e+00 -9.0067112690793500e+00 2.6500637515130725e+00 -8.5216781638372741e+00 1.1996221666947554e+02 4.6946195405685476e+00 2.0820583227269642e+00 -7.6217666716966917e+01 -8.9515583820083066e+01 7.9481666211676682e+01 -5.0198666558776279e+02 -3.7550074983538138e+01 -1.1140831865620939e+01 -2.7294662506275106e+01 -6.8837872186581794e+00 -1.1182555877626601e+02 8.6654743441159781e+01 -1.1692219738767006e+01 -4.9756333673214783e+00 -2.2378799673135748e+02 -7.6228895672449909e+01 3.0213547914021342e+02 -2.9715127224706652e+02 1.5657836702649533e+02 
      </Row>
      <Row Index="11">
        -4.3829454971982969e+01 1.8062036618637148e+01 -9.5492393735805692e+00 3.9888219028587336e+01 -4.3150869172786102e+01 -2.1639257897898796e+02 -2.9864961004964549e+01 -3.4125910370705803e+00 -4.2015702013002283e+02 -7.3980647962214320e+01 -7.5478093791275739e+01 8.8508213399490944e+02 4.6706547394245995e+01 -1.9120117622454273e+00 3.6090542526821561e+00 1.1239641468237142e+01 2.9426123335772999e+01 1.5699593708394374e+02 2.7231923275965899e+00 -2.9649267984454131e+00 1.7716307875105235e+02 1.7907694008079483e+02 8.0062581483302409e+01 -5.2564733152766496e+02 -3.0474880985912449e+01 1.1482907828097641e+01 -9.9314785542879864e+00 -2.2869562076282566e+01 -1.8977070367721097e+01 -8.3294781420221938e+01 -3.0475600346890207e+01 3.0454502999267872e+00 6.3702924876387790e+01 -8.8395850895071618e+01 6.3286890577106391e+01 -1.1563712583114062e+02 5.1014681104046389e-02 7.1015860792535275e+00 -1.6671852369458929e+01 2.6434976779704741e+01 -1.5252308985498495e+01 6.2984810532174095e+01 -2.6243367505096714e+01 -2.9108752223315708e+00 -1.5411313946199543e+01 -1.0506728159893483e+02 5.9167520174307434e+01 -8.7892429671323043e+01 2.6046994224247580e+01 -1.1101912646914364e+01 2.1486205915838497e+01 5.8520775706435888e+00 -4.3276777333327530e+01 1.5270233563550129e+01 1.7912331939246197e+01 4.0373340454729840e+00 -9.2474515802078187e+01 -1.8919212602863720e+02 3.4606502911155488e+01 1.7616057875576479e+02 -5.3749861360645475e+01 1.0224373298793057e+00 -2.6324510008419978e+01 -1.5945758221033324e+00 -1.9324950072872085e+01 -3.2781023796444572e+01 5.8381852558424696e-01 -2.3879507839301288e+00 5.7933372446114078e+00 -4.3159898202187321e+01 4.4177232109537250e+01 1.4078775974110133e+02 5.0864083005843170e+01 -7.9291953443644587e+00 1.9820345487082065e+01 1.9057025866035474e+01 -5.4748359893338232e+01 -5.6034628427791162e+00 -3.8873393070357913e+00 -6.6265169766385066e+00 8.4418767681634407e+01 -3.2698704028904689e+02 -1.1256502612969375e+02 3.5808009425240903e+02 -6.3148176288878766e+01 -5.2760962077192355e+00 1.3256144298908003e+01 -3.8318238674423597e+00 -1.0395046930716475e+01 -1.4376166502858348e+02 6.4264401398808957e+00 9.4616329501832190e+00 -5.6226023474159888e+01 -2.3250889694695206e+02 -1.1635087495281425e+02 -6.7899254592881306e+01 2.3332146198979046e+01 2.2928139663807102e+01 4.1962356825116160e+01 -4.5405954127881813e+01 -3.1886167974576523e+01 5.8580212112442659e+01 -1.7535602750407143e+01 -5.3976325410819062e+00 2.3663735878955026e+02 -5.7895943307368884e+02 -1.2419361216301411e+02 -8.2185312883345682e+02 8.5457454446158977e+01 
      </Row>
      <Row Index="12">
        -1.5328528100539032e+01 -2.8467091420540491e+00 -9.8617791458345359e+00 1.4368211476004329e+00 -1.9254425029250989e+01 1.4276992919891995e+00 -1.7895443694063999e+00 1.7953616956780598e+00 1.6465903752203900e+01 -6.4135234400403561e+01 -6.2401773989774618e+00 4.6706547394536443e+01 7.4939712363891729e+01 6.1448244901781308e+00 1.2239819461185210e+01 6.7761403300322876e+00 2.1221909385418797e+01 5.7618356241487959e+01 -9.2373927407991019e-01 -1.9216571000726754e+00 8.2726764533515592e+01 4.2939477675296743e+01 1.8426355084426071e+01 -1.1798369618522939e+02 -1.0557860760174396e+01 -2.3967681955532929e+00 -4.5438008788230384e+00 -4.5558707473034286e+00 -7.2766468361437040e+00 -2.7189962693980254e+00 -2.5601751241666220e+00 2.2577008071019646e+00 1.7926176286963056e+00 -2.7366502942239357e+01 1.6913402090455822e+01 -2.1520394412387404e+01 -1.9743623639830297e+01 -3.0387452018613681e+00 1.4454534174354210e+00 3.0504253278582878e+00 3.5663959455579399e+00 -8.9077772396007795e+00 -6.3605870506395554e+00 -4.7432044418207422e+00 -2.6718937616248141e+01 -5.2714147270085689e+00 -1.2184389997699149e+01 -6.3229043977442716e+00 -1.1491496616445245e+00 -1.4229348667701873e+00 1.4876237507750254e+00 5.3605766917906728e-01 -1.6000684018254461e+01 9.7029134947376292e+00 3.6858920688223256e+00 1.2066459423729801e+00 3.5980496414247639e+01 -5.3483374575575510e+01 2.0939807768750285e-01 2.5814590257174665e+01 3.7966616682033006e+01 -4.4783192859759369e-01 -7.2015079003236551e+00 2.1704358453597896e+00 2.8773287012688584e+00 -3.7032596497757034e+01 2.0874884306295329e+00 -3.0144558551811449e+00 -5.3031663041350843e+00 -2.0530179012879032e+01 1.0533760780407739e+00 6.1244767883910491e+01 -7.8312080319132180e+00 -1.8715211456732035e+00 1.4840890574824543e+00 5.3742207388650720e-01 -1.9567722532322655e+01 3.1428162493358979e+01 2.2826190869749330e+00 -7.7068195414791396e-01 4.1736387703089166e+00 -7.3338709025556568e+01 -2.3491401928319149e+01 5.3141059800024308e+01 -2.6099317086884071e+01 -4.1329340000690804e+00 -4.0888135536572099e+00 -3.8686345831454765e+00 -2.1245548023798339e+01 -1.9671435679881998e+01 -3.9981110299039813e+00 8.6587901223108021e-01 -6.1613361633305303e+01 -5.0076530435365505e+01 -3.3200785875284183e+01 -1.8241866691128763e+01 -3.9633746158718971e+01 -8.7567143585742553e+00 -1.0683107923713230e+01 -9.5641155891710365e+00 -2.7300914307705386e+00 2.4545256029856564e+01 5.6431500773095475e+00 -1.2203595475176954e+00 -3.2003953805460441e+01 -1.1701817744976283e+02 -3.0311483485325354e+01 -1.3214222536310990e+02 3.1754540919770200e+01 
      </Row>
      <Row Index="13">
        -4.5750957845990925e-02 -4.9359663787306056e+00 -5.2008202711548925e+00 -3.3913245873266817e-01 -5.8871129637692095e+00 1.1932404047941649e+01 -9.7197982106583414e-01 -3.8141677335935986e-01 9.3953402843607048e+00 -1.6950560905182087e+01 -2.0738990964519282e+00 -1.9120117622339627e+00 6.1448244901768847e+00 1.1262792050836930e+01 1.5480812532270982e-01 2.7672467121702491e+00 4.0123334672422253e+00 5.4983619248885676e+00 -3.3321619017929542e+00 -2.1828526508678219e+00 2.4018694985098964e+01 8.7111635560899199e+00 1.1993645657156115e+01 -1.2763288200857133e+01 -3.1284278456291856e+00 -1.0845100089838113e+00 -4.0492826831773741e+00 4.5047524159713404e-01 -3.1465657985020332e+00 8.5840623635159456e+00 -1.1906045683800894e+00 -2.3410465106480096e+00 -2.4755471242447680e-01 -1.8688080139438275e+00 2.5486094783809925e+00 8.8798019660452638e+00 -1.5355235852843858e+00 -5.6625547681168147e+00 3.3298530557655566e+00 -5.7965386215467274e-01 3.9812629448611467e+00 -2.3963988001012484e+00 -3.7993288047910689e+00 -5.5998472920604918e+00 -1.1545542155808352e+01 1.0056698854974561e+01 -9.0014337283247752e+00 2.0660381811971959e+01 -8.4063585382523576e-01 1.6416288747226326e+00 -3.3653994413583126e+00 3.3019060974655789e-01 -2.0713545867839009e+00 2.8604636677262487e+00 3.0058879409591927e-02 1.2420173547677757e+00 6.2219188253222732e+00 -6.0826491438669947e+00 7.8452741049832309e-01 9.3729127621538755e+00 8.3814743930961821e+00 -1.9486053056500132e+00 -1.0068492405790754e+00 -1.6030114602003869e+00 2.4483383434249344e+00 -7.3852504851533745e+00 1.1069357854013209e+00 1.6359882719443459e+00 -6.6784850748868250e+00 -1.5363067319464463e-02 -5.0854530521339942e+00 2.3452745223654702e+01 -2.4949437523781182e+00 -1.2504422011158169e+00 2.0571741515129327e+00 -1.0723004314444569e+00 -2.9299395774854169e+00 8.7677509333437147e+00 1.3964731615794079e+00 -6.1190635533210513e-01 2.2161380219613878e+00 -9.3221198234873466e+00 4.9748946895368773e-01 2.6223247801330363e+01 1.4799007925576468e+00 -8.0290962543184179e+00 -8.7219942611306189e-01 -4.3348156120891801e-01 -5.6214655345955942e+00 -3.3709509099243959e+00 -1.3040063173189540e+00 -1.5361840855720095e+00 -2.6237279989110082e+01 -5.9793633959319905e+00 -8.5185321126587255e+00 2.0219036058909747e+00 -7.4695415920930897e+00 -5.8524945504818335e+00 -1.0857475068533345e+01 -6.7344541072381414e-02 3.3190381652512468e-01 6.6951391636525184e+00 2.6670510751589043e+00 2.0977294484234914e+00 1.4167328523299489e+00 -1.5186287430856417e+01 -7.9112174033433140e+00 -2.0199872902008899e+01 8.2559775230804959e+00 
      </Row>
      <Row Index="14">
        -6.1489090666668744e-01 -1.8194860278096421e+00 9.8637401425855700e+00 -4.6743439505902655e+00 -7.8927831051944732e+00 3.3851572055667134e-01 1.3335158140893943e+00 1.3734028412270920e+00 -2.3906411092772217e+01 -2.0549891658848772e+01 4.6590916166370775e+00 3.6090542525584239e+00 1.2239819461115722e+01 1.5480812531624411e-01 2.4002729487235165e+01 3.1402640588734716e+00 2.3020333278309927e+01 9.6659147568783652e+00 4.2427051952301369e+00 -3.1700113005142394e-01 4.1589609345660044e+01 1.2614736988674723e+01 -2.2500535446766197e+00 -7.3926856797660250e+01 6.8499476824330818e+00 -3.9925495120499166e+00 5.7336018022342454e+00 8.3862350467506486e-01 -9.0788408080367375e+00 -1.2583922953469759e+01 3.2440967429426419e+00 -4.3103403884795893e-01 7.2706473596586747e+00 4.2218579398245213e+00 -9.3779053323064065e-01 -7.2074253923237102e+00 -3.9598300403449032e+00 -2.3845031748496028e+00 -1.0391412094867237e+01 -1.1889152422458302e+00 5.8632477278571402e+00 -2.2259558221473632e+01 -2.0473819640082169e-01 -5.7069494360039590e+00 -1.4757577018580589e+01 9.3328785323182517e-01 -1.5748560800901846e+01 -5.3884396689131947e+01 3.4866923700414021e+00 -1.9144176171165801e+00 3.3558569757654890e+00 1.5022614126673184e-01 -6.1454590584399575e+00 -5.5546714060750544e+00 -3.3956260391589765e-01 1.9461185893398154e+00 2.6750932050810006e+00 -2.0947754436818240e+01 6.8500519559408266e+00 2.7745064894989664e+01 -8.2917681222236652e+00 3.6647154958086181e-02 -1.5714721481170843e+01 1.3517174915694183e+00 -2.7853278127749981e-01 9.0711155136854167e+00 -3.2205725862483803e+00 -1.8541808453661237e+00 -1.9098952729423072e+01 -6.2174732180592027e+00 -4.7297070040447169e+00 4.5812267203428991e+00 -1.7532822994080162e+00 5.3669378083335251e-01 -1.5206016600682149e+01 -7.3563999880590469e-01 -2.0372989353947943e+01 2.9904090609400793e+01 -9.9182955931477390e-01 -4.2880746850117657e-01 3.9873030181549645e+01 -2.0588157223365979e+01 -1.1948195834479176e+00 3.7830237233390733e+01 -1.3645865958878229e+01 1.4551556734195437e-01 4.4151022060632990e+00 -3.2938930919251552e+00 -1.5690863572500469e+01 -1.6051158587928803e+01 -3.4213656349242587e+00 -1.9129040527992460e+00 -1.2821979200280010e+01 -2.0401174219141947e+01 -2.7733315033861174e+00 1.6756000044557201e+01 9.7196435704273600e+00 -1.6808819160894894e+00 2.2687994876379065e+01 2.9805119995072280e+00 1.3751735505960038e+01 3.7393258160561608e+01 4.9420284362805100e+00 2.2183339497009626e+00 3.3432558303475119e+01 -4.9504479730046185e+01 -8.3774969703525386e+00 -1.0846143503476742e+02 5.8018359161475573e+01 
      </Row>
      <Row Index="15">
        1.1254563468149144e+00 -1.8157913565108785e-01 -1.7272198889581176e+00 5.4833012765186879e+00 -1.0676099827754228e+01 -9.6347468866539430e+00 -4.7183910537308904e-01 3.3412642762947868e+00 -1.0868995197745278e+01 -4.1159513321383983e+01 -1.6205980798787891e+00 1.1239641467931886e+01 6.7761403299132397e+00 2.7672467121623017e+00 3.1402640588629183e+00 3.0507617197476431e+01 2.5501794377433846e+01 1.6919036264781674e+01 -5.9710616291022260e+00 -2.9563836375859136e+00 3.8693543307311430e+01 2.0348466470962915e+01 4.2530143657533834e+00 -4.0773104274751674e+01 1.2279031711198646e-01 -5.3886488945405686e-01 -1.6452017738545837e+00 -6.2278363791516700e+00 -1.2202836102103591e+01 -1.2031827121458573e+01 -1.1060161351341713e+00 2.3916381222004977e+00 -1.2809627510092142e+01 -7.2297944638688936e+00 -4.3919292325885904e+00 -1.4654908172810288e+01 1.3549705775098739e+00 7.5563482512284752e-01 -5.4071335008644272e-01 6.3525466875785339e+00 4.3882852300471145e+00 -1.4387770113543748e+01 -1.6643224519775730e+00 -2.6114781794766166e+00 -3.1976519748042769e+01 4.4781865507402827e+00 -1.2450975481749687e+01 -6.6578367214774985e+01 4.1705507434318365e+00 -3.0607823935295255e+00 -4.2926212252371538e+00 -8.6317766729659873e-01 -7.9782313322161427e+00 3.4298449077154474e+00 -1.5961550531381302e-01 7.9965185107522807e-01 -7.8756534793201394e-01 -2.3561981851442034e+01 -1.1616091241371516e+01 -2.4978067065130318e+00 5.0766997441544426e+00 -1.8558645608366473e+00 -6.2346518363200580e+00 -8.5421914471560250e+00 -1.0965921129928065e+00 3.7462103670774174e+00 4.8313239842480726e-01 -1.7878400011535271e+00 -2.1097754969481208e+01 -1.0462731450681087e+01 -6.6285798887348282e+00 -2.9655839515916966e+01 -2.1749729153898429e+00 -9.9895161651633124e-01 -6.1268747259146741e+00 -1.6834641635542853e+00 -1.6013993381299287e+01 -1.2898052127330701e+00 -2.5030879577163763e+00 1.2598868175793196e+00 1.9620531495295555e+01 -2.5780598518792047e+01 -1.0943608402998346e+00 1.0447015748751673e+02 -3.2990024456338096e-01 -1.1623824138109728e+00 2.8841391184545655e+00 -1.7153714697979993e+01 -1.9500539487905939e+01 -2.7934643640353682e+00 6.5864559492122634e+00 5.1146226453952948e-01 -2.7574325053981472e+01 -1.7839960539809425e+01 -7.8145362909922991e+00 -5.8920411245512220e+01 8.8172827148446431e-01 4.9860585542909703e+00 7.5297842625366309e+00 -1.1154174882417786e+01 1.2387122366977875e+01 -7.3759776609176697e+00 2.6680664347286043e-01 -1.4497144323696598e+00 1.0854988043087760e+01 -8.2791112278271271e+01 7.3875361670154067e+00 -1.7981986685474698e+02 6.2641564265163829e+01 
      </Row>
      <Row Index="16">
        1.0679283618636603e+01 -4.2763538740341147e+00 1.6621458721797321e+01 1.0462561459962586e+01 -6.8740320535487882e+01 6.0021593914737537e-01 -1.7323221351523728e+00 7.8118703373620431e+00 4.6931028876836301e+01 -6.5426358313903393e+01 -3.0133347351286943e-01 2.9426123336361144e+01 2.1221909385351864e+01 4.0123334672648028e+00 2.3020333278394908e+01 2.5501794377701753e+01 2.7153086024333987e+02 8.6057445606109155e+01 1.1676446179433835e+00 -1.3089547467588343e+00 -1.5776014246372856e+01 1.0329065010317781e+02 1.7454167025718384e+01 -6.2496222581321646e+01 2.7150299653558701e+01 -4.5153048708013950e+00 8.4572980032329017e+00 -8.6384458854887143e+00 -1.4234472887458719e+02 1.1046519636317146e+02 9.7524165619811480e+00 1.1612309277734260e+01 3.0224324880924868e+01 2.3207929910576716e+01 3.5410096162689648e+01 -2.3483893237059302e+01 -1.0863049980080923e+01 -1.1924003714695939e+00 -6.0864942659209174e+00 3.7087018920760650e+00 1.1028285380919884e+02 -5.6504660305147254e+01 -1.5674476823954180e+00 -8.2101566030492688e+00 -9.9566233017143624e+00 -2.1691896293244604e+00 -2.1432563922475399e+01 -1.3419417700835663e+02 1.3538136676600486e+01 -7.4082223156336093e+00 -1.1768029080698614e+01 7.3572945666966323e+00 -8.4615257357232210e+01 1.9861404480022763e+01 -6.5740007031461758e+00 -3.0739345740961515e+00 -3.5941225404667101e+01 -2.8590865986948284e+01 1.5841210859431087e-01 6.0578420151425249e+01 -1.3273272472315885e+01 -1.5013971666040321e-02 -1.6307271935814789e+01 3.8560549131646660e-01 -4.5110649729775147e+01 -1.8264766676853640e+01 -6.2340368385085760e+00 -1.2228101944746747e+01 5.9821118047213240e+01 -2.1535433341163390e+01 3.2306632889499101e+00 2.0378536165618076e+01 2.2728864326203460e+01 -7.0225773915761893e+00 -1.9921335703674028e+01 -7.1233521755981200e-01 -1.6218677841398818e+02 3.4823590443664635e+01 -3.5749952252837982e+00 6.2047223045994357e+00 8.3500311632305738e+01 -6.2573597867677236e+01 -8.3037772534598364e+00 2.6442570899215116e+02 -5.2592107628655000e+01 -1.9062227137335863e-01 -3.4063075457356309e+00 -1.8196433595251449e+01 -1.4924460246806004e+02 -1.3763100217503029e+02 -4.9434770929415972e+00 -8.8582018854497271e+00 -4.7885555687817941e+01 -6.8041624519528497e+01 -3.0858606613422268e+01 -3.1286745508578610e+02 -5.5727891209144786e-02 3.2194781961544567e+00 3.7834769691695470e+01 -8.7714375850435715e+00 1.8906741276805766e+02 -1.0299860675402660e+02 1.0463358634177533e+01 -1.7657460031378285e+01 4.1054634279020576e+01 -2.0618963371162047e+02 3.7640067387507359e+00 -1.9532127653040243e+02 -4.0676909244638793e+01 
      </Row>
      <Row Index="17">
        5.0727514805001190e+00 1.6467722131470026e+01 1.1028116996387777e+01 -5.0687032323021182e+00 -5.2476055344563115e+01 -2.0678395382272362e+02 -5.0310677812772413e+00 4.7997163471687587e+00 3.3545678046905316e+01 -1.1394027948897863e+01 -8.0640182142081301e+01 1.5699593708424638e+02 5.7618356241617100e+01 5.4983619249253657e+00 9.6659147569873909e+00 1.6919036264954265e+01 8.6057445606096806e+01 4.7979152691938987e+02 1.2308090717150650e+01 -6.2701213654511649e+00 4.5209829368068534e+02 2.9688287814441139e+01 1.2503543106621235e+01 -2.0891131862502488e+02 -5.3530457074403719e+00 7.0568024971958607e+00 -8.3443522400850654e+00 1.8338754929387817e+00 5.3352523342760705e-01 -2.9849143047138959e+01 -8.5294076722591363e+00 1.6053956109860000e+01 -1.5952773161436502e+02 3.0895062759017240e+01 5.2362505571736602e+00 9.3607446793342234e+01 -1.2575955843912972e+01 5.9484218205018458e+00 4.8693763538097059e+00 -1.3239402433337606e+00 -9.3230147859310257e+00 4.3536263122268586e+01 5.3021323231188546e+00 -4.9229569833102005e+00 -1.0366220516444760e+02 8.7599279546727686e+01 1.2748486896817809e+01 2.0879050682101990e+02 -3.4230540120347541e+00 -1.5575658586649658e+01 1.2805847494881206e-01 -9.1713468972220475e+00 -4.4112708406006696e+01 3.2012685024253237e+01 5.0353568772247623e+00 -1.3003175521299402e+00 7.5373115575437282e+01 1.7555200389578005e+01 -1.3629880388974396e+01 1.4504485918552024e+02 3.6449396145014390e+00 -1.1213922983861512e+01 -3.7429382990089373e+00 -9.0886816127116283e+00 -3.4777044292713654e+01 -1.7417363315040791e+02 -1.1180501013164108e+01 -4.0732600586101642e+00 -2.2677397741333505e+02 -2.3803165338704375e+01 -4.3993103987192498e+01 5.7937015404603727e+01 -1.3429001792395155e+01 -3.6844045149764759e+00 2.5753160161088072e+01 -1.1178129129886072e+00 -4.5284375972873278e+01 -1.3499253034955879e+02 9.5923733589330933e+00 -2.9995703369688518e+00 1.8211352918814772e+01 -1.2645978165015079e+02 -4.3827189889094278e+00 8.9115712311934828e+01 -2.1456535797161877e+01 -7.3773674027496829e+00 -1.5808222264437584e+01 -5.9500533054127303e+00 -6.1890710426351141e+01 -2.5656204279359469e+02 2.5739931979041799e+00 -4.0050278385896370e+00 -2.2139575676482002e+02 8.3916319840458513e+01 1.2069802482841382e+01 2.3665903503090192e+02 -1.4331130820429649e+00 2.9068999661265234e+01 1.7043430100704420e+00 -1.2180739099223651e+01 -2.6807108800498504e+01 -2.2691137792641666e+02 -1.0376210657627510e+01 -2.1281264378484348e+01 -1.7834765710999366e+02 -1.0355642579934666e+02 -1.0764825146291194e+01 -1.0294970057863395e+02 3.6681068904892995e+00 
      </Row>
      <Row Index="18">
        -1.9410798346670930e+00 5.8090633074131226e-01 5.2526889626006010e+00 -6.9737152459208058e+00 3.6300245798606703e+00 -6.6289745359764538e+00 1.1484506932500569e+00 -8.6121417654427823e-01 -3.7006350311037437e+00 1.7159466801884950e+01 -5.8754926567454326e+00 2.7231923272901408e+00 -9.2373927411802015e-01 -3.3321619017992448e+00 4.2427051951989538e+00 -5.9710616291605794e+00 1.1676446178605520e+00 1.2308090717082994e+01 1.0147915947122272e+01 1.1328470806106863e+00 1.6754024139585340e+01 -3.2933064803727090e+00 -5.4238441602526866e+00 -2.3589503636501856e+01 2.9467069345416150e+00 -1.3252132909049885e+00 1.1836013725472414e+00 5.6778836649029714e+00 5.5403259061780641e-01 6.8369642289021038e-01 4.0911287008620795e-01 -6.6442717939263785e-01 -1.2193535890267121e+01 -1.2837302397282750e+00 -1.3593229217959149e+00 -2.0873901502143273e+01 7.4954219746669049e-01 -2.4768095473180063e-01 -3.3537737397477123e+00 -5.1345711145302921e+00 -1.8333313414049166e+00 -4.9567777190096693e+00 -1.8347706085365818e+00 1.6963916224593474e+00 2.1539870955468771e+01 7.2912598952841732e+00 9.6338200713555580e+00 5.3595884870749568e+00 6.5187141948320049e-01 1.3215107102299326e+00 1.4000757514400757e+00 1.2653841131653643e-01 -2.2273273444076178e+00 -1.1147615617572580e+01 7.2382419270076714e-01 -2.0325723859693423e-01 3.1848954774599840e+00 1.1066069310252445e+01 3.5997783038929949e+00 2.1485375644816106e+01 -1.1376828544534860e+01 1.4653508801498700e+00 4.3852118654076477e-01 -9.1910148955872351e-01 -4.0470413501453866e+00 -7.6803906320065352e-01 -2.7405760199090281e+00 -4.8732673035317353e-01 -1.6438415694446096e+01 -9.8487828692762136e-01 5.3681953794150044e+00 -1.0682438073560286e+01 2.2992730274995345e+00 9.8753238392393738e-01 2.8051940666086761e-01 -3.0912034314419079e-01 -3.2181720596881291e-01 -3.1254245735368249e+00 -1.9345485980005082e+00 -2.9934168775728387e-01 -1.3366039910611960e+00 5.9971959977030060e+00 6.2185752891511470e+00 -2.3131365545108231e+01 -5.4537025067803349e+00 2.5363759580790304e+00 -2.4154792075608293e+00 4.0629958063076206e+00 3.8278819823609513e+00 -1.3385979248372299e+01 -6.7536209823650610e+00 7.2339614372299488e-01 -1.5319464621999697e+00 1.9356018400663963e+01 2.8770989301981862e+00 8.1908741411589077e+01 1.3508318496513240e+01 -2.2543148022846804e-01 4.6097454617635387e+00 9.0916026454836683e+00 6.5369664159490171e-01 -7.4950187547278535e+00 -5.8407272698167754e+00 9.2862677897417578e-01 -7.6680684678577506e+00 2.0475110901354668e+01 5.7681610371110805e+00 -3.7046043610857673e+00 4.0079749052404644e+01 
      </Row>
      <Row Index="19">
        6.9986446159745697e-02 1.2893040285755122e+00 3.7677574418517850e+00 1.3887557504083585e+00 -1.5884920516432417e+00 -7.4989170430193042e-01 -6.8302988620488891e-01 -4.5885183703884458e-01 -1.0985681681752979e-01 -1.7959133015764683e+00 9.7252258751542975e-01 -2.9649267983081806e+00 -1.9216571000414735e+00 -2.1828526508639743e+00 -3.1700113004051200e-01 -2.9563836375660903e+00 -1.3089547466863085e+00 -6.2701213653994330e+00 1.1328470806035735e+00 3.8949614127980743e+00 -9.6289832773501871e+00 5.2667446801167390e+00 -6.1355136612208652e+00 1.8935562346202637e+01 -2.8152911591269949e+00 1.1520736113469328e+00 3.0208725782754136e+00 -1.3691503679965866e+00 -1.0201382450480603e+00 1.6894776020735021e+00 4.7981658719816844e-01 2.6326387557202366e+00 6.9714181562042192e+00 -2.4343837880227719e+00 -3.2719822940632124e+00 1.0199253210169172e+01 3.9224576435216534e+00 1.3240232933056935e+00 -1.7031475826898430e+00 6.5803613239677394e-01 -9.9334377828211040e-01 5.3645089912326851e+00 1.9899480300990489e+00 2.4829512446573050e+00 6.7325759834008778e+00 -4.8406734966366489e+00 -4.4225471480274496e+00 1.1959972674830386e+01 3.2522910023890184e-02 -6.4620233288854112e-01 1.5573485341919344e+00 6.0642094593198081e-02 -8.5141643605261574e-01 -3.8998241015974426e+00 -1.0102793789504614e+00 -1.3012150276360310e+00 -3.8911946259193329e+00 -1.5911939859992934e+00 4.7272961573628702e-01 5.3778060592670993e+00 -3.5264668373734542e+00 5.7272946686567766e-02 6.7690464641660175e-01 1.9080528729941335e+00 -1.3154109437623518e-01 -3.5453697396294421e+00 -3.2696449219371715e-01 -3.0357548883746306e+00 -1.3837495537179003e+00 -4.7848210470595536e+00 2.2175092183034084e+00 2.2597674674808701e+00 2.5670116323828118e-01 -1.0433560099547107e-01 -2.5851065344204232e+00 1.2990019194303879e+00 -1.1786219115459033e+00 -5.1809618234292207e+00 -1.1890315880986213e-01 1.2108488157849928e-01 -6.4392469130031742e+00 1.6203793064289136e+00 6.6788192828258741e-01 -4.8726998433600173e+00 4.5324835971514608e+00 1.2808066658099284e+00 1.5911400990466811e+00 7.5749505775055592e-01 2.7993892882943303e+00 3.5011316415274658e+00 4.6779573216976950e-01 -1.0182070092563460e+00 1.0904373076389060e+01 -2.2672580984217499e+00 4.5877985233230909e+00 9.4513758070013800e+00 3.2736034092176887e+00 1.4655883446817404e+00 5.2163901746969978e+00 -1.2149390477928066e+00 3.7414610084687299e+00 -1.1723243125941787e+00 2.3632400749623472e+00 -4.0880310052863162e+00 -3.5043249160835011e-01 -6.9934654781320962e+00 -2.3969618086443170e+00 2.2613608088364096e+01 -1.8620222631700965e+01 
      </Row>
      <Row Index="20">
        -2.1619076998455682e+01 1.2279966631321670e+01 7.1188447299565496e+00 -2.3479688285725757e+01 -7.0356845221798409e+01 3.4736480729063942e+01 -2.9385309603977561e+00 3.7232553700228266e-01 -2.2620443751701310e+02 -9.9772938188564282e+01 -7.4352638988675636e+01 1.7716307874998489e+02 8.2726764533438768e+01 2.4018694985093518e+01 4.1589609345611464e+01 3.8693543307208415e+01 -1.5776014246968643e+01 4.5209829368043671e+02 1.6754024139704260e+01 -9.6289832773671886e+00 1.2360822719744606e+03 5.9345263192803968e+00 3.7722764019124902e+01 -5.5616224123490883e+02 5.6075565733913519e+00 1.0590898327500625e+01 -1.9718837729061896e+01 1.3234192150728765e+01 6.6948958733535363e+01 -8.7206087100319706e+01 -1.7224504453022227e+01 8.1300318252691284e-01 -1.6983924274075315e+02 6.9176216114784879e+01 -1.5462034443986347e+01 8.9699734476452434e+01 -3.8220445965918461e+00 3.1961594020241808e+00 1.1153046827382237e+01 -1.5064783985005514e+01 -2.7008744712080208e+01 -4.8239694595433598e+01 1.2795764954245207e+01 -5.1092862536254898e+01 -1.9298878224013859e+02 2.1520784196930867e+02 -1.0083548199844088e+01 5.0011594531464772e+02 -9.3505595805345596e+00 -1.8522488705825957e+01 1.3425057321221889e+01 -1.1164112734137992e+01 -3.7770042213791392e+01 2.8579618450547247e+01 2.6375575181626960e+00 1.0302431463444597e+01 7.8737969179466830e+01 -5.1015635678592055e+00 6.0310886835456301e+01 2.8485830238708968e+02 -3.9486178044437430e+01 -2.7623473159504552e+01 -1.5493634911854505e+01 -2.5605271096623277e+01 -6.6310886893143248e+00 -8.5771702959940811e+01 -1.7406153969572330e+01 4.5705936582681481e+00 -5.8229696495701285e+02 -6.8573114320834890e+01 -3.3246050380409962e+01 -7.3419832895009762e+01 -6.3024902526393923e+01 -1.3156199044977335e+01 5.1735453267216940e+00 -1.0604676286937785e+01 -1.6223644089906315e+01 1.3449076236288556e+02 3.4488679140386395e+01 -1.5837516424679260e+01 1.4903108130751548e+02 -2.5347102272258800e+02 -1.3196545822816176e+01 1.5046684608911255e+02 -2.8536202553090316e+01 -1.0632448819030433e+01 1.3165745797773150e+01 -1.2449065544890047e+01 -3.2897997533965324e+01 -3.1030772815319386e+02 -5.8680002861263461e+00 -2.1976784726510338e+01 -5.1019938511845095e+02 1.2584504726659810e+02 5.8779272624806140e+01 6.2284592096455765e+02 6.4878097784160929e+01 4.8772359967399638e+01 -2.7714887598176389e+01 -9.8678656897050452e+00 -1.1323667168093019e+02 1.8476393862766705e+02 2.0973353395225423e+01 4.4585030198659759e+00 1.2957253457950662e+02 -6.0018524187762011e+01 1.0441947010511861e+01 -4.3081734661645487e+02 3.2897144622055288e+02 
      </Row>
      <Row Index="21">
        3.4774696679834918e+00 -1.1540409252592355e+01 -7.5370320686062868e+00 1.1331270790597948e+01 -4.1254226742992515e+01 -2.4820187131076864e+01 -7.7751055001874159e+00 -1.3019726088377137e+00 1.6566198564937864e+01 -1.5838403767367365e+02 3.3516895757562878e+01 1.7907694008203427e+02 4.2939477675327659e+01 8.7111635561142151e+00 1.2614736988897805e+01 2.0348466471393447e+01 1.0329065010331941e+02 2.9688287814577535e+01 -3.2933064802010730e+00 5.2667446800113460e+00 5.9345263202868601e+00 2.3994302248799090e+02 -1.0707208109136701e+01 -4.5199647038755813e+01 -3.2094483989038700e+01 -1.7624323781869062e+00 -1.1424876288785715e+00 -9.4674377289540015e+00 4.8792766651067865e-01 -2.9083219168114564e+01 -6.1357726100605881e+00 5.0568577008502320e+00 -1.9556789885560534e+01 -3.6540132196825397e+01 3.0485058782020147e-01 1.0439099237698208e+02 1.6578578696476440e+00 -1.7735965687396380e+01 -2.2538921771628453e+00 5.9152654184555242e+00 -2.3533370996359412e+01 4.4723743865842891e+01 -1.5200025625137631e+01 -7.3419067395813853e+00 -1.8503751929860602e+01 -7.4740742733935832e+01 -8.5938196141403765e+01 1.7958943870722919e+01 9.7136695256340815e+00 -2.0473515664245485e+00 8.8727122858634608e+00 1.1018109519167055e+01 -6.0477007543585000e+00 -1.5094630295213893e+01 3.1334976711479099e+00 1.9152095754944436e+00 1.4045220464163432e+01 -1.1333166299427293e+02 -1.9676185690616116e+01 1.2158629102185114e+02 -5.8709204431515793e+00 2.7228348351818323e+00 -1.5640861764649795e+01 2.0473822097589522e-02 -3.9977404224760015e+01 -4.9410497779255991e+01 -2.1129254706355809e+00 -8.0039009598605979e+00 6.0348129672642159e-01 -6.9308172927015647e+01 -1.0487463999683932e+01 1.5174832713635851e+02 2.1317321982905959e+01 -6.7423665553323193e+00 3.4309337055890055e+00 7.1475814219333849e+00 -2.3616405598010800e+01 1.5132761446443958e+01 -7.2234565744394388e+00 -3.3570461447252637e+00 2.4088924091250021e+01 -1.9639155933949948e+02 -4.2586933001463962e+01 3.7751528044411651e+02 -7.4325640971543336e+00 -1.3901071368971873e+01 2.7367908048498357e-01 -1.0237175926277784e+01 -5.2316928795282791e+01 8.9004460254479056e-01 4.1747181351950786e+00 -2.8783158119750381e+00 -2.6507075209349576e+01 -2.1332185944442216e+02 -1.9913150032832718e+01 -2.5781100499707429e+02 -1.0782436844537624e+01 -2.1009425109844706e+01 5.6496394698657424e+00 -2.0335301036314590e+01 -7.0716756783929178e+00 2.5305701816220676e+01 1.1733727074798853e+01 -1.5814565120527048e+01 -4.5375984740497017e+00 -4.6549155591024476e+02 -1.4352001855393716e+01 -4.0724851710348571e+02 -4.9761418198363444e+01 
      </Row>
      <Row Index="22">
        -7.7070458790554426e+00 -6.9011214399721723e+00 -3.8489565094602938e+00 1.3795566878066928e+01 -2.7910263443688958e+01 -2.4808956883197880e+01 -1.3455429044558215e+01 7.8016189798784836e+00 -1.1583902627985077e+02 1.0608584896989065e+01 -1.8046430895977701e+02 8.0062581484575404e+01 1.8426355084682228e+01 1.1993645657183835e+01 -2.2500535446489991e+00 4.2530143658796487e+00 1.7454167026368474e+01 1.2503543107153162e+01 -5.4238441603557179e+00 -6.1355136611959065e+00 3.7722764018980882e+01 -1.0707208107927132e+01 2.3507673465203740e+02 -2.4829063316048291e+01 1.0839104696847048e+01 -4.1161253897784320e+00 -1.5850100943667313e+01 -1.7745371643203498e+01 -6.1137423036557848e+01 1.0858491554173690e+02 5.9886218952320656e+00 1.3028294919291175e+00 1.0676575478092306e+02 6.5097940047809910e+00 1.3091390864478814e+02 6.2702962977750182e+01 -1.4756247919398220e+01 -6.2395153764880762e+00 1.2932116233928950e+01 1.6835973872323677e+01 4.8754084758242833e+01 -3.4028970390009817e+01 2.4986957519609454e+01 -7.6837110933829207e+00 -1.1899023754373096e+02 -1.0690528310765208e+01 1.0352124883202094e+02 3.0574022883399877e+01 2.3397823326259584e+00 1.3315399535498589e+00 -2.0656891391396101e+01 -3.3304883327101957e+00 -5.1566174651630149e+01 7.1662867377616863e+01 -1.3488117090613990e+01 2.5905332188842909e+00 -6.7580673254923582e+01 -1.3687207059767980e+01 3.8603671880811689e+01 1.5248559796228776e+00 -5.1791717344315664e+00 4.5418734023551952e+00 -2.6883202314958954e+00 6.2529226983474642e+00 1.3689087466060300e+01 -1.0959210677258323e+01 2.5008476436505589e-01 -2.7973426060022302e+00 3.6364718329184910e+01 9.9138107782225049e+00 -1.0356869688328275e+02 7.2620440478419283e+01 -4.8619404428011723e+00 -2.1860424384602615e+00 6.8095736869797108e+00 2.4373439504248022e+00 -5.5334240213506064e+01 3.4422285852683352e+01 2.4289415964696961e+01 2.2704383952986507e+00 1.7867822423311577e+02 -1.5393174312781415e+01 1.8711165496407443e+00 -1.7165577064039363e+02 -2.6729279100104002e+01 -7.5503731125358637e+00 -5.5291716866858662e+00 -2.7252614529684687e+00 -1.9745901104377822e+01 -7.2311809583623770e+01 -6.6867496944449547e+00 7.9326685473499525e-01 5.1470052289584991e+01 -2.2364713859541382e+01 -1.1475482407664268e+02 5.4965382610003736e+01 -5.1648666401417476e+00 -5.0304572633080351e+00 -1.8042222990087318e+01 -2.3704805666923214e+01 7.1050221183201387e+01 -2.1772685789408484e+01 3.7251217000250868e+01 -1.2530857124390624e+00 2.0894065180645464e+02 6.6599723851317620e+01 -2.6697693636671102e+02 2.6885164627506504e+02 -2.2024380339104900e+02 
      </Row>
      <Row Index="23">
        4.3803458277507843e+01 -8.4419204504404206e+00 2.0287105382642153e+01 1.5078887898915696e+01 5.9077030266445917e+01 -1.1775732490676091e+02 1.3998223038675931e+01 -1.3264847707593560e+01 3.7885424376148649e+02 3.5307542505111576e+02 1.6683614442411795e+01 -5.2564733152424253e+02 -1.1798369618401921e+02 -1.2763288200749718e+01 -7.3926856797587845e+01 -4.0773104274778404e+01 -6.2496222579105023e+01 -2.0891131862307515e+02 -2.3589503637116405e+01 1.8935562346423882e+01 -5.5616224123561369e+02 -4.5199647034159383e+01 -2.4829063315043186e+01 1.4447241595218461e+03 -4.4408043205473447e+01 1.0532375204699008e+01 1.6170265210271523e+01 4.2805711453494375e+00 7.5286823158955642e+01 3.9124403083022997e+01 1.8070285673548692e+00 -1.5290084623905225e+00 -1.1404524422419911e+02 1.7127053572145647e+02 -8.6021341043040053e+01 6.4048216481783675e+02 1.9732421203969203e+01 -2.6756776323366218e+01 2.7909461414080219e+01 -2.4355539825963399e+00 -4.2291991592832943e+01 2.3759211650016519e+02 1.8025890553919425e+01 3.4619489685655239e+01 3.5024418152406952e+01 8.7602115052772788e+01 -1.9250121675029106e+01 5.3976237949706706e+02 -3.4365553181130650e+01 7.7460598031824270e+00 -3.4153956034518309e+00 -6.8328314706724846e-01 1.0336984696682502e+02 3.1710148043683660e+01 7.6544223502286481e+00 -1.2346868685662024e+01 1.9291551906864626e+01 3.5809280712790508e+02 -1.0140775516120229e+02 -1.9375359434659848e+02 5.9496995808982646e+01 6.0357155534750451e+00 6.1634443321993764e+01 -5.6888796785739082e+00 -5.1734158655433738e+01 -1.0034213712145689e+02 1.8723714329562540e+01 1.8909398873644960e+01 4.0712690007618122e+01 5.8827481263134842e+01 -1.4911937355124596e+02 -1.4324039142635954e+00 -1.6841402210130575e+01 7.2702874925488068e+00 5.0470756768532510e+01 4.1552602097169471e+00 1.0285551188638328e+02 -2.4151638562862070e+02 -7.0663884731970832e+00 1.3799863277657325e+00 -2.0298417955300192e+02 3.9650418516513906e+02 1.2856757544785199e+02 -8.6877803979378086e+02 1.4940427255957337e+02 -1.8391214630980834e+01 -2.8408745910803745e+01 3.3824331134683774e+01 8.1540143657857016e+01 2.5711738342703040e+02 3.4303445822321898e+01 -1.2199948516681625e+01 2.7646205300953750e+02 2.5541317773156575e+02 1.2416765254376777e+02 6.6580067069234929e+01 -9.3121076403136740e+01 -3.3560796517190035e+01 -1.7015372826888445e+01 1.3169540017129055e+01 -6.7366698253045399e+01 -3.2238229143838555e+02 -3.1756506144239946e+01 -5.8646669696740981e+00 -3.4506206520236714e+02 8.8994296790513908e+02 2.2910902648913993e+01 1.8914867506014716e+03 -8.8217906029687629e+02 
      </Row>
      <Row Index="24">
        8.0318853767329976e+00 1.3858841318978001e+00 9.7263345912327903e-01 -6.4606535168852108e+00 6.1690141286516864e-01 1.5531391796591624e+01 -1.7133027630989195e-01 4.1148214878708647e+00 -6.1622881764319878e+01 1.0754605456449926e+01 5.9758789651910256e+00 -3.0474880985963917e+01 -1.0557860760206022e+01 -3.1284278456296288e+00 6.8499476824152188e+00 1.2279031711281718e-01 2.7150299653537008e+01 -5.3530457073983619e+00 2.9467069345421626e+00 -2.8152911591267915e+00 5.6075565734699993e+00 -3.2094483989051909e+01 1.0839104696848070e+01 -4.4408043205305752e+01 4.4878449922838001e+01 -6.9317969280851308e+00 1.0829679195617754e+00 3.5650878833403921e+00 -2.4842606553420627e+01 2.3720845067819241e+01 3.4177959658912962e+00 9.4333268422563288e-01 3.0871829020383252e+01 1.2154877479938238e+01 1.8216539263985663e+01 -6.7476143168237400e+01 -1.0348825707819305e+01 1.9877504796911492e+00 -3.7523185872326423e+00 -4.0052145951899210e+00 2.3360579341408442e+01 -4.2014407339655797e+01 -1.8394675074655515e+00 6.7627843366477236e-01 -1.4420151326799657e+00 -8.5274286238953199e+00 1.8257222882650108e+01 -8.1458498805269613e+01 -2.8683337066428316e+00 1.8361686795187768e+00 -2.3389799128673348e+00 -1.3845638749959532e-01 -1.6021531689828574e+01 9.9016203044304945e+00 -3.3491937290787899e+00 -1.3510535074308367e+00 9.1920626835758412e-01 4.5973052111987611e+00 2.2379235473975825e+01 -9.7431882714385658e+00 6.6529979725259292e-01 -4.5420301039879468e-01 -7.5351176616610225e+00 1.2519600371792414e+00 6.3514462482543568e+00 2.6685495944762550e+01 -3.8270208965689321e+00 -1.4349769571703743e+00 1.5417019176868067e+01 1.8995497530500938e+01 -1.4792366317007033e+01 -6.1449637676573218e+01 -5.8067486810059297e+00 2.5096595529802102e+00 -4.9823788419649695e+00 -2.6564955930789482e+00 -1.9550403798988960e+01 2.7365989462433564e+01 1.9607405619597291e+00 4.6018378066734886e+00 6.3484958172091098e+01 2.0589143001548358e+01 4.3581680051827920e+00 3.8966269861849931e+00 -2.7255744438726449e+01 8.0884624145766200e+00 3.2671333374505256e+00 -1.6473449299153247e+00 -2.3128086369250610e+01 -2.8335135782974298e+01 -7.0826892443743592e+00 1.4266601005747870e-01 6.4496256335933655e+00 1.0276470406288475e+01 1.1533260665208807e+01 -5.5863527989031319e+01 1.3025514402329900e+01 3.4890369859783297e+00 -9.7127238252660497e-01 1.0372333766039453e+01 2.8618549171725988e+01 1.2710051369123752e+01 2.3689336267036127e+00 1.0788527712571299e+00 7.1937566295674458e+01 3.1996745474681966e+01 1.1718588997993118e+01 -8.9359760798701604e+00 -6.3891221723501470e+00 
      </Row>
      <Row Index="25">
        -1.0249632107851117e+00 7.3120844494548969e+00 3.8657342245319875e+00 4.8380418155872134e+00 -5.4104708602369040e+00 -5.3449797110649939e+00 -5.9548160168154030e-01 7.3395858970235928e-02 -5.6121755705516652e+00 -4.0157877531964763e+00 1.4434157337716247e-01 1.1482907828133271e+01 -2.3967681955341869e+00 -1.0845100089805826e+00 -3.9925495120464327e+00 -5.3886488945127398e-01 -4.5153048707923960e+00 7.0568024972014172e+00 -1.3252132909112091e+00 1.1520736113472214e+00 1.0590898327502217e+01 -1.7624323781474827e+00 -4.1161253897752221e+00 1.0532375204640472e+01 -6.9317969280888230e+00 9.9376996953558354e+00 3.0567015801632391e+00 -2.4489008206501159e+00 1.1052767126962533e+00 3.2057045544565010e-01 -2.6112280458962606e-02 2.2561002510297681e+00 -2.8815268572647845e-01 1.4291151742674770e+00 -8.5082245939365553e+00 1.9586744044191825e+01 2.8883623305534516e+00 7.4676507272526171e+00 3.3956866364539682e+00 2.1815713213549621e+00 4.1691359537619122e-01 8.8450424386707294e+00 6.2471407402446539e+00 -2.2557871711013344e-01 -1.1464378318622598e+01 2.2475324733443101e+00 -6.8006882967134672e+00 3.7538915577540379e+01 1.1090407516586080e+00 -4.0553061820761185e+00 -7.1127464085064940e-01 -2.5780770339790617e+00 -2.0227738940749571e+00 6.6573406898317176e+00 -7.9809334241055041e-01 -3.2821573329308351e-01 -1.2869370422924410e+01 3.1823137581814560e+00 -5.1895137972715233e+00 -1.6846642937824150e+01 -3.7739625499899656e+00 -4.0568259400025113e+00 9.1382604268239254e-01 4.0523538471950027e-01 -1.8767337736164496e+00 -6.1039623085118855e+00 -1.8757679923762627e-01 -4.2088842773336654e-01 -1.0469654022625864e+01 -4.6794406296140725e+00 1.1113215451921715e+01 1.2535440197770287e+00 -8.2718003807573881e-02 -2.2380803900412349e+00 -4.8825070394604886e-01 -3.5329639171452731e-01 -2.0460002260707064e+00 -9.5974596721433230e+00 1.1894364479262967e+00 -9.1351033095532808e-01 -1.1205464094566359e+01 -5.7649518248555269e+00 -1.6292462534315009e+00 -6.2345027162201756e+00 7.4632633389225660e+00 -2.6637532324040025e-01 2.5853518718677444e+00 -1.4914301597206405e+00 3.4453509599079601e+00 -3.2202349056016235e+00 5.1990616536745282e+00 -1.9092894580399489e+00 3.7239966937571003e+00 6.7931478024485958e+00 6.4275532563388804e-02 6.5102325685893003e+00 1.1603925173031016e+00 1.3492024593137648e+01 4.6286333725508051e+00 -5.7810049246139963e+00 2.1765933813273963e-01 -8.6325035239978138e+00 1.5953753157962276e+00 -2.3285734654247867e+00 -7.1425116990355493e+00 6.7789693509379418e+00 9.6101597131764187e+00 1.7999230810293138e+01 -1.0423240299439819e+01 
      </Row>
      <Row Index="26">
        1.4289025325577267e+00 4.2899533411391095e+00 2.0282813115716120e+01 3.6979540430883695e-01 -2.7349319442134279e-01 -7.6812239222247953e+00 -1.9116430456143159e+00 2.0589279792316608e+00 2.2359759859161912e+00 6.5521166647962259e-01 2.3950989102558573e+00 -9.9314785541336672e+00 -4.5438008787984447e+00 -4.0492826831728568e+00 5.7336018022456194e+00 -1.6452017738328120e+00 8.4572980033240714e+00 -8.3443522400520749e+00 1.1836013725367802e+00 3.0208725782753914e+00 -1.9718837729044488e+01 -1.1424876287755266e+00 -1.5850100943655914e+01 1.6170265210044647e+01 1.0829679195694535e+00 3.0567015801629562e+00 1.9440751255506576e+01 -4.6386161128487380e-01 -3.9426099704080082e+00 -3.6000761133962094e+00 3.9344979121287849e+00 4.3160654624681207e+00 -8.6826452740693991e+00 -3.3607631835982357e+00 -9.0787480149505555e+00 -1.8001877588906829e+00 4.6520255749412720e-01 5.1870978867024879e+00 -1.1385907872021582e+01 2.7632536429426247e-01 -1.1569786502766686e+00 -6.5636019263245480e+00 8.6020072934514182e+00 -3.2468082542678323e-01 1.2274209028032383e+01 -3.6074799170951084e+00 -4.6133433855313983e+00 3.7182718231543266e+00 4.2677521836016452e-01 -3.0123110933860686e+00 9.6326364171116445e+00 -6.6422864180643704e-01 -2.3817997591649465e-01 -6.3328140763099512e+00 -4.2634238244385125e+00 -9.1960633708524564e-01 -4.1420945487936756e+00 -1.3204236984281457e+00 -9.2254148207067459e+00 -2.0832626707830887e+01 -1.4435100962268808e+00 -2.0971677314045412e+00 -7.7905549667255496e+00 2.1106379442555436e+00 -9.5388456700614821e-01 3.8378218523106122e+00 -2.3409862458168620e+00 -2.6864585130339989e+00 -7.3118342480143008e+00 -2.4356105709202174e+00 4.1704822144868281e+00 -9.5860417443323627e+00 7.5631028958378343e-01 4.8380549962836050e-01 -1.4236959303843278e+01 1.0638815999169893e+00 -1.5147385117967325e+00 5.9126255742390725e+00 1.8437115917210170e+00 5.8923410940233356e-01 -1.7288677626368759e+01 7.5974210047791324e+00 2.6776202178081805e+00 -5.1621862512843220e-01 1.5057729901607313e+00 3.5124117552893979e+00 1.2471077591864788e+01 -1.2203780592598301e+00 -3.0022938423746424e+00 3.7131389714814951e+00 1.6249554759271763e+00 -4.1968124460064642e+00 1.3299164254252815e+01 3.3790906689002407e+00 1.3294237949498331e+01 -1.6900498460421364e+01 2.5798579555504855e+00 8.9663280238221663e+00 2.6234920626442648e+01 6.0154431954390686e-01 1.0375931528220033e+01 4.6768749976384694e+00 8.5439590726930739e+00 -5.1714714683345688e+00 -1.3843903071439097e+01 -5.0822703424559172e+00 1.1884175630307409e+01 1.2837172437881925e+01 -1.2456879004593004e+01 
      </Row>
      <Row Index="27">
        -5.0757203816071979e+00 -1.1116962668905970e+00 6.2295128586552408e+00 -2.9644051761620595e+01 9.9531171801511746e+00 2.0480771132710828e+01 4.4792601375306118e+00 -2.1978137699070039e+00 2.0836484179521847e+01 1.2649603591277280e+01 -9.4820978046258730e+00 -2.2869562076861065e+01 -4.5558707473824072e+00 4.5047524158387087e-01 8.3862350461599888e-01 -6.2278363792591929e+00 -8.6384458856658437e+00 1.8338754928291809e+00 5.6778836649051536e+00 -1.3691503679844830e+00 1.3234192150559664e+01 -9.4674377292714471e+00 -1.7745371643039785e+01 4.2805711465008356e+00 3.5650878833356394e+00 -2.4489008206404215e+00 -4.6386161126905334e-01 2.8716008381429049e+01 1.1918081951000195e+01 4.7784600876409389e+00 -1.2639681441240542e+00 -7.1248243568918239e+00 -2.5904843699373352e+01 -4.1511987814230036e+00 -9.7792637537796399e+00 -3.5531851969368645e+01 -5.1247329527650043e-01 -2.6360393627109007e+00 -1.8709622487783562e+00 -2.2784625901156591e+01 -8.5054854710619381e+00 -1.0453064351859011e+01 -6.5507771467413471e+00 -1.2665265781218600e+00 2.3505260068738714e+01 2.9009397800072982e+01 9.4749612769287062e-02 1.5281498430279125e+01 -1.1067125879983966e+00 3.6053872392881301e+00 5.0392931688662257e-01 -2.0602235738197611e-01 9.1292488343763374e+00 -2.2525066817428815e+01 3.3074405985681867e+00 2.2480363135724728e+00 -7.0645723855886988e+00 2.7076480466582403e+01 1.1072268905066780e+00 3.6495790936902232e+01 -9.0930978636233437e+00 5.4365993697362125e-01 -1.2447454709676258e+00 -1.6210554212589571e+01 2.5839101966675537e+00 7.2552853634241128e+00 3.4481892863851016e-01 4.5741301652801436e+00 -1.5619424780487778e+01 1.2848329000528825e+01 4.1456490894916813e+00 -5.2704926239640626e+00 -1.2310462058784033e-01 1.0196868434962756e+00 4.2353336866506686e-01 -7.3269124905094261e+00 1.6794993855691928e+01 2.3849097971100566e+00 -4.9294292050972928e+00 -5.6399245724122682e-01 -1.0906162584156959e+01 1.7391352033348319e+01 1.3187506215843614e+01 -5.0858043430841047e+00 -5.5764426803267018e+00 3.4056141272064089e-01 3.7340694255917848e+00 1.0927231269207518e+01 7.6503427320454556e+00 -2.5789824106610677e+00 -4.9164719549601843e+00 9.9492886377933287e-01 -6.0549303281844118e+00 3.9348255691313355e+01 7.8967539474346831e+00 8.7294751501114590e+01 9.8873694682864741e+00 -4.0800935362343838e+00 5.6455059286416165e-01 3.4067657353005238e+01 -1.4024198087280050e+01 2.7303760442461456e+00 -1.1589893063400075e+01 7.0112961570025023e+00 -5.8415630463158479e+00 3.9636823033709049e+01 2.1024403069033525e+01 -4.8147148746274340e+00 5.7790982178360260e+01 
      </Row>
      <Row Index="28">
        -2.6030488633544593e+00 -1.4426495550780025e+00 -2.0825026742513565e+01 -1.3477958369475562e+01 8.0097265701045188e+01 1.1693554467561682e+01 6.9761803876746900e+00 -1.1037166515051618e+01 1.5936836540729362e+02 4.3385754053594830e+01 8.1047963852087690e+01 -1.8977070368134939e+01 -7.2766468360975551e+00 -3.1465657985229383e+00 -9.0788408080455696e+00 -1.2202836102219882e+01 -1.4234472887460151e+02 5.3352523360553761e-01 5.5403259062253440e-01 -1.0201382450176282e+00 6.6948958733442396e+01 4.8792766646469365e-01 -6.1137423036374365e+01 7.5286823159798942e+01 -2.4842606553474468e+01 1.1052767126991832e+00 -3.9426099703413917e+00 1.1918081950946629e+01 2.2556609121504263e+02 -1.3889668482685926e+02 -1.5439872870323191e+01 -1.6604025378416434e+01 -1.3097979319414605e+02 2.0921655467166136e+01 -4.7126137815875154e+01 5.2574190504507406e+01 -3.1622929302681064e+00 -9.6080859915397880e+00 5.2821884323878994e+00 -6.9481536720483010e+00 -1.6707754713189891e+02 6.2937889084074413e+01 -8.7213188368794974e+00 -8.2804242777730632e+00 1.6105686110062337e+01 1.9283174713512786e+01 -2.8674914306769239e+01 1.2776833536522777e+02 -1.4089904229056962e+01 1.3301131385948270e+00 2.9616317549555745e+01 2.7350223115519743e+00 1.3103304086816121e+02 -5.9549962681640658e+01 1.3274858412981722e+01 6.6407755439014986e+00 1.3587136964539829e+02 2.6189258337575968e+01 -2.2320122700681829e+01 -3.7106280839412477e+01 1.4997439857442445e+00 1.3102307163411298e+00 1.2397549076258811e+01 -5.2363616709025331e+00 -1.2031424216924595e+01 2.4221990113632135e+01 4.1213949630285498e+00 1.7079847501571187e+01 -7.4199746709808380e+01 -1.0428345891222786e+01 3.0669238364538703e+01 6.4054646411300782e+00 -1.3238529731103405e+01 6.9679621006904577e+00 2.7132145879206025e+01 6.5099421053013828e-01 1.9135458512442938e+02 1.4977140660249512e+01 4.0495248508533610e+00 -9.0299023936370535e+00 -9.4438641510990010e+01 -1.6630251681627840e+01 1.9336558130770051e+01 -5.9385919676340123e+01 2.6941174314402684e+01 -1.0121146696071975e+01 -3.0043853401486533e+00 1.8365043749292681e+01 6.4059298616913281e+01 9.0776401247732565e+01 5.0916506469707166e+00 -8.7297512270880756e-02 -7.7225959501881022e+01 1.2428042819926892e+01 1.5752349976212059e+01 -2.1100293874610166e+01 -1.0567137036298547e+01 -1.9632183138912787e+01 -4.0733184363750119e+01 9.8230353200728846e+00 -2.6038187961840822e+02 1.6322308771110022e+02 -1.3482759172297484e+01 1.9351515883385996e+01 -1.9431853995144468e+02 8.4664674950379890e+01 7.5899552345274557e+01 6.4248782551641895e+01 7.5317957485921923e+01 
      </Row>
      <Row Index="29">
        1.4818913525350439e+01 -3.2005730507142198e+00 -6.6940838087005545e+00 3.4274323280244823e-01 -1.4726548092091780e+00 1.1842394185692513e+02 -9.4020522301401002e+00 6.0856443570558092e+00 1.8575519238966942e+02 2.2052073770251560e+01 -1.1159727262596334e+02 -8.3294781420529489e+01 -2.7189962694299705e+00 8.5840623635175106e+00 -1.2583922953582320e+01 -1.2031827121560005e+01 1.1046519636317578e+02 -2.9849143047406763e+01 6.8369642278571585e-01 1.6894776020951585e+00 -8.7206087101052617e+01 -2.9083219168105199e+01 1.0858491554212826e+02 3.9124403084745907e+01 2.3720845067856839e+01 3.2057045546725416e-01 -3.6000761134069683e+00 4.7784600874991812e+00 -1.3889668482700301e+02 4.0050481333265071e+02 1.7091895678398025e+01 1.1463218303687245e+01 1.7139808734223408e+02 -2.0521336174079099e+01 3.9832014981977096e+01 -1.8072753360119063e+02 -1.6825672097638023e+01 6.1398567956963364e+00 1.4845011777923357e+01 -4.4521134554987292e+00 1.2131322619094387e+02 -1.4021647852026143e+02 2.1651527965845386e+01 1.9079222639506913e+01 1.1031598614539604e+02 6.8435797462719677e+01 1.0337365495944546e+02 1.5948942060767604e+02 -3.7252920253580637e+00 9.7248320204269554e+00 -4.1619268928044420e+01 1.6001777030855191e-01 -1.1222741912484251e+02 -8.6381263983624326e+00 -2.2732667400691732e+01 -1.2612693986786759e+01 -5.8356413375502086e+01 1.1019926379975521e+01 2.7191089728195180e+01 -5.9892483532239389e+00 -7.5313776599786131e+00 -2.8504670117677362e+00 2.7957509848744109e+00 3.3161182914283369e+00 3.3427760548047161e+01 -2.4158381211123253e+01 1.9136305668968432e+00 -1.5359028920503732e+01 8.5035461715517499e+01 3.8915083199572543e+01 2.5953554959650411e+00 1.3367488708294101e+02 1.5934273896145784e+01 -4.5353690143621757e+00 -9.5707136822288845e+00 -5.0328077213123876e+00 -1.1751293599685313e+02 -6.8387172420733888e+00 1.9561493796048719e+00 1.1256358005087815e+01 -4.9610680451516572e+01 9.3994072494901587e+01 7.7185496613047292e+01 2.5590549837071556e+01 -3.0211068177922680e+01 7.8627134224751742e+00 -1.2832933655071679e+01 1.5972300387671359e+00 -5.5419139438864100e+01 -1.7376558837493985e+02 -1.1226787113182844e+01 3.5669427378035126e+00 -9.7618817852824705e+01 7.9428003684598920e+01 -4.3245531775922878e+01 9.6028610410624808e+01 -7.6959607419404108e+00 1.8246515680727478e+00 -3.3049959011079956e+01 2.3309176321158603e+01 2.7598408808712941e+02 -2.1525004376666794e+02 1.7348207652306534e+01 -2.9692252684626794e+01 -7.8924311779676657e+00 8.9061822941062729e+01 -9.5040058320437268e+01 2.2167849434175162e+02 4.5145392083462896e+00 
      </Row>
      <Row Index="30">
        1.9949871188666428e+00 6.8758556404633397e-01 6.2324990482135494e+00 -6.2915245476940806e-01 8.3949310097585794e-01 8.7722014001827802e+00 -1.0221678796741640e+00 1.7803313737995796e+00 6.5309448686691614e+00 8.9034293913550822e-01 -6.6573944103780915e+00 -3.0475600346817380e+01 -2.5601751241533197e+00 -1.1906045683770112e+00 3.2440967429360628e+00 -1.1060161351343787e+00 9.7524165620316339e+00 -8.5294076722302599e+00 4.0911287007342378e-01 4.7981658720172621e-01 -1.7224504453066679e+01 -6.1357726099802976e+00 5.9886218952820975e+00 1.8070285674072482e+00 3.4177959658923065e+00 -2.6112280458123305e-02 3.9344979121265484e+00 -1.2639681441438091e+00 -1.5439872870359755e+01 1.7091895678399805e+01 9.6419383815088757e+00 3.4357606422604174e+00 1.1813976650657780e+01 6.3686965030657676e+00 1.2343381105686728e+01 -1.4253765499428681e+00 1.8012232647887794e+00 3.3707665602560928e+00 -2.2843231414358955e+00 5.1321589762529041e-01 1.2792502282098274e+01 -1.5073266117751196e+01 7.6422081829823076e+00 1.0593070883785007e+00 -3.1147440546942526e+00 4.2922260025729306e+00 6.1262649082472507e+00 7.5029849287827970e+00 8.2841547706182950e-01 2.2205810323245423e-01 -2.7331299758251277e+00 -1.8751630001772590e-01 -5.0019229011638755e+00 3.8365572972902555e+00 -5.8534452564386221e+00 -1.1909661709095418e+00 -1.3002265730703233e+01 9.2846236123515469e-01 2.6249563860540119e+00 -8.1060026819136706e+00 -1.7909512222741912e+00 5.8634554296945263e-01 3.8205363945965409e-02 2.8032781910012616e+00 2.8952107698078304e+00 7.1263195591373858e+00 -1.7439514385059658e+00 -2.9900318507043115e+00 1.3818088023937170e+01 -6.0773575968578797e-01 -1.0676546769624560e+00 -1.1431528616697864e+01 -6.5656095607330389e-01 -4.7128112293124014e-01 -7.2635761588884034e+00 -9.1866360144126258e-01 -1.0393236354231025e+01 5.8193314649467958e+00 -6.6456473972319152e-01 8.1477298680356236e-01 7.9201626188319274e+00 1.4279085070628257e+01 4.2337952004687427e+00 1.1730810625684619e+01 -5.2906436104910215e-01 3.2749720090552352e+00 3.1935652707207840e-01 -1.3014570510770174e+00 -3.4772064963863336e+00 -9.2482533732061061e+00 -2.3473168078774593e+00 -5.9898941066426881e-01 7.2744652140706130e+00 7.4917094481998614e+00 -4.3011703156270045e+00 6.5515628374082571e+00 5.2500908632926633e+00 2.8806106656742418e+00 6.3494992871876663e+00 2.7977086566513019e+00 2.4387411228195440e+01 -9.0996700270573250e+00 7.9278184122741902e+00 -3.4530908034767669e+00 1.2576754035403702e+01 7.7889042919414369e+00 -1.1011734319980366e+01 2.6361351444475368e+01 -8.1812471996772373e+00 
      </Row>
      <Row Index="31">
        3.8162379960245687e+00 4.2923212474665942e+00 6.6693464998281868e+00 6.5443766626639475e+00 -6.9298180347352263e+00 -1.9227787012673829e+01 -1.7644372566878190e+00 5.2730636733166634e+00 -9.5263778600091769e+00 -9.3412537581036279e+00 3.1067077972321080e+00 3.0454503001493669e+00 2.2577008071321529e+00 -2.3410465106415588e+00 -4.3103403883011104e-01 2.3916381222453929e+00 1.1612309277825778e+01 1.6053956109900852e+01 -6.6442717939893592e-01 2.6326387557144941e+00 8.1300318254898229e-01 5.0568577009692230e+00 1.3028294918477998e+00 -1.5290084628131422e+00 9.4333268423007866e-01 2.2561002510297961e+00 4.3160654624609265e+00 -7.1248243568951430e+00 -1.6604025378464939e+01 1.1463218303646771e+01 3.4357606422509535e+00 1.3440493051963099e+01 1.2515885071970050e+01 -5.4744307863742998e+00 5.9500463196731239e+00 2.5373664158078224e+00 1.1637120305409279e+00 5.3520183518180193e+00 -2.4651573001038227e+00 5.5238493785523177e+00 1.0032413298241828e+01 2.0757635320666075e+00 5.4835726133026155e+00 7.2863964635916894e+00 5.5227356241526748e-01 -8.8138358254243592e+00 4.9035007911025854e+00 1.2431182654264553e+01 -1.2327474987710172e+00 -2.0773269599770732e+00 -2.4040318170472972e+00 -6.6960925393531734e-01 -1.3196143239908553e+01 2.6957003159065280e+00 -4.1384497404826748e+00 -5.6438832581310017e+00 -5.2144832090360920e+00 -1.0045468162079276e+01 -7.6186614636827459e+00 1.5917591665975297e+00 3.2226175501740180e+00 -1.5011546473278097e+00 -3.6149121840923915e-01 4.0239173519078770e+00 -1.2938564437241533e+00 -1.7013853742215826e+01 -2.0862964942332312e+00 -9.8061807569828545e+00 1.8179914263504147e+00 -5.9295086905206800e+00 -4.3916049063961822e+00 7.7114487335289592e+00 5.1817551444416310e-01 -1.0761181744871577e+00 -3.6191247379225895e+00 2.1015148561046546e+00 -1.4722878481393501e+01 -1.9186229244036930e+01 1.4739758121685425e+00 3.5181084231253048e+00 -4.6827031980839706e-02 -5.8951136012657930e+00 -1.6219980941843559e-01 1.0181437695513395e+01 1.8186541025181522e+00 3.8177042452256709e+00 2.7338694704174149e-01 -4.2091564671772321e+00 -4.3000778437185154e+00 -1.0651542241352852e+01 1.5233658370921812e+00 -5.2455728407956648e-01 3.2097944243609788e-01 -6.6508063844136540e+00 9.5610201944387507e-01 -7.8448124362313987e+00 1.3457863868683280e+00 8.4634183014430349e+00 8.2952917548868612e+00 -7.7937517391433815e+00 1.9888761407333810e+01 -3.3196600319955785e+01 6.3905074816775862e+00 -1.8416968226909660e+01 -7.0093362432867981e+00 -2.6160867770566750e+01 1.5821775043604629e+00 7.3751117356660476e+00 -3.0791054392280767e+01 
      </Row>
      <Row Index="32">
        -1.2501062437448468e+01 5.3866809127285649e+00 3.7591759657121315e+00 3.2191357535537392e+01 -3.0911601882171951e+01 1.5761927577735241e+02 -4.8824707230409103e-02 1.3730002933788555e+01 -5.4256642383633061e+02 -1.0896815070472925e+02 -4.9539352898552409e+01 6.3702924879546444e+01 1.7926176290775402e+00 -2.4755471236546356e-01 7.2706473598946388e+00 -1.2809627509514861e+01 3.0224324882068707e+01 -1.5952773161342029e+02 -1.2193535890299890e+01 6.9714181561577355e+00 -1.6983924273946468e+02 -1.9556789883560299e+01 1.0676575477994879e+02 -1.1404524422998028e+02 3.0871829020465668e+01 -2.8815268576778408e-01 -8.6826452741976681e+00 -2.5904843699368399e+01 -1.3097979319407162e+02 1.7139808734112401e+02 1.1813976650511545e+01 1.2515885071947764e+01 6.4515479597614740e+02 -3.6626777546819540e+01 1.0216369953157474e+02 -2.0976719927208734e+01 1.0040346019559600e+01 1.2739037381994285e+01 1.0633689657979467e+01 1.6937368217069100e+01 8.9619559718195021e+01 -7.1145669079117795e+01 1.3100270291380181e+00 2.0941825241389758e+01 -6.6870384636484459e+01 -1.6430175892479585e+02 9.4815681659715267e+01 -1.4322311200277795e+02 7.8790600221726059e-01 -3.7714192394163262e+00 -5.1647360349291112e+01 -9.6683428606363702e+00 -6.3166020721904268e+01 5.5676257963067883e+01 -6.6701836772751788e+00 -7.5303531695596897e+00 -3.8524700380736135e+02 -1.3706339001118602e+02 7.6837981691454374e+01 4.7995933443455669e+01 -3.0981939105395348e+01 -1.5894815075680810e+00 -2.6602608934469309e+01 1.1527974380136810e+01 7.0118965200311337e+01 4.6026732972261811e+01 1.7993213220979669e+00 -2.4738852649517156e+01 2.5337229789347998e+02 1.0031149629217254e+01 -4.7673400573863205e+00 1.0438158324206792e+02 -8.1407021685083691e-01 -4.3099236383693942e+00 -3.7492801696079638e+01 -4.1772688539176395e-01 -1.2059015866907441e+02 5.9809556047467588e+01 -6.6317929722280606e+00 1.2753465376712992e+01 2.8556648682173591e+02 -1.2592326258575302e+00 -8.0151142202035857e+01 4.4015035814095867e+01 -3.0296293290518136e+01 1.1770470696763233e+01 9.2391535509340645e+00 -3.6010390737353650e+00 -2.5869491824523692e+01 -4.8440529932700208e+01 3.5409216309475409e+00 1.0387295929568953e+01 2.7532964354792887e+02 -2.0713913153955608e+02 1.7229711642371527e+01 -2.2613251699208317e+02 1.9959778820080089e+01 1.8640569791379946e+01 2.7680007357460468e+01 -2.6387199238326058e+01 2.0559000879788405e+02 1.7146185210675679e+02 2.0474375797673474e+01 -3.7719954757051426e+01 7.3609105695500023e+02 -1.8284132562665658e+02 -1.5294609685592914e+02 8.4720528626951477e+01 -5.3761575092462681e+02 
      </Row>
      <Row Index="33">
