<?xml version="1.0"?>
<MethodSetup Method="BDT::BDTG">
  <GeneralInfo>
    <Info name="TMVA Release" value="4.2.1 [262657]"/>
    <Info name="ROOT Release" value="6.12/06 [396294]"/>
    <Info name="Creator" value="nlane"/>
    <Info name="Date" value="Sun Apr 14 14:25:32 2024"/>
    <Info name="Host" value="Linux buildservice008.fnal.gov 3.10.0-693.17.1.el7.x86_64 #1 SMP Thu Jan 25 04:11:40 CST 2018 x86_64 x86_64 x86_64 GNU/Linux"/>
    <Info name="Dir" value="/exp/uboone/app/users/nlane/NeutralKaonAnalysis/TMVA/SelectorMVA"/>
    <Info name="Training events" value="9958"/>
    <Info name="TrainingTime" value="4.13387299e+00"/>
    <Info name="AnalysisType" value="Classification"/>
  </GeneralInfo>
  <Options>
    <Option name="V" modified="Yes">False</Option>
    <Option name="VerbosityLevel" modified="No">Default</Option>
    <Option name="VarTransform" modified="No">None</Option>
    <Option name="H" modified="Yes">False</Option>
    <Option name="CreateMVAPdfs" modified="No">False</Option>
    <Option name="IgnoreNegWeightsInTraining" modified="No">False</Option>
    <Option name="NTrees" modified="Yes">1000</Option>
    <Option name="MaxDepth" modified="Yes">2</Option>
    <Option name="MinNodeSize" modified="Yes">2.5%</Option>
    <Option name="nCuts" modified="Yes">20</Option>
    <Option name="BoostType" modified="Yes">Grad</Option>
    <Option name="AdaBoostR2Loss" modified="No">quadratic</Option>
    <Option name="UseBaggedBoost" modified="Yes">True</Option>
    <Option name="Shrinkage" modified="Yes">1.000000e-01</Option>
    <Option name="AdaBoostBeta" modified="No">5.000000e-01</Option>
    <Option name="UseRandomisedTrees" modified="No">False</Option>
    <Option name="UseNvars" modified="No">3</Option>
    <Option name="UsePoissonNvars" modified="No">True</Option>
    <Option name="BaggedSampleFraction" modified="Yes">5.000000e-01</Option>
    <Option name="UseYesNoLeaf" modified="No">True</Option>
    <Option name="NegWeightTreatment" modified="No">pray</Option>
    <Option name="Css" modified="No">1.000000e+00</Option>
    <Option name="Cts_sb" modified="No">1.000000e+00</Option>
    <Option name="Ctb_ss" modified="No">1.000000e+00</Option>
    <Option name="Cbb" modified="No">1.000000e+00</Option>
    <Option name="NodePurityLimit" modified="No">5.000000e-01</Option>
    <Option name="SeparationType" modified="No">giniindex</Option>
    <Option name="RegressionLossFunctionBDTG" modified="No">huber</Option>
    <Option name="HuberQuantile" modified="No">7.000000e-01</Option>
    <Option name="DoBoostMonitor" modified="No">False</Option>
    <Option name="UseFisherCuts" modified="No">False</Option>
    <Option name="MinLinCorrForFisher" modified="No">8.000000e-01</Option>
    <Option name="UseExclusiveVars" modified="No">False</Option>
    <Option name="DoPreselection" modified="No">False</Option>
    <Option name="SigToBkgFraction" modified="No">1.000000e+00</Option>
    <Option name="PruneMethod" modified="No">nopruning</Option>
    <Option name="PruneStrength" modified="No">0.000000e+00</Option>
    <Option name="PruningValFraction" modified="No">5.000000e-01</Option>
    <Option name="SkipNormalization" modified="No">False</Option>
    <Option name="nEventsMin" modified="No">0</Option>
    <Option name="UseBaggedGrad" modified="No">False</Option>
    <Option name="GradBaggingFraction" modified="No">5.000000e-01</Option>
    <Option name="UseNTrainEvents" modified="No">0</Option>
    <Option name="NNodesMax" modified="No">0</Option>
  </Options>
  <Variables NVar="7">
    <Variable VarIndex="0" Expression="separation" Label="separation" Title="Track Start Separation" Unit="cm" Internal="separation" Type="F" Min="1.43901026e-02" Max="4.99534798e+00"/>
    <Variable VarIndex="1" Expression="pion_plus_trkscore" Label="pion_plus_trkscore" Title="Pion Plus Candidate Track/Shower Score" Unit="F" Internal="pion_plus_trkscore" Type="F" Min="0.00000000e+00" Max="1.00000000e+00"/>
    <Variable VarIndex="2" Expression="pion_minus_trkscore" Label="pion_minus_trkscore" Title="Pion Minus Candidate Track/Shower Score" Unit="F" Internal="pion_minus_trkscore" Type="F" Min="0.00000000e+00" Max="1.00000000e+00"/>
    <Variable VarIndex="3" Expression="pion_plus_dEdX" Label="pion_plus_dEdX" Title="Pion Plus Candidate Mean dE/dX" Unit="F" Internal="pion_plus_dEdX" Type="F" Min="2.10916549e-01" Max="2.00000000e+01"/>
    <Variable VarIndex="4" Expression="pion_minus_dEdX" Label="pion_minus_dEdX" Title="Pion Minus Candidate Mean dE/dX" Unit="F" Internal="pion_minus_dEdX" Type="F" Min="2.33498022e-01" Max="2.00000000e+01"/>
    <Variable VarIndex="5" Expression="pion_plus_LLR" Label="pion_plus_LLR" Title="Pion Plus LLR PID Score" Unit="F" Internal="pion_plus_LLR" Type="F" Min="-9.99723971e-02" Max="9.94055629e-01"/>
    <Variable VarIndex="6" Expression="pion_minus_LLR" Label="pion_minus_LLR" Title="Pion Minus LLR PID Score" Unit="F" Internal="pion_minus_LLR" Type="F" Min="-9.99723971e-02" Max="9.93233263e-01"/>
  </Variables>
  <Spectators NSpec="0"/>
  <Classes NClass="2">
    <Class Name="Signal" Index="0"/>
    <Class Name="Background" Index="1"/>
  </Classes>
  <Transformations NTransformations="0"/>
  <MVAPdfs/>
  <Weights NTrees="1000" AnalysisType="1">
    <BinaryTree type="DecisionTree" boostWeight="1.0000000000000000e+00" itree="0">
      <Node pos="s" depth="0" NCoef="0" IVar="0" Cut="2.3862748146057129e+00" cType="1" res="-7.6864352449774742e-03" rms="4.9994090199470520e-01" purity="4.9231356382369995e-01" nType="0">
        <Node pos="l" depth="1" NCoef="0" IVar="5" Cut="2.6442947983741760e-01" cType="1" res="6.7370146512985229e-02" rms="4.9544048309326172e-01" purity="5.6737017631530762e-01" nType="0">
          <Node pos="l" depth="2" NCoef="0" IVar="-1" Cut="0.0000000000000000e+00" cType="1" res="-2.6665002107620239e-02" rms="4.8189669847488403e-01" purity="3.6667495965957642e-01" nType="-99"/>
          <Node pos="r" depth="2" NCoef="0" IVar="-1" Cut="0.0000000000000000e+00" cType="1" res="2.1193942055106163e-02" rms="4.8864141106605530e-01" purity="6.0596972703933716e-01" nType="-99"/>
        </Node>
        <Node pos="r" depth="1" NCoef="0" IVar="5" Cut="4.2099332809448242e-01" cType="1" res="-1.2223008275032043e-01" rms="4.8482966423034668e-01" purity="3.7776991724967957e-01" nType="0">
          <Node pos="l" depth="2" NCoef="0" IVar="-1" Cut="0.0000000000000000e+00" cType="1" res="-5.6855227798223495e-02" rms="4.1132354736328125e-01" purity="2.1572385728359222e-01" nType="-99"/>
          <Node pos="r" depth="2" NCoef="0" IVar="-1" Cut="0.0000000000000000e+00" cType="1" res="-1.3760520145297050e-02" rms="4.9524357914924622e-01" purity="4.3119737505912781e-01" nType="-99"/>
        </Node>
      </Node>
    </BinaryTree>
    <BinaryTree type="DecisionTree" boostWeight="1.0000000000000000e+00" itree="1">
      <Node pos="s" depth="0" NCoef="0" IVar="5" Cut="5.7728302478790283e-01" cType="1" res="-2.2004575002938509e-03" rms="4.9734896421432495e-01" purity="4.9681296944618225e-01" nType="0">
        <Node pos="l" depth="1" NCoef="0" IVar="0" Cut="1.9462910890579224e+00" cType="1" res="-1.5160226821899414e-01" rms="4.6939837932586670e-01" purity="3.3356678485870361e-01" nType="0">
          <Node pos="l" depth="2" NCoef="0" IVar="-1" Cut="0.0000000000000000e+00" cType="1" res="-1.2522885575890541e-02" rms="4.9472716450691223e-01" purity="4.3092945218086243e-01" nType="-99"/>
          <Node pos="r" depth="2" NCoef="0" IVar="-1" Cut="0.0000000000000000e+00" cType="1" res="-4.3143499642610550e-02" rms="4.3951007723808289e-01" purity="2.6398292183876038e-01" nType="-99"/>
        </Node>
        <Node pos="r" depth="1" NCoef="0" IVar="5" Cut="9.5437419414520264e-01" cType="1" res="4.8162482678890228e-02" rms="4.9639096856117249e-01" purity="5.5184280872344971e-01" nType="0">
          <Node pos="l" depth="2" NCoef="0" IVar="-1" Cut="0.0000000000000000e+00" cType="1" res="1.9370321184396744e-02" rms="4.8891523480415344e-01" purity="6.0060936212539673e-01" nType="-99"/>
          <Node pos="r" depth="2" NCoef="0" IVar="-1" Cut="0.0000000000000000e+00" cType="1" res="-4.1866846382617950e-02" rms="4.5451307296752930e-01" purity="2.9382872581481934e-01" nType="-99"/>
        </Node>
      </Node>
    </BinaryTree>
    <BinaryTree type="DecisionTree" boostWeight="1.0000000000000000e+00" itree="2">
      <Node pos="s" depth="0" NCoef="0" IVar="5" Cut="4.7324368357658386e-01" cType="1" res="-7.8814616426825523e-04" rms="4.9363103508949280e-01" purity="4.9808090925216675e-01" nType="0">
        <Node pos="l" depth="1" NCoef="0" IVar="3" Cut="5.9329309463500977e+00" cType="1" res="-1.6435340046882629e-01" rms="4.5766961574554443e-01" purity="3.0267149209976196e-01" nType="0">
          <Node pos="l" depth="2" NCoef="0" IVar="-1" Cut="0.0000000000000000e+00" cType="1" res="-1.4659191481769085e-02" rms="4.8775544762611389e-01" purity="3.9483755826950073e-01" nType="-99"/>
          <Node pos="r" depth="2" NCoef="0" IVar="-1" Cut="0.0000000000000000e+00" cType="1" res="-5.2287772297859192e-02" rms="4.0230214595794678e-01" purity="2.0634037256240845e-01" nType="-99"/>
        </Node>
        <Node pos="r" depth="1" NCoef="0" IVar="5" Cut="9.6929693222045898e-01" cType="1" res="4.5265715569257736e-02" rms="4.9360927939414978e-01" purity="5.5310088396072388e-01" nType="0">
          <Node pos="l" depth="2" NCoef="0" IVar="-1" Cut="0.0000000000000000e+00" cType="1" res="1.4042902737855911e-02" rms="4.9109810590744019e-01" purity="5.7999891042709351e-01" nType="-99"/>
          <Node pos="r" depth="2" NCoef="0" IVar="-1" Cut="0.0000000000000000e+00" cType="1" res="-5.4862022399902344e-02" rms="4.0693110227584839e-01" purity="2.0799298584461212e-01" nType="-99"/>
        </Node>
      </Node>
    </BinaryTree>
    <BinaryTree type="DecisionTree" boostWeight="1.0000000000000000e+00" itree="3">
      <Node pos="s" depth="0" NCoef="0" IVar="5" Cut="3.1740397214889526e-01" cType="1" res="7.6843274291604757e-04" rms="4.9212163686752319e-01" purity="4.9811980128288269e-01" nType="0">
        <Node pos="l" depth="1" NCoef="0" IVar="1" Cut="8.5713219642639160e-01" cType="1" res="-1.6015443205833435e-01" rms="4.5123288035392761e-01" purity="2.8658252954483032e-01" nType="0">
          <Node pos="l" depth="2" NCoef="0" IVar="-1" Cut="0.0000000000000000e+00" cType="1" res="-5.4585237056016922e-02" rms="3.8021400570869446e-01" purity="1.7491425573825836e-01" nType="-99"/>
          <Node pos="r" depth="2" NCoef="0" IVar="-1" Cut="0.0000000000000000e+00" cType="1" res="-7.2692208923399448e-03" rms="4.9182024598121643e-01" purity="4.1376948356628418e-01" nType="-99"/>
        </Node>
        <Node pos="r" depth="1" NCoef="0" IVar="5" Cut="9.6184730529785156e-01" cType="1" res="3.7635587155818939e-02" rms="4.9368885159492493e-01" purity="5.4658263921737671e-01" nType="0">
          <Node pos="l" depth="2" NCoef="0" IVar="-1" Cut="0.0000000000000000e+00" cType="1" res="1.2903183698654175e-02" rms="4.9236613512039185e-01" purity="5.7848864793777466e-01" nType="-99"/>
          <Node pos="r" depth="2" NCoef="0" IVar="-1" Cut="0.0000000000000000e+00" cType="1" res="-3.7690222263336182e-02" rms="4.4507381319999695e-01" purity="2.7813115715980530e-01" nType="-99"/>
        </Node>
      </Node>
    </BinaryTree>
    <BinaryTree type="DecisionTree" boostWeight="1.0000000000000000e+00" itree="4">
      <Node pos="s" depth="0" NCoef="0" IVar="5" Cut="1.6075654327869415e-01" cType="1" res="-3.1323828734457493e-03" rms="4.8977124691009521e-01" purity="4.9423152208328247e-01" nType="0">
        <Node pos="l" depth="1" NCoef="0" IVar="2" Cut="8.5714286565780640e-01" cType="1" res="-1.7582821846008301e-01" rms="4.3186315894126892e-01" purity="2.4959908425807953e-01" nType="0">
          <Node pos="l" depth="2" NCoef="0" IVar="-1" Cut="0.0000000000000000e+00" cType="1" res="-6.2643557786941528e-02" rms="3.2344502210617065e-01" purity="1.1694307625293732e-01" nType="-99"/>
          <Node pos="r" depth="2" NCoef="0" IVar="-1" Cut="0.0000000000000000e+00" cType="1" res="-2.7351312339305878e-02" rms="4.5388135313987732e-01" purity="2.9294309020042419e-01" nType="-99"/>
        </Node>
        <Node pos="r" depth="1" NCoef="0" IVar="5" Cut="9.5442062616348267e-01" cType="1" res="2.5046218186616898e-02" rms="4.9287307262420654e-01" purity="5.3414791822433472e-01" nType="0">
          <Node pos="l" depth="2" NCoef="0" IVar="-1" Cut="0.0000000000000000e+00" cType="1" res="1.1543635278940201e-02" rms="4.9238643050193787e-01" purity="5.7409864664077759e-01" nType="-99"/>
          <Node pos="r" depth="2" NCoef="0" IVar="-1" Cut="0.0000000000000000e+00" cType="1" res="-3.7865411490201950e-02" rms="4.4043949246406555e-01" purity="2.7222773432731628e-01" nType="-99"/>
        </Node>
      </Node>
    </BinaryTree>
    <BinaryTree type="DecisionTree" boostWeight="1.0000000000000000e+00" itree="5">
      <Node pos="s" depth="0" NCoef="0" IVar="0" Cut="1.9118978977203369e+00" cType="1" res="1.1332581751048565e-02" rms="4.8768177628517151e-01" purity="5.0786912441253662e-01" nType="0">
        <Node pos="l" depth="1" NCoef="0" IVar="5" Cut="2.1380566060543060e-01" cType="1" res="8.1600755453109741e-02" rms="4.7983735799789429e-01" purity="5.9340953826904297e-01" nType="0">
          <Node pos="l" depth="2" NCoef="0" IVar="-1" Cut="0.0000000000000000e+00" cType="1" res="-1.9030502066016197e-02" rms="4.6726378798484802e-01" purity="3.3830022811889648e-01" nType="-99"/>
          <Node pos="r" depth="2" NCoef="0" IVar="-1" Cut="0.0000000000000000e+00" cType="1" res="2.1091062575578690e-02" rms="4.7669363021850586e-01" purity="6.2719249725341797e-01" nType="-99"/>
        </Node>
        <Node pos="r" depth="1" NCoef="0" IVar="6" Cut="9.4114243984222412e-01" cType="1" res="-4.7607462853193283e-02" rms="4.8639908432960510e-01" purity="4.3611887097358704e-01" nType="0">
          <Node pos="l" depth="2" NCoef="0" IVar="-1" Cut="0.0000000000000000e+00" cType="1" res="-2.6798995677381754e-03" rms="4.8875111341476440e-01" purity="4.7030055522918701e-01" nType="-99"/>
          <Node pos="r" depth="2" NCoef="0" IVar="-1" Cut="0.0000000000000000e+00" cType="1" res="-4.2800277471542358e-02" rms="4.3953090906143188e-01" purity="2.7326098084449768e-01" nType="-99"/>
        </Node>
      </Node>
    </BinaryTree>
    <BinaryTree type="DecisionTree" boostWeight="1.0000000000000000e+00" itree="6">
      <Node pos="s" depth="0" NCoef="0" IVar="0" Cut="3.8089559078216553e+00" cType="1" res="8.4429129492491484e-04" rms="4.8428121209144592e-01" purity="5.0005930662155151e-01" nType="0">
        <Node pos="l" depth="1" NCoef="0" IVar="5" Cut="3.1680017709732056e-01" cType="1" res="2.6201007887721062e-02" rms="4.8359563946723938e-01" purity="5.2922540903091431e-01" nType="0">
          <Node pos="l" depth="2" NCoef="0" IVar="-1" Cut="0.0000000000000000e+00" cType="1" res="-2.2994883358478546e-02" rms="4.5484405755996704e-01" purity="3.0305525660514832e-01" nType="-99"/>
          <Node pos="r" depth="2" NCoef="0" IVar="-1" Cut="0.0000000000000000e+00" cType="1" res="1.1279623955488205e-02" rms="4.8449227213859558e-01" purity="5.7826638221740723e-01" nType="-99"/>
        </Node>
        <Node pos="r" depth="1" NCoef="0" IVar="4" Cut="3.0572841167449951e+00" cType="1" res="-1.6720308363437653e-01" rms="4.5434001088142395e-01" purity="3.0676552653312683e-01" nType="0">
          <Node pos="l" depth="2" NCoef="0" IVar="-1" Cut="0.0000000000000000e+00" cType="1" res="-5.5933855473995209e-02" rms="3.9196434617042542e-01" purity="1.9902382791042328e-01" nType="-99"/>
          <Node pos="r" depth="2" NCoef="0" IVar="-1" Cut="0.0000000000000000e+00" cType="1" res="-1.8583452329039574e-02" rms="4.7888940572738647e-01" purity="3.8195526599884033e-01" nType="-99"/>
        </Node>
      </Node>
    </BinaryTree>
    <BinaryTree type="DecisionTree" boostWeight="1.0000000000000000e+00" itree="7">
      <Node pos="s" depth="0" NCoef="0" IVar="0" Cut="7.7377575635910034e-01" cType="1" res="2.2019373252987862e-02" rms="4.8366844654083252e-01" purity="5.2021884918212891e-01" nType="0">
        <Node pos="l" depth="1" NCoef="0" IVar="4" Cut="3.8014752864837646e+00" cType="1" res="2.0384570956230164e-01" rms="4.3171709775924683e-01" purity="7.3509418964385986e-01" nType="0">
          <Node pos="l" depth="2" NCoef="0" IVar="-1" Cut="0.0000000000000000e+00" cType="1" res="4.8055425286293030e-02" rms="4.1323193907737732e-01" purity="7.7096962928771973e-01" nType="-99"/>
          <Node pos="r" depth="2" NCoef="0" IVar="-1" Cut="0.0000000000000000e+00" cType="1" res="2.6744479313492775e-02" rms="4.6062794327735901e-01" purity="6.5849071741104126e-01" nType="-99"/>
        </Node>
        <Node pos="r" depth="1" NCoef="0" IVar="1" Cut="8.0952382087707520e-01" cType="1" res="-2.8999133501201868e-03" rms="4.8507803678512573e-01" purity="4.9077019095420837e-01" nType="0">
          <Node pos="l" depth="2" NCoef="0" IVar="-1" Cut="0.0000000000000000e+00" cType="1" res="-2.6843169704079628e-02" rms="4.4495633244514465e-01" purity="3.1505262851715088e-01" nType="-99"/>
          <Node pos="r" depth="2" NCoef="0" IVar="-1" Cut="0.0000000000000000e+00" cType="1" res="4.2995996773242950e-03" rms="4.8862984776496887e-01" purity="5.2421170473098755e-01" nType="-99"/>
        </Node>
      </Node>
    </BinaryTree>
    <BinaryTree type="DecisionTree" boostWeight="1.0000000000000000e+00" itree="8">
      <Node pos="s" depth="0" NCoef="0" IVar="6" Cut="9.4118559360504150e-01" cType="1" res="4.2593707330524921e-03" rms="4.8473301529884338e-01" purity="5.0498259067535400e-01" nType="0">
        <Node pos="l" depth="1" NCoef="0" IVar="6" Cut="3.4634381532669067e-01" cType="1" res="3.4864034503698349e-02" rms="4.8331868648529053e-01" purity="5.3737854957580566e-01" nType="0">
          <Node pos="l" depth="2" NCoef="0" IVar="-1" Cut="0.0000000000000000e+00" cType="1" res="-1.1183341965079308e-02" rms="4.8449820280075073e-01" purity="4.4297486543655396e-01" nType="-99"/>
          <Node pos="r" depth="2" NCoef="0" IVar="-1" Cut="0.0000000000000000e+00" cType="1" res="1.4150769449770451e-02" rms="4.7835397720336914e-01" purity="5.7393163442611694e-01" nType="-99"/>
        </Node>
        <Node pos="r" depth="1" NCoef="0" IVar="6" Cut="9.6844935417175293e-01" cType="1" res="-1.3033445179462433e-01" rms="4.6771007776260376e-01" purity="3.6251124739646912e-01" nType="0">
          <Node pos="l" depth="2" NCoef="0" IVar="-1" Cut="0.0000000000000000e+00" cType="1" res="-2.3346196394413710e-03" rms="4.8343414068222046e-01" purity="4.8643180727958679e-01" nType="-99"/>
          <Node pos="r" depth="2" NCoef="0" IVar="-1" Cut="0.0000000000000000e+00" cType="1" res="-7.6683565974235535e-02" rms="3.1397110223770142e-01" purity="1.0678773373365402e-01" nType="-99"/>
        </Node>
      </Node>
    </BinaryTree>
    <BinaryTree type="DecisionTree" boostWeight="1.0000000000000000e+00" itree="9">
      <Node pos="s" depth="0" NCoef="0" IVar="5" Cut="1.0831359028816223e-01" cType="1" res="8.5580488666892052e-03" rms="4.8278188705444336e-01" purity="5.0837731361389160e-01" nType="0">
        <Node pos="l" depth="1" NCoef="0" IVar="3" Cut="4.3569388389587402e+00" cType="1" res="-1.5688429772853851e-01" rms="4.1348823904991150e-01" purity="2.2984243929386139e-01" nType="0">
          <Node pos="l" depth="2" NCoef="0" IVar="-1" Cut="0.0000000000000000e+00" cType="1" res="3.1865187338553369e-05" rms="4.8098906874656677e-01" purity="3.9575281739234924e-01" nType="-99"/>
          <Node pos="r" depth="2" NCoef="0" IVar="-1" Cut="0.0000000000000000e+00" cType="1" res="-4.6073347330093384e-02" rms="3.6723300814628601e-01" purity="1.6641795635223389e-01" nType="-99"/>
        </Node>
        <Node pos="r" depth="1" NCoef="0" IVar="5" Cut="9.5137739181518555e-01" cType="1" res="3.0732588842511177e-02" rms="4.8707515001296997e-01" purity="5.4570990800857544e-01" nType="0">
          <Node pos="l" depth="2" NCoef="0" IVar="-1" Cut="0.0000000000000000e+00" cType="1" res="1.0723677463829517e-02" rms="4.8658695816993713e-01" purity="5.7687330245971680e-01" nType="-99"/>
          <Node pos="r" depth="2" NCoef="0" IVar="-1" Cut="0.0000000000000000e+00" cType="1" res="-2.0250774919986725e-02" rms="4.6912497282028198e-01" purity="3.6279106140136719e-01" nType="-99"/>
        </Node>
      </Node>
    </BinaryTree>
    <BinaryTree type="DecisionTree" boostWeight="1.0000000000000000e+00" itree="10">
      <Node pos="s" depth="0" NCoef="0" IVar="5" Cut="9.4197446107864380e-01" cType="1" res="-4.7212359495460987e-03" rms="4.8377293348312378e-01" purity="4.9388909339904785e-01" nType="0">
        <Node pos="l" depth="1" NCoef="0" IVar="6" Cut="9.4077157974243164e-01" cType="1" res="2.0921614021062851e-02" rms="4.8491525650024414e-01" purity="5.2398139238357544e-01" nType="0">
          <Node pos="l" depth="2" NCoef="0" IVar="-1" Cut="0.0000000000000000e+00" cType="1" res="9.7314342856407166e-03" rms="4.8516750335693359e-01" purity="5.5609834194183350e-01" nType="-99"/>
          <Node pos="r" depth="2" NCoef="0" IVar="-1" Cut="0.0000000000000000e+00" cType="1" res="-2.0419709384441376e-02" rms="4.6510258316993713e-01" purity="3.7929928302764893e-01" nType="-99"/>
        </Node>
        <Node pos="r" depth="1" NCoef="0" IVar="5" Cut="9.6198272705078125e-01" cType="1" res="-1.2307536602020264e-01" rms="4.6031108498573303e-01" purity="3.5499843955039978e-01" nType="0">
          <Node pos="l" depth="2" NCoef="0" IVar="-1" Cut="0.0000000000000000e+00" cType="1" res="-6.6919100936502218e-04" rms="4.9518957734107971e-01" purity="5.1591312885284424e-01" nType="-99"/>
          <Node pos="r" depth="2" NCoef="0" IVar="-1" Cut="0.0000000000000000e+00" cType="1" res="-5.6404724717140198e-02" rms="3.5830810666084290e-01" purity="1.5096181631088257e-01" nType="-99"/>
        </Node>
      </Node>
    </BinaryTree>
    <BinaryTree type="DecisionTree" boostWeight="1.0000000000000000e+00" itree="11">
      <Node pos="s" depth="0" NCoef="0" IVar="0" Cut="4.2832765579223633e+00" cType="1" res="6.2466990202665329e-03" rms="4.7989037632942200e-01" purity="5.0734722614288330e-01" nType="0">
        <Node pos="l" depth="1" NCoef="0" IVar="5" Cut="9.4195908308029175e-01" cType="1" res="2.1216999739408493e-02" rms="4.7992894053459167e-01" purity="5.2564251422882080e-01" nType="0">
          <Node pos="l" depth="2" NCoef="0" IVar="-1" Cut="0.0000000000000000e+00" cType="1" res="9.2077432200312614e-03" rms="4.8119786381721497e-01" purity="5.5649608373641968e-01" nType="-99"/>
          <Node pos="r" depth="2" NCoef="0" IVar="-1" Cut="0.0000000000000000e+00" cType="1" res="-1.9312057644128799e-02" rms="4.5641484856605530e-01" purity="3.7574186921119690e-01" nType="-99"/>
        </Node>
        <Node pos="r" depth="1" NCoef="0" IVar="4" Cut="3.1513659954071045e+00" cType="1" res="-2.3999916017055511e-01" rms="4.0664803981781006e-01" purity="2.0640967786312103e-01" nType="0">
          <Node pos="l" depth="2" NCoef="0" IVar="-1" Cut="0.0000000000000000e+00" cType="1" res="-7.9372547566890717e-02" rms="2.1239086985588074e-01" purity="5.0837617367506027e-02" nType="-99"/>
          <Node pos="r" depth="2" NCoef="0" IVar="-1" Cut="0.0000000000000000e+00" cType="1" res="-2.5317402556538582e-02" rms="4.8382335901260376e-01" purity="3.3427852392196655e-01" nType="-99"/>
        </Node>
      </Node>
    </BinaryTree>
    <BinaryTree type="DecisionTree" boostWeight="1.0000000000000000e+00" itree="12">
      <Node pos="s" depth="0" NCoef="0" IVar="5" Cut="5.7740610837936401e-01" cType="1" res="-2.8784599635400809e-05" rms="4.7265145182609558e-01" purity="5.0248086452484131e-01" nType="0">
        <Node pos="l" depth="1" NCoef="0" IVar="4" Cut="3.2325336933135986e+00" cType="1" res="-1.1563017964363098e-01" rms="4.4557186961174011e-01" purity="3.0779692530632019e-01" nType="0">
          <Node pos="l" depth="2" NCoef="0" IVar="-1" Cut="0.0000000000000000e+00" cType="1" res="-4.5288126915693283e-02" rms="3.8042506575584412e-01" purity="2.0266617834568024e-01" nType="-99"/>
          <Node pos="r" depth="2" NCoef="0" IVar="-1" Cut="0.0000000000000000e+00" cType="1" res="-7.8779775649309158e-03" rms="4.7602957487106323e-01" purity="3.8959938287734985e-01" nType="-99"/>
        </Node>
        <Node pos="r" depth="1" NCoef="0" IVar="5" Cut="9.7424274682998657e-01" cType="1" res="3.8810379803180695e-02" rms="4.7513693571090698e-01" purity="5.6788980960845947e-01" nType="0">
          <Node pos="l" depth="2" NCoef="0" IVar="-1" Cut="0.0000000000000000e+00" cType="1" res="1.2247665785253048e-02" rms="4.7741907835006714e-01" purity="5.9769731760025024e-01" nType="-99"/>
          <Node pos="r" depth="2" NCoef="0" IVar="-1" Cut="0.0000000000000000e+00" cType="1" res="-7.3698438704013824e-02" rms="1.7455247044563293e-01" purity="3.3193986862897873e-02" nType="-99"/>
        </Node>
      </Node>
    </BinaryTree>
    <BinaryTree type="DecisionTree" boostWeight="1.0000000000000000e+00" itree="13">
      <Node pos="s" depth="0" NCoef="0" IVar="0" Cut="7.7377575635910034e-01" cType="1" res="-7.3870043270289898e-03" rms="4.7792282700538635e-01" purity="4.9223622679710388e-01" nType="0">
        <Node pos="l" depth="1" NCoef="0" IVar="2" Cut="9.5238095521926880e-01" cType="1" res="1.6155673563480377e-01" rms="4.2628547549247742e-01" purity="7.1948051452636719e-01" nType="0">
          <Node pos="l" depth="2" NCoef="0" IVar="-1" Cut="0.0000000000000000e+00" cType="1" res="4.4843431562185287e-02" rms="3.9319667220115662e-01" purity="7.8170239925384521e-01" nType="-99"/>
          <Node pos="r" depth="2" NCoef="0" IVar="-1" Cut="0.0000000000000000e+00" cType="1" res="1.1468725278973579e-02" rms="4.6505963802337646e-01" purity="6.0101968050003052e-01" nType="-99"/>
        </Node>
        <Node pos="r" depth="1" NCoef="0" IVar="4" Cut="1.7176214218139648e+01" cType="1" res="-3.3667754381895065e-02" rms="4.8014873266220093e-01" purity="4.5688626170158386e-01" nType="0">
          <Node pos="l" depth="2" NCoef="0" IVar="-1" Cut="0.0000000000000000e+00" cType="1" res="-2.6357166934758425e-03" rms="4.8191189765930176e-01" purity="4.7832328081130981e-01" nType="-99"/>
          <Node pos="r" depth="2" NCoef="0" IVar="-1" Cut="0.0000000000000000e+00" cType="1" res="-3.6294084042310715e-02" rms="4.4252938032150269e-01" purity="3.1104931235313416e-01" nType="-99"/>
        </Node>
      </Node>
    </BinaryTree>
    <BinaryTree type="DecisionTree" boostWeight="1.0000000000000000e+00" itree="14">
      <Node pos="s" depth="0" NCoef="0" IVar="0" Cut="3.3333642482757568e+00" cType="1" res="1.8423190340399742e-02" rms="4.7796607017517090e-01" purity="5.1547503471374512e-01" nType="0">
        <Node pos="l" depth="1" NCoef="0" IVar="1" Cut="8.5714286565780640e-01" cType="1" res="4.4517729431390762e-02" rms="4.7707372903823853e-01" purity="5.5413419008255005e-01" nType="0">
          <Node pos="l" depth="2" NCoef="0" IVar="-1" Cut="0.0000000000000000e+00" cType="1" res="-1.4602845534682274e-02" rms="4.7007805109024048e-01" purity="3.8986349105834961e-01" nType="-99"/>
          <Node pos="r" depth="2" NCoef="0" IVar="-1" Cut="0.0000000000000000e+00" cType="1" res="1.5202011913061142e-02" rms="4.7440132498741150e-01" purity="5.9659677743911743e-01" nType="-99"/>
        </Node>
        <Node pos="r" depth="1" NCoef="0" IVar="6" Cut="5.2293866872787476e-01" cType="1" res="-8.5088744759559631e-02" rms="4.6735039353370667e-01" purity="3.6212170124053955e-01" nType="0">
          <Node pos="l" depth="2" NCoef="0" IVar="-1" Cut="0.0000000000000000e+00" cType="1" res="-5.1178373396396637e-02" rms="3.9170023798942566e-01" purity="2.0031031966209412e-01" nType="-99"/>
          <Node pos="r" depth="2" NCoef="0" IVar="-1" Cut="0.0000000000000000e+00" cType="1" res="-4.3193972669541836e-03" rms="4.7945159673690796e-01" purity="4.2676013708114624e-01" nType="-99"/>
        </Node>
      </Node>
    </BinaryTree>
    <BinaryTree type="DecisionTree" boostWeight="1.0000000000000000e+00" itree="15">
      <Node pos="s" depth="0" NCoef="0" IVar="6" Cut="2.1236205101013184e-01" cType="1" res="8.8889291509985924e-03" rms="4.7994846105575562e-01" purity="5.0437974929809570e-01" nType="0">
        <Node pos="l" depth="1" NCoef="0" IVar="2" Cut="8.0952167510986328e-01" cType="1" res="-8.3509050309658051e-02" rms="4.7397962212562561e-01" purity="3.9502456784248352e-01" nType="0">
          <Node pos="l" depth="2" NCoef="0" IVar="-1" Cut="0.0000000000000000e+00" cType="1" res="-3.0939790885895491e-03" rms="4.8573145270347595e-01" purity="4.5489138364791870e-01" nType="-99"/>
          <Node pos="r" depth="2" NCoef="0" IVar="-1" Cut="0.0000000000000000e+00" cType="1" res="-3.2527338713407516e-02" rms="4.4947031140327454e-01" purity="3.3068922162055969e-01" nType="-99"/>
        </Node>
        <Node pos="r" depth="1" NCoef="0" IVar="6" Cut="9.5601826906204224e-01" cType="1" res="3.1288020312786102e-02" rms="4.7870606184005737e-01" purity="5.3088963031768799e-01" nType="0">
          <Node pos="l" depth="2" NCoef="0" IVar="-1" Cut="0.0000000000000000e+00" cType="1" res="1.2444494292140007e-02" rms="4.7718945145606995e-01" purity="5.6682491302490234e-01" nType="-99"/>
          <Node pos="r" depth="2" NCoef="0" IVar="-1" Cut="0.0000000000000000e+00" cType="1" res="-3.1392127275466919e-02" rms="4.4726476073265076e-01" purity="3.0546954274177551e-01" nType="-99"/>
        </Node>
      </Node>
    </BinaryTree>
    <BinaryTree type="DecisionTree" boostWeight="1.0000000000000000e+00" itree="16">
      <Node pos="s" depth="0" NCoef="0" IVar="5" Cut="2.1260704100131989e-01" cType="1" res="-9.9029149860143661e-03" rms="4.6826666593551636e-01" purity="4.9465912580490112e-01" nType="0">
        <Node pos="l" depth="1" NCoef="0" IVar="3" Cut="8.1206541061401367e+00" cType="1" res="-1.5218068659305573e-01" rms="3.9844632148742676e-01" purity="2.1123364567756653e-01" nType="0">
          <Node pos="l" depth="2" NCoef="0" IVar="-1" Cut="0.0000000000000000e+00" cType="1" res="-1.6598651185631752e-02" rms="4.4926980137825012e-01" purity="3.0047658085823059e-01" nType="-99"/>
          <Node pos="r" depth="2" NCoef="0" IVar="-1" Cut="0.0000000000000000e+00" cType="1" res="-5.2459325641393661e-02" rms="3.1219124794006348e-01" purity="1.1170390248298645e-01" nType="-99"/>
        </Node>
        <Node pos="r" depth="1" NCoef="0" IVar="0" Cut="4.5209708213806152e+00" cType="1" res="1.4869076199829578e-02" rms="4.7504910826683044e-01" purity="5.4400640726089478e-01" nType="0">
          <Node pos="l" depth="2" NCoef="0" IVar="-1" Cut="0.0000000000000000e+00" cType="1" res="5.4037878289818764e-03" rms="4.7558942437171936e-01" purity="5.5948424339294434e-01" nType="-99"/>
          <Node pos="r" depth="2" NCoef="0" IVar="-1" Cut="0.0000000000000000e+00" cType="1" res="-5.2104689180850983e-02" rms="3.7420535087585449e-01" purity="1.8525607883930206e-01" nType="-99"/>
        </Node>
      </Node>
    </BinaryTree>
    <BinaryTree type="DecisionTree" boostWeight="1.0000000000000000e+00" itree="17">
      <Node pos="s" depth="0" NCoef="0" IVar="2" Cut="6.6666668653488159e-01" cType="1" res="2.0555026829242706e-02" rms="4.7696846723556519e-01" purity="5.1901036500930786e-01" nType="0">
        <Node pos="l" depth="1" NCoef="0" IVar="4" Cut="6.9153628349304199e+00" cType="1" res="-1.8697848916053772e-01" rms="4.3533557653427124e-01" purity="3.1994253396987915e-01" nType="0">
          <Node pos="l" depth="2" NCoef="0" IVar="-1" Cut="0.0000000000000000e+00" cType="1" res="-6.2135741114616394e-02" rms="3.7343508005142212e-01" purity="1.9902382791042328e-01" nType="-99"/>
          <Node pos="r" depth="2" NCoef="0" IVar="-1" Cut="0.0000000000000000e+00" cType="1" res="-1.5805590897798538e-02" rms="4.6262621879577637e-01" purity="4.3829312920570374e-01" nType="-99"/>
        </Node>
        <Node pos="r" depth="1" NCoef="0" IVar="2" Cut="9.8413723707199097e-01" cType="1" res="3.1808458268642426e-02" rms="4.7654628753662109e-01" purity="5.2980482578277588e-01" nType="0">
          <Node pos="l" depth="2" NCoef="0" IVar="-1" Cut="0.0000000000000000e+00" cType="1" res="1.2568520382046700e-02" rms="4.7357752919197083e-01" purity="5.6847798824310303e-01" nType="-99"/>
          <Node pos="r" depth="2" NCoef="0" IVar="-1" Cut="0.0000000000000000e+00" cType="1" res="-1.1072632856667042e-02" rms="4.7517168521881104e-01" purity="4.1591185331344604e-01" nType="-99"/>
        </Node>
      </Node>
    </BinaryTree>
    <BinaryTree type="DecisionTree" boostWeight="1.0000000000000000e+00" itree="18">
      <Node pos="s" depth="0" NCoef="0" IVar="6" Cut="5.6199841201305389e-02" cType="1" res="8.8870787294581532e-04" rms="4.7219705581665039e-01" purity="5.0367355346679688e-01" nType="0">
        <Node pos="l" depth="1" NCoef="0" IVar="4" Cut="1.7239459991455078e+01" cType="1" res="-1.9166342914104462e-01" rms="4.2848715186119080e-01" purity="2.8028744459152222e-01" nType="0">
          <Node pos="l" depth="2" NCoef="0" IVar="-1" Cut="0.0000000000000000e+00" cType="1" res="-2.3733826354146004e-02" rms="4.5760151743888855e-01" purity="3.6462047696113586e-01" nType="-99"/>
          <Node pos="r" depth="2" NCoef="0" IVar="-1" Cut="0.0000000000000000e+00" cType="1" res="-6.4171679317951202e-02" rms="3.5053479671478271e-01" purity="1.5489642322063446e-01" nType="-99"/>
        </Node>
        <Node pos="r" depth="1" NCoef="0" IVar="3" Cut="2.1160221099853516e+00" cType="1" res="1.8549790605902672e-02" rms="4.7208940982818604e-01" purity="5.2416276931762695e-01" nType="0">
          <Node pos="l" depth="2" NCoef="0" IVar="-1" Cut="0.0000000000000000e+00" cType="1" res="2.4845927953720093e-02" rms="4.6353834867477417e-01" purity="6.3668769598007202e-01" nType="-99"/>
          <Node pos="r" depth="2" NCoef="0" IVar="-1" Cut="0.0000000000000000e+00" cType="1" res="-2.7833107742480934e-04" rms="4.7119006514549255e-01" purity="5.0212776660919189e-01" nType="-99"/>
        </Node>
      </Node>
    </BinaryTree>
    <BinaryTree type="DecisionTree" boostWeight="1.0000000000000000e+00" itree="19">
      <Node pos="s" depth="0" NCoef="0" IVar="0" Cut="9.6314400434494019e-01" cType="1" res="-1.1035216739401221e-03" rms="4.7188535332679749e-01" purity="4.9805745482444763e-01" nType="0">
        <Node pos="l" depth="1" NCoef="0" IVar="4" Cut="2.8698620796203613e+00" cType="1" res="1.0372599214315414e-01" rms="4.4823470711708069e-01" purity="6.6301929950714111e-01" nType="0">
          <Node pos="l" depth="2" NCoef="0" IVar="-1" Cut="0.0000000000000000e+00" cType="1" res="3.4561097621917725e-02" rms="4.2933580279350281e-01" purity="7.2356116771697998e-01" nType="-99"/>
          <Node pos="r" depth="2" NCoef="0" IVar="-1" Cut="0.0000000000000000e+00" cType="1" res="8.9564835652709007e-03" rms="4.5835098624229431e-01" purity="6.0252213478088379e-01" nType="-99"/>
        </Node>
        <Node pos="r" depth="1" NCoef="0" IVar="5" Cut="9.4118887186050415e-01" cType="1" res="-2.3250846192240715e-02" rms="4.7377330064773560e-01" purity="4.6320599317550659e-01" nType="0">
          <Node pos="l" depth="2" NCoef="0" IVar="-1" Cut="0.0000000000000000e+00" cType="1" res="3.5759851016337052e-05" rms="4.7679156064987183e-01" purity="4.9653655290603638e-01" nType="-99"/>
          <Node pos="r" depth="2" NCoef="0" IVar="-1" Cut="0.0000000000000000e+00" cType="1" res="-2.9439924284815788e-02" rms="4.4000506401062012e-01" purity="2.9635816812515259e-01" nType="-99"/>
        </Node>
      </Node>
    </BinaryTree>
    <BinaryTree type="DecisionTree" boostWeight="1.0000000000000000e+00" itree="20">
      <Node pos="s" depth="0" NCoef="0" IVar="2" Cut="9.5238095521926880e-01" cType="1" res="-1.0795998387038708e-02" rms="4.7079360485076904e-01" purity="4.8763725161552429e-01" nType="0">
        <Node pos="l" depth="1" NCoef="0" IVar="6" Cut="2.5720897316932678e-01" cType="1" res="3.2676152884960175e-02" rms="4.6884205937385559e-01" purity="5.4084807634353638e-01" nType="0">
          <Node pos="l" depth="2" NCoef="0" IVar="-1" Cut="0.0000000000000000e+00" cType="1" res="-1.1873260140419006e-02" rms="4.7053807973861694e-01" purity="4.0942215919494629e-01" nType="-99"/>
          <Node pos="r" depth="2" NCoef="0" IVar="-1" Cut="0.0000000000000000e+00" cType="1" res="1.4969788491725922e-02" rms="4.6268251538276672e-01" purity="5.9848260879516602e-01" nType="-99"/>
        </Node>
        <Node pos="r" depth="1" NCoef="0" IVar="3" Cut="4.9398078918457031e+00" cType="1" res="-8.5960164666175842e-02" rms="4.6465042233467102e-01" purity="3.9563471078872681e-01" nType="0">
          <Node pos="l" depth="2" NCoef="0" IVar="-1" Cut="0.0000000000000000e+00" cType="1" res="-6.5122847445309162e-03" rms="4.7938206791877747e-01" purity="4.6740406751632690e-01" nType="-99"/>
          <Node pos="r" depth="2" NCoef="0" IVar="-1" Cut="0.0000000000000000e+00" cType="1" res="-5.2843578159809113e-02" rms="3.7486359477043152e-01" purity="1.8438394367694855e-01" nType="-99"/>
        </Node>
      </Node>
    </BinaryTree>
    <BinaryTree type="DecisionTree" boostWeight="1.0000000000000000e+00" itree="21">
      <Node pos="s" depth="0" NCoef="0" IVar="1" Cut="9.5238095521926880e-01" cType="1" res="-4.8902099952101707e-03" rms="4.7256961464881897e-01" purity="4.9326491355895996e-01" nType="0">
        <Node pos="l" depth="1" NCoef="0" IVar="1" Cut="8.1632345914840698e-01" cType="1" res="3.7811793386936188e-02" rms="4.7440856695175171e-01" purity="5.2830380201339722e-01" nType="0">
          <Node pos="l" depth="2" NCoef="0" IVar="-1" Cut="0.0000000000000000e+00" cType="1" res="-1.5317681245505810e-02" rms="4.5501828193664551e-01" purity="3.3876335620880127e-01" nType="-99"/>
          <Node pos="r" depth="2" NCoef="0" IVar="-1" Cut="0.0000000000000000e+00" cType="1" res="1.6189191490411758e-02" rms="4.7513818740844727e-01" purity="5.9846138954162598e-01" nType="-99"/>
        </Node>
        <Node pos="r" depth="1" NCoef="0" IVar="1" Cut="9.9093997478485107e-01" cType="1" res="-7.3853194713592529e-02" rms="4.6131211519241333e-01" purity="4.3667778372764587e-01" nType="0">
          <Node pos="l" depth="2" NCoef="0" IVar="-1" Cut="0.0000000000000000e+00" cType="1" res="4.9783573485910892e-03" rms="4.6850606799125671e-01" purity="5.8355754613876343e-01" nType="-99"/>
          <Node pos="r" depth="2" NCoef="0" IVar="-1" Cut="0.0000000000000000e+00" cType="1" res="-3.7567406892776489e-02" rms="4.2923781275749207e-01" purity="2.7879244089126587e-01" nType="-99"/>
        </Node>
      </Node>
    </BinaryTree>
    <BinaryTree type="DecisionTree" boostWeight="1.0000000000000000e+00" itree="22">
      <Node pos="s" depth="0" NCoef="0" IVar="5" Cut="1.6044105589389801e-01" cType="1" res="5.3440770134329796e-03" rms="4.6992009878158569e-01" purity="5.0041413307189941e-01" nType="0">
        <Node pos="l" depth="1" NCoef="0" IVar="5" Cut="-8.0478901509195566e-04" cType="1" res="-1.0622190684080124e-01" rms="4.0952482819557190e-01" purity="2.3698821663856506e-01" nType="0">
          <Node pos="l" depth="2" NCoef="0" IVar="-1" Cut="0.0000000000000000e+00" cType="1" res="-5.7521156966686249e-02" rms="2.5656908750534058e-01" purity="7.5060918927192688e-02" nType="-99"/>
          <Node pos="r" depth="2" NCoef="0" IVar="-1" Cut="0.0000000000000000e+00" cType="1" res="-1.3079918920993805e-02" rms="4.3943145871162415e-01" purity="2.9170987010002136e-01" nType="-99"/>
        </Node>
        <Node pos="r" depth="1" NCoef="0" IVar="6" Cut="2.1251846849918365e-01" cType="1" res="2.3072108626365662e-02" rms="4.7641655802726746e-01" purity="5.4227292537689209e-01" nType="0">
          <Node pos="l" depth="2" NCoef="0" IVar="-1" Cut="0.0000000000000000e+00" cType="1" res="-1.4859764836728573e-02" rms="4.7984677553176880e-01" purity="4.0525126457214355e-01" nType="-99"/>
          <Node pos="r" depth="2" NCoef="0" IVar="-1" Cut="0.0000000000000000e+00" cType="1" res="9.3742683529853821e-03" rms="4.7288036346435547e-01" purity="5.7432335615158081e-01" nType="-99"/>
        </Node>
      </Node>
    </BinaryTree>
    <BinaryTree type="DecisionTree" boostWeight="1.0000000000000000e+00" itree="23">
      <Node pos="s" depth="0" NCoef="0" IVar="6" Cut="5.6199841201305389e-02" cType="1" res="3.2126335427165031e-03" rms="4.6913352608680725e-01" purity="5.0057733058929443e-01" nType="0">
        <Node pos="l" depth="1" NCoef="0" IVar="4" Cut="7.1174788475036621e+00" cType="1" res="-1.3034100830554962e-01" rms="4.4804888963699341e-01" purity="3.1125530600547791e-01" nType="0">
          <Node pos="l" depth="2" NCoef="0" IVar="-1" Cut="0.0000000000000000e+00" cType="1" res="-4.7754528932273388e-03" rms="4.8829427361488342e-01" purity="4.3241548538208008e-01" nType="-99"/>
          <Node pos="r" depth="2" NCoef="0" IVar="-1" Cut="0.0000000000000000e+00" cType="1" res="-4.1465476155281067e-02" rms="4.0826150774955750e-01" purity="2.3792396485805511e-01" nType="-99"/>
        </Node>
        <Node pos="r" depth="1" NCoef="0" IVar="0" Cut="2.1490862369537354e+00" cType="1" res="1.6018448397517204e-02" rms="4.6911224722862244e-01" purity="5.1873052120208740e-01" nType="0">
          <Node pos="l" depth="2" NCoef="0" IVar="-1" Cut="0.0000000000000000e+00" cType="1" res="1.1608561500906944e-02" rms="4.6689981222152710e-01" purity="5.9161967039108276e-01" nType="-99"/>
          <Node pos="r" depth="2" NCoef="0" IVar="-1" Cut="0.0000000000000000e+00" cType="1" res="-6.4805629663169384e-03" rms="4.6743774414062500e-01" purity="4.3216189742088318e-01" nType="-99"/>
        </Node>
      </Node>
    </BinaryTree>
    <BinaryTree type="DecisionTree" boostWeight="1.0000000000000000e+00" itree="24">
      <Node pos="s" depth="0" NCoef="0" IVar="6" Cut="2.1250844001770020e-01" cType="1" res="1.1412745341658592e-02" rms="4.6631851792335510e-01" purity="5.1245820522308350e-01" nType="0">
        <Node pos="l" depth="1" NCoef="0" IVar="4" Cut="3.2615251541137695e+00" cType="1" res="-9.7935266792774200e-02" rms="4.5456191897392273e-01" purity="3.4867876768112183e-01" nType="0">
          <Node pos="l" depth="2" NCoef="0" IVar="-1" Cut="0.0000000000000000e+00" cType="1" res="-4.9616843461990356e-02" rms="4.0841427445411682e-01" purity="2.1272510290145874e-01" nType="-99"/>
          <Node pos="r" depth="2" NCoef="0" IVar="-1" Cut="0.0000000000000000e+00" cType="1" res="-1.4382836408913136e-02" rms="4.5896807312965393e-01" purity="3.7895259261131287e-01" nType="-99"/>
        </Node>
        <Node pos="r" depth="1" NCoef="0" IVar="6" Cut="9.5602965354919434e-01" cType="1" res="3.2945241779088974e-02" rms="4.6558210253715515e-01" purity="5.4470908641815186e-01" nType="0">
          <Node pos="l" depth="2" NCoef="0" IVar="-1" Cut="0.0000000000000000e+00" cType="1" res="1.3129034079611301e-02" rms="4.6468406915664673e-01" purity="5.8652418851852417e-01" nType="-99"/>
          <Node pos="r" depth="2" NCoef="0" IVar="-1" Cut="0.0000000000000000e+00" cType="1" res="-3.8388013839721680e-02" rms="4.1446155309677124e-01" purity="2.4745047092437744e-01" nType="-99"/>
        </Node>
      </Node>
    </BinaryTree>
    <BinaryTree type="DecisionTree" boostWeight="1.0000000000000000e+00" itree="25">
      <Node pos="s" depth="0" NCoef="0" IVar="5" Cut="9.4117587804794312e-01" cType="1" res="3.1288314610719681e-02" rms="4.7236755490303040e-01" purity="5.2697569131851196e-01" nType="0">
        <Node pos="l" depth="1" NCoef="0" IVar="3" Cut="4.9226031303405762e+00" cType="1" res="4.9976620823144913e-02" rms="4.7148847579956055e-01" purity="5.5953097343444824e-01" nType="0">
          <Node pos="l" depth="2" NCoef="0" IVar="-1" Cut="0.0000000000000000e+00" cType="1" res="1.7222352325916290e-02" rms="4.7101062536239624e-01" purity="6.2140005826950073e-01" nType="-99"/>
          <Node pos="r" depth="2" NCoef="0" IVar="-1" Cut="0.0000000000000000e+00" cType="1" res="-5.9520383365452290e-03" rms="4.6352255344390869e-01" purity="4.1328194737434387e-01" nType="-99"/>
        </Node>
        <Node pos="r" depth="1" NCoef="0" IVar="0" Cut="2.1809666156768799e+00" cType="1" res="-6.2427170574665070e-02" rms="4.6557268500328064e-01" purity="3.6372211575508118e-01" nType="0">
          <Node pos="l" depth="2" NCoef="0" IVar="-1" Cut="0.0000000000000000e+00" cType="1" res="1.1927452578675002e-04" rms="4.7523006796836853e-01" purity="4.6824395656585693e-01" nType="-99"/>
          <Node pos="r" depth="2" NCoef="0" IVar="-1" Cut="0.0000000000000000e+00" cType="1" res="-3.1190084293484688e-02" rms="4.4082012772560120e-01" purity="2.3344674706459045e-01" nType="-99"/>
        </Node>
      </Node>
    </BinaryTree>
    <BinaryTree type="DecisionTree" boostWeight="1.0000000000000000e+00" itree="26">
      <Node pos="s" depth="0" NCoef="0" IVar="0" Cut="2.6681721210479736e+00" cType="1" res="9.1797569766640663e-03" rms="4.6942129731178284e-01" purity="5.0923460721969604e-01" nType="0">
        <Node pos="l" depth="1" NCoef="0" IVar="2" Cut="9.5238095521926880e-01" cType="1" res="4.3289266526699066e-02" rms="4.7393718361854553e-01" purity="5.6715172529220581e-01" nType="0">
          <Node pos="l" depth="2" NCoef="0" IVar="-1" Cut="0.0000000000000000e+00" cType="1" res="1.6253389418125153e-02" rms="4.6905165910720825e-01" purity="6.1217516660690308e-01" nType="-99"/>
          <Node pos="r" depth="2" NCoef="0" IVar="-1" Cut="0.0000000000000000e+00" cType="1" res="-3.1247271690517664e-03" rms="4.7671860456466675e-01" purity="4.8919767141342163e-01" nType="-99"/>
        </Node>
        <Node pos="r" depth="1" NCoef="0" IVar="6" Cut="3.1677401065826416e-01" cType="1" res="-6.4686268568038940e-02" rms="4.5072734355926514e-01" purity="3.8381201028823853e-01" nType="0">
          <Node pos="l" depth="2" NCoef="0" IVar="-1" Cut="0.0000000000000000e+00" cType="1" res="-4.8139773309230804e-02" rms="3.7464070320129395e-01" purity="1.6667950153350830e-01" nType="-99"/>
          <Node pos="r" depth="2" NCoef="0" IVar="-1" Cut="0.0000000000000000e+00" cType="1" res="-5.9146839193999767e-03" rms="4.5969262719154358e-01" purity="4.3604490160942078e-01" nType="-99"/>
        </Node>
      </Node>
    </BinaryTree>
    <BinaryTree type="DecisionTree" boostWeight="1.0000000000000000e+00" itree="27">
      <Node pos="s" depth="0" NCoef="0" IVar="0" Cut="2.4356245994567871e+00" cType="1" res="-3.9040934294462204e-02" rms="4.6259078383445740e-01" purity="4.6116998791694641e-01" nType="0">
        <Node pos="l" depth="1" NCoef="0" IVar="1" Cut="8.5714286565780640e-01" cType="1" res="-1.6897120513021946e-03" rms="4.6637076139450073e-01" purity="5.3860884904861450e-01" nType="0">
          <Node pos="l" depth="2" NCoef="0" IVar="-1" Cut="0.0000000000000000e+00" cType="1" res="-2.8899056836962700e-02" rms="4.4003280997276306e-01" purity="3.3144965767860413e-01" nType="-99"/>
          <Node pos="r" depth="2" NCoef="0" IVar="-1" Cut="0.0000000000000000e+00" cType="1" res="5.7881069369614124e-03" rms="4.6693065762519836e-01" purity="5.8401763439178467e-01" nType="-99"/>
        </Node>
        <Node pos="r" depth="1" NCoef="0" IVar="1" Cut="6.6666668653488159e-01" cType="1" res="-1.0075131058692932e-01" rms="4.4952821731567383e-01" purity="3.3322820067405701e-01" nType="0">
          <Node pos="l" depth="2" NCoef="0" IVar="-1" Cut="0.0000000000000000e+00" cType="1" res="1.2135935015976429e-02" rms="4.6497479081153870e-01" purity="4.2961266636848450e-01" nType="-99"/>
          <Node pos="r" depth="2" NCoef="0" IVar="-1" Cut="0.0000000000000000e+00" cType="1" res="-2.5186572223901749e-02" rms="4.4464311003684998e-01" purity="3.2287979125976562e-01" nType="-99"/>
        </Node>
      </Node>
    </BinaryTree>
    <BinaryTree type="DecisionTree" boostWeight="1.0000000000000000e+00" itree="28">
      <Node pos="s" depth="0" NCoef="0" IVar="0" Cut="3.3347771167755127e+00" cType="1" res="-9.5227244310081005e-04" rms="4.7445946931838989e-01" purity="4.8762169480323792e-01" nType="0">
        <Node pos="l" depth="1" NCoef="0" IVar="3" Cut="1.9057662963867188e+01" cType="1" res="1.7832605168223381e-02" rms="4.8135700821876526e-01" purity="5.2368193864822388e-01" nType="0">
          <Node pos="l" depth="2" NCoef="0" IVar="-1" Cut="0.0000000000000000e+00" cType="1" res="2.3691184469498694e-04" rms="4.7827714681625366e-01" purity="5.2051514387130737e-01" nType="-99"/>
          <Node pos="r" depth="2" NCoef="0" IVar="-1" Cut="0.0000000000000000e+00" cType="1" res="2.2865403443574905e-02" rms="4.8793491721153259e-01" purity="5.3991609811782837e-01" nType="-99"/>
        </Node>
        <Node pos="r" depth="1" NCoef="0" IVar="6" Cut="6.2788677215576172e-01" cType="1" res="-7.6780363917350769e-02" rms="4.3740674853324890e-01" purity="3.4205883741378784e-01" nType="0">
          <Node pos="l" depth="2" NCoef="0" IVar="-1" Cut="0.0000000000000000e+00" cType="1" res="-4.1619360446929932e-02" rms="3.7075522541999817e-01" purity="1.8384300172328949e-01" nType="-99"/>
          <Node pos="r" depth="2" NCoef="0" IVar="-1" Cut="0.0000000000000000e+00" cType="1" res="-6.5305652096867561e-03" rms="4.5490157604217529e-01" purity="4.0912428498268127e-01" nType="-99"/>
        </Node>
      </Node>
    </BinaryTree>
    <BinaryTree type="DecisionTree" boostWeight="1.0000000000000000e+00" itree="29">
      <Node pos="s" depth="0" NCoef="0" IVar="5" Cut="1.0841389000415802e-01" cType="1" res="-2.1152179688215256e-02" rms="4.6296799182891846e-01" purity="4.7309795022010803e-01" nType="0">
        <Node pos="l" depth="1" NCoef="0" IVar="3" Cut="1.9065965652465820e+01" cType="1" res="-1.2183525413274765e-01" rms="3.8627567887306213e-01" purity="1.9644746184349060e-01" nType="0">
          <Node pos="l" depth="2" NCoef="0" IVar="-1" Cut="0.0000000000000000e+00" cType="1" res="-4.0540400892496109e-02" rms="3.4646433591842651e-01" purity="1.5415339171886444e-01" nType="-99"/>
          <Node pos="r" depth="2" NCoef="0" IVar="-1" Cut="0.0000000000000000e+00" cType="1" res="-1.0623829439282417e-02" rms="4.2750328779220581e-01" purity="2.5980937480926514e-01" nType="-99"/>
        </Node>
        <Node pos="r" depth="1" NCoef="0" IVar="1" Cut="9.7626030445098877e-01" cType="1" res="-7.8578898683190346e-03" rms="4.7055712342262268e-01" purity="5.0962716341018677e-01" nType="0">
          <Node pos="l" depth="2" NCoef="0" IVar="-1" Cut="0.0000000000000000e+00" cType="1" res="4.3170885182917118e-03" rms="4.7340503334999084e-01" purity="5.5872273445129395e-01" nType="-99"/>
          <Node pos="r" depth="2" NCoef="0" IVar="-1" Cut="0.0000000000000000e+00" cType="1" res="-1.4872927218675613e-02" rms="4.5820629596710205e-01" purity="4.0263479948043823e-01" nType="-99"/>
        </Node>
      </Node>
    </BinaryTree>
    <BinaryTree type="DecisionTree" boostWeight="1.0000000000000000e+00" itree="30">
      <Node pos="s" depth="0" NCoef="0" IVar="6" Cut="9.4118559360504150e-01" cType="1" res="2.7696255594491959e-02" rms="4.6938326954841614e-01" purity="5.2158844470977783e-01" nType="0">
        <Node pos="l" depth="1" NCoef="0" IVar="0" Cut="4.2996282577514648e+00" cType="1" res="4.1647762060165405e-02" rms="4.7007408738136292e-01" purity="5.4581677913665771e-01" nType="0">
          <Node pos="l" depth="2" NCoef="0" IVar="-1" Cut="0.0000000000000000e+00" cType="1" res="1.0470789857208729e-02" rms="4.7131550312042236e-01" purity="5.6199234724044800e-01" nType="-99"/>
          <Node pos="r" depth="2" NCoef="0" IVar="-1" Cut="0.0000000000000000e+00" cType="1" res="-1.3876588083803654e-02" rms="4.3927228450775146e-01" purity="3.1970933079719543e-01" nType="-99"/>
        </Node>
        <Node pos="r" depth="1" NCoef="0" IVar="6" Cut="9.7836661338806152e-01" cType="1" res="-4.1585799306631088e-02" rms="4.5970767736434937e-01" purity="4.0127250552177429e-01" nType="0">
          <Node pos="l" depth="2" NCoef="0" IVar="-1" Cut="0.0000000000000000e+00" cType="1" res="1.9729924388229847e-03" rms="4.7309482097625732e-01" purity="4.6327894926071167e-01" nType="-99"/>
          <Node pos="r" depth="2" NCoef="0" IVar="-1" Cut="0.0000000000000000e+00" cType="1" res="-7.4431814253330231e-02" rms="2.0813588798046112e-01" purity="5.0412289798259735e-02" nType="-99"/>
        </Node>
      </Node>
    </BinaryTree>
    <BinaryTree type="DecisionTree" boostWeight="1.0000000000000000e+00" itree="31">
      <Node pos="s" depth="0" NCoef="0" IVar="6" Cut="9.4119864702224731e-01" cType="1" res="3.3717412501573563e-02" rms="4.6350020170211792e-01" purity="5.3198832273483276e-01" nType="0">
        <Node pos="l" depth="1" NCoef="0" IVar="0" Cut="9.6303153038024902e-01" cType="1" res="5.3507197648286819e-02" rms="4.6502009034156799e-01" purity="5.6489163637161255e-01" nType="0">
          <Node pos="l" depth="2" NCoef="0" IVar="-1" Cut="0.0000000000000000e+00" cType="1" res="2.8447886928915977e-02" rms="4.1266128420829773e-01" purity="7.4086993932723999e-01" nType="-99"/>
          <Node pos="r" depth="2" NCoef="0" IVar="-1" Cut="0.0000000000000000e+00" cType="1" res="7.7467220835387707e-03" rms="4.7431915998458862e-01" purity="5.2528840303421021e-01" nType="-99"/>
        </Node>
        <Node pos="r" depth="1" NCoef="0" IVar="6" Cut="9.6845555305480957e-01" cType="1" res="-7.1328774094581604e-02" rms="4.4071280956268311e-01" purity="3.5733443498611450e-01" nType="0">
          <Node pos="l" depth="2" NCoef="0" IVar="-1" Cut="0.0000000000000000e+00" cType="1" res="1.8048696219921112e-03" rms="4.7064551711082458e-01" purity="4.7618699073791504e-01" nType="-99"/>
          <Node pos="r" depth="2" NCoef="0" IVar="-1" Cut="0.0000000000000000e+00" cType="1" res="-4.8990704119205475e-02" rms="3.4037783741950989e-01" purity="1.4947573840618134e-01" nType="-99"/>
        </Node>
      </Node>
    </BinaryTree>
    <BinaryTree type="DecisionTree" boostWeight="1.0000000000000000e+00" itree="32">
      <Node pos="s" depth="0" NCoef="0" IVar="2" Cut="9.5238095521926880e-01" cType="1" res="8.2151321694254875e-03" rms="4.6330678462982178e-01" purity="5.0797873735427856e-01" nType="0">
        <Node pos="l" depth="1" NCoef="0" IVar="0" Cut="3.3929998874664307e+00" cType="1" res="3.2541044056415558e-02" rms="4.5963189005851746e-01" purity="5.5062419176101685e-01" nType="0">
          <Node pos="l" depth="2" NCoef="0" IVar="-1" Cut="0.0000000000000000e+00" cType="1" res="1.0805349797010422e-02" rms="4.6239542961120605e-01" purity="5.9346550703048706e-01" nType="-99"/>
          <Node pos="r" depth="2" NCoef="0" IVar="-1" Cut="0.0000000000000000e+00" cType="1" res="-9.8570836707949638e-03" rms="4.3917793035507202e-01" purity="3.6527061462402344e-01" nType="-99"/>
        </Node>
        <Node pos="r" depth="1" NCoef="0" IVar="3" Cut="5.9547357559204102e+00" cType="1" res="-3.3995714038610458e-02" rms="4.6661537885665894e-01" purity="4.3397948145866394e-01" nType="0">
          <Node pos="l" depth="2" NCoef="0" IVar="-1" Cut="0.0000000000000000e+00" cType="1" res="-7.2707189247012138e-04" rms="4.8074248433113098e-01" purity="4.8618760704994202e-01" nType="-99"/>
          <Node pos="r" depth="2" NCoef="0" IVar="-1" Cut="0.0000000000000000e+00" cType="1" res="-2.9929773882031441e-02" rms="4.0240216255187988e-01" purity="2.6585945487022400e-01" nType="-99"/>
        </Node>
      </Node>
    </BinaryTree>
    <BinaryTree type="DecisionTree" boostWeight="1.0000000000000000e+00" itree="33">
      <Node pos="s" depth="0" NCoef="0" IVar="5" Cut="8.8962948322296143e-01" cType="1" res="-8.1375697627663612e-03" rms="4.6159344911575317e-01" purity="4.9463230371475220e-01" nType="0">
        <Node pos="l" depth="1" NCoef="0" IVar="3" Cut="7.8085403442382812e+00" cType="1" res="2.4564515799283981e-02" rms="4.5706626772880554e-01" purity="5.2715563774108887e-01" nType="0">
          <Node pos="l" depth="2" NCoef="0" IVar="-1" Cut="0.0000000000000000e+00" cType="1" res="1.1810736730694771e-02" rms="4.6651646494865417e-01" purity="5.8028835058212280e-01" nType="-99"/>
          <Node pos="r" depth="2" NCoef="0" IVar="-1" Cut="0.0000000000000000e+00" cType="1" res="-1.5445953235030174e-02" rms="4.1404339671134949e-01" purity="3.6790937185287476e-01" nType="-99"/>
        </Node>
        <Node pos="r" depth="1" NCoef="0" IVar="2" Cut="8.0952382087707520e-01" cType="1" res="-6.5607994794845581e-02" rms="4.6389126777648926e-01" purity="4.3747603893280029e-01" nType="0">
          <Node pos="l" depth="2" NCoef="0" IVar="-1" Cut="0.0000000000000000e+00" cType="1" res="4.1619194671511650e-03" rms="4.6745407581329346e-01" purity="4.9976390600204468e-01" nType="-99"/>
          <Node pos="r" depth="2" NCoef="0" IVar="-1" Cut="0.0000000000000000e+00" cType="1" res="-1.9583106040954590e-02" rms="4.5965442061424255e-01" purity="4.1830006241798401e-01" nType="-99"/>
        </Node>
      </Node>
    </BinaryTree>
    <BinaryTree type="DecisionTree" boostWeight="1.0000000000000000e+00" itree="34">
      <Node pos="s" depth="0" NCoef="0" IVar="1" Cut="6.6666668653488159e-01" cType="1" res="-3.2904557883739471e-03" rms="4.6167850494384766e-01" purity="4.9756911396980286e-01" nType="0">
        <Node pos="l" depth="1" NCoef="0" IVar="-1" Cut="0.0000000000000000e+00" cType="1" res="-3.9111249148845673e-02" rms="3.9255723357200623e-01" purity="2.1841180324554443e-01" nType="-99"/>
        <Node pos="r" depth="1" NCoef="0" IVar="6" Cut="9.4047105312347412e-01" cType="1" res="5.3784707561135292e-03" rms="4.6321380138397217e-01" purity="5.1167106628417969e-01" nType="0">
          <Node pos="l" depth="2" NCoef="0" IVar="-1" Cut="0.0000000000000000e+00" cType="1" res="4.8877499066293240e-03" rms="4.6622058749198914e-01" purity="5.4552465677261353e-01" nType="-99"/>
          <Node pos="r" depth="2" NCoef="0" IVar="-1" Cut="0.0000000000000000e+00" cType="1" res="-1.6900932416319847e-02" rms="4.3920388817787170e-01" purity="3.5017293691635132e-01" nType="-99"/>
        </Node>
      </Node>
    </BinaryTree>
    <BinaryTree type="DecisionTree" boostWeight="1.0000000000000000e+00" itree="35">
      <Node pos="s" depth="0" NCoef="0" IVar="3" Cut="4.9398078918457031e+00" cType="1" res="1.2497354298830032e-02" rms="4.5769780874252319e-01" purity="5.1364672183990479e-01" nType="0">
        <Node pos="l" depth="1" NCoef="0" IVar="1" Cut="9.7627025842666626e-01" cType="1" res="3.5196613520383835e-02" rms="4.6087715029716492e-01" purity="5.5971342325210571e-01" nType="0">
          <Node pos="l" depth="2" NCoef="0" IVar="-1" Cut="0.0000000000000000e+00" cType="1" res="1.5220111235976219e-02" rms="4.5701602101325989e-01" purity="6.2061405181884766e-01" nType="-99"/>
          <Node pos="r" depth="2" NCoef="0" IVar="-1" Cut="0.0000000000000000e+00" cType="1" res="-1.0318159125745296e-02" rms="4.5895668864250183e-01" purity="4.1977298259735107e-01" nType="-99"/>
        </Node>
        <Node pos="r" depth="1" NCoef="0" IVar="0" Cut="1.8090038299560547e+00" cType="1" res="-4.5943301171064377e-02" rms="4.4410187005996704e-01" purity="3.9504519104957581e-01" nType="0">
          <Node pos="l" depth="2" NCoef="0" IVar="-1" Cut="0.0000000000000000e+00" cType="1" res="3.8586191367357969e-03" rms="4.6133497357368469e-01" purity="5.1257091760635376e-01" nType="-99"/>
          <Node pos="r" depth="2" NCoef="0" IVar="-1" Cut="0.0000000000000000e+00" cType="1" res="-2.1677842363715172e-02" rms="4.2358538508415222e-01" purity="3.0348560214042664e-01" nType="-99"/>
        </Node>
      </Node>
    </BinaryTree>
    <BinaryTree type="DecisionTree" boostWeight="1.0000000000000000e+00" itree="36">
      <Node pos="s" depth="0" NCoef="0" IVar="6" Cut="3.1647351384162903e-01" cType="1" res="-3.1132965814322233e-03" rms="4.6656858921051025e-01" purity="4.9483978748321533e-01" nType="0">
        <Node pos="l" depth="1" NCoef="0" IVar="2" Cut="9.0475064516067505e-01" cType="1" res="-6.5328039228916168e-02" rms="4.6995306015014648e-01" purity="3.7905532121658325e-01" nType="0">
          <Node pos="l" depth="2" NCoef="0" IVar="-1" Cut="0.0000000000000000e+00" cType="1" res="-6.0145752504467964e-03" rms="4.7963646054267883e-01" purity="4.1651123762130737e-01" nType="-99"/>
          <Node pos="r" depth="2" NCoef="0" IVar="-1" Cut="0.0000000000000000e+00" cType="1" res="-4.7370281070470810e-02" rms="3.9400440454483032e-01" purity="2.2901049256324768e-01" nType="-99"/>
        </Node>
        <Node pos="r" depth="1" NCoef="0" IVar="6" Cut="9.6099793910980225e-01" cType="1" res="1.3058837503194809e-02" rms="4.6432170271873474e-01" purity="5.2493685483932495e-01" nType="0">
          <Node pos="l" depth="2" NCoef="0" IVar="-1" Cut="0.0000000000000000e+00" cType="1" res="7.6193669810891151e-03" rms="4.6961936354637146e-01" purity="5.6566065549850464e-01" nType="-99"/>
          <Node pos="r" depth="2" NCoef="0" IVar="-1" Cut="0.0000000000000000e+00" cType="1" res="-3.8415394723415375e-02" rms="3.7345328927040100e-01" purity="1.9889749586582184e-01" nType="-99"/>
        </Node>
      </Node>
    </BinaryTree>
    <BinaryTree type="DecisionTree" boostWeight="1.0000000000000000e+00" itree="37">
      <Node pos="s" depth="0" NCoef="0" IVar="1" Cut="6.6666668653488159e-01" cType="1" res="-9.2793758958578110e-03" rms="4.6117287874221802e-01" purity="4.8723983764648438e-01" nType="0">
        <Node pos="l" depth="1" NCoef="0" IVar="-1" Cut="0.0000000000000000e+00" cType="1" res="-5.1994450390338898e-02" rms="3.3409732580184937e-01" purity="1.4102934300899506e-01" nType="-99"/>
        <Node pos="r" depth="1" NCoef="0" IVar="1" Cut="9.6831506490707397e-01" cType="1" res="1.4618767891079187e-03" rms="4.6403318643569946e-01" purity="5.0458866357803345e-01" nType="0">
          <Node pos="l" depth="2" NCoef="0" IVar="-1" Cut="0.0000000000000000e+00" cType="1" res="7.7226129360496998e-03" rms="4.6732616424560547e-01" purity="5.5282354354858398e-01" nType="-99"/>
          <Node pos="r" depth="2" NCoef="0" IVar="-1" Cut="0.0000000000000000e+00" cType="1" res="-1.4661452732980251e-02" rms="4.4949081540107727e-01" purity="4.0671917796134949e-01" nType="-99"/>
        </Node>
      </Node>
    </BinaryTree>
    <BinaryTree type="DecisionTree" boostWeight="1.0000000000000000e+00" itree="38">
      <Node pos="s" depth="0" NCoef="0" IVar="0" Cut="2.3845207691192627e+00" cType="1" res="7.2129103355109692e-03" rms="4.5806312561035156e-01" purity="5.0509917736053467e-01" nType="0">
        <Node pos="l" depth="1" NCoef="0" IVar="4" Cut="2.2093317508697510e+00" cType="1" res="3.1723689287900925e-02" rms="4.6176639199256897e-01" purity="5.7527464628219604e-01" nType="0">
          <Node pos="l" depth="2" NCoef="0" IVar="-1" Cut="0.0000000000000000e+00" cType="1" res="2.2289307788014412e-02" rms="4.5620641112327576e-01" purity="6.5222096443176270e-01" nType="-99"/>
          <Node pos="r" depth="2" NCoef="0" IVar="-1" Cut="0.0000000000000000e+00" cType="1" res="3.4978482872247696e-03" rms="4.6153625845909119e-01" purity="5.5825799703598022e-01" nType="-99"/>
        </Node>
        <Node pos="r" depth="1" NCoef="0" IVar="5" Cut="9.4205462932586670e-01" cType="1" res="-2.9520513489842415e-02" rms="4.4996348023414612e-01" purity="3.9992970228195190e-01" nType="0">
          <Node pos="l" depth="2" NCoef="0" IVar="-1" Cut="0.0000000000000000e+00" cType="1" res="-1.9454882713034749e-03" rms="4.5843473076820374e-01" purity="4.4035357236862183e-01" nType="-99"/>
          <Node pos="r" depth="2" NCoef="0" IVar="-1" Cut="0.0000000000000000e+00" cType="1" res="-3.4986935555934906e-02" rms="3.7900465726852417e-01" purity="1.7326989769935608e-01" nType="-99"/>
        </Node>
      </Node>
    </BinaryTree>
    <BinaryTree type="DecisionTree" boostWeight="1.0000000000000000e+00" itree="39">
      <Node pos="s" depth="0" NCoef="0" IVar="6" Cut="9.4071668386459351e-01" cType="1" res="4.7697662375867367e-04" rms="4.5864775776863098e-01" purity="5.0160014629364014e-01" nType="0">
        <Node pos="l" depth="1" NCoef="0" IVar="5" Cut="1.6038508713245392e-01" cType="1" res="1.6807161271572113e-02" rms="4.6276995539665222e-01" purity="5.3621745109558105e-01" nType="0">
          <Node pos="l" depth="2" NCoef="0" IVar="-1" Cut="0.0000000000000000e+00" cType="1" res="-1.8625291064381599e-02" rms="4.2567852139472961e-01" purity="2.4543462693691254e-01" nType="-99"/>
          <Node pos="r" depth="2" NCoef="0" IVar="-1" Cut="0.0000000000000000e+00" cType="1" res="6.6084628924727440e-03" rms="4.6626937389373779e-01" purity="5.7838690280914307e-01" nType="-99"/>
        </Node>
        <Node pos="r" depth="1" NCoef="0" IVar="6" Cut="9.6797293424606323e-01" cType="1" res="-8.0264285206794739e-02" rms="4.2864939570426941e-01" purity="3.3044162392616272e-01" nType="0">
          <Node pos="l" depth="2" NCoef="0" IVar="-1" Cut="0.0000000000000000e+00" cType="1" res="-2.1490578074008226e-03" rms="4.6125528216362000e-01" purity="4.4932734966278076e-01" nType="-99"/>
          <Node pos="r" depth="2" NCoef="0" IVar="-1" Cut="0.0000000000000000e+00" cType="1" res="-5.4556939750909805e-02" rms="3.0977198481559753e-01" purity="9.2309542000293732e-02" nType="-99"/>
        </Node>
      </Node>
    </BinaryTree>
    <BinaryTree type="DecisionTree" boostWeight="1.0000000000000000e+00" itree="40">
      <Node pos="s" depth="0" NCoef="0" IVar="6" Cut="5.7685202360153198e-01" cType="1" res="9.0530136367306113e-04" rms="4.6071007847785950e-01" purity="5.0089865922927856e-01" nType="0">
        <Node pos="l" depth="1" NCoef="0" IVar="2" Cut="7.6190274953842163e-01" cType="1" res="-7.0475198328495026e-02" rms="4.5136713981628418e-01" purity="3.9848768711090088e-01" nType="0">
          <Node pos="l" depth="2" NCoef="0" IVar="-1" Cut="0.0000000000000000e+00" cType="1" res="-3.9974417537450790e-02" rms="4.1328167915344238e-01" purity="2.7727371454238892e-01" nType="-99"/>
          <Node pos="r" depth="2" NCoef="0" IVar="-1" Cut="0.0000000000000000e+00" cType="1" res="-6.3128303736448288e-03" rms="4.5802485942840576e-01" purity="4.4435346126556396e-01" nType="-99"/>
        </Node>
        <Node pos="r" depth="1" NCoef="0" IVar="6" Cut="9.7342467308044434e-01" cType="1" res="3.0577322468161583e-02" rms="4.6129992604255676e-01" purity="5.4346960783004761e-01" nType="0">
          <Node pos="l" depth="2" NCoef="0" IVar="-1" Cut="0.0000000000000000e+00" cType="1" res="9.1317417100071907e-03" rms="4.6541136503219604e-01" purity="5.6983751058578491e-01" nType="-99"/>
          <Node pos="r" depth="2" NCoef="0" IVar="-1" Cut="0.0000000000000000e+00" cType="1" res="-4.0300864726305008e-02" rms="3.4143993258476257e-01" purity="1.2546563148498535e-01" nType="-99"/>
        </Node>
      </Node>
    </BinaryTree>
    <BinaryTree type="DecisionTree" boostWeight="1.0000000000000000e+00" itree="41">
      <Node pos="s" depth="0" NCoef="0" IVar="5" Cut="5.6317321956157684e-02" cType="1" res="-3.1895132269710302e-03" rms="4.6918302774429321e-01" purity="4.8558744788169861e-01" nType="0">
        <Node pos="l" depth="1" NCoef="0" IVar="4" Cut="3.4936597347259521e+00" cType="1" res="8.3711147308349609e-02" rms="4.6965464949607849e-01" purity="3.7518939375877380e-01" nType="0">
          <Node pos="l" depth="2" NCoef="0" IVar="-1" Cut="0.0000000000000000e+00" cType="1" res="4.7569386661052704e-02" rms="4.8283961415290833e-01" purity="4.6421489119529724e-01" nType="-99"/>
          <Node pos="r" depth="2" NCoef="0" IVar="-1" Cut="0.0000000000000000e+00" cType="1" res="-1.8669446930289268e-02" rms="3.9863121509552002e-01" purity="2.3409456014633179e-01" nType="-99"/>
        </Node>
        <Node pos="r" depth="1" NCoef="0" IVar="4" Cut="5.8810701370239258e+00" cType="1" res="-1.3180280104279518e-02" rms="4.6809592843055725e-01" purity="4.9827969074249268e-01" nType="0">
          <Node pos="l" depth="2" NCoef="0" IVar="-1" Cut="0.0000000000000000e+00" cType="1" res="-7.8286612406373024e-03" rms="4.6625274419784546e-01" purity="4.7934490442276001e-01" nType="-99"/>
          <Node pos="r" depth="2" NCoef="0" IVar="-1" Cut="0.0000000000000000e+00" cType="1" res="8.2692122086882591e-03" rms="4.6814563870429993e-01" purity="5.4081469774246216e-01" nType="-99"/>
        </Node>
      </Node>
    </BinaryTree>
    <BinaryTree type="DecisionTree" boostWeight="1.0000000000000000e+00" itree="42">
      <Node pos="s" depth="0" NCoef="0" IVar="0" Cut="3.5871474742889404e+00" cType="1" res="5.9506362304091454e-03" rms="4.5631149411201477e-01" purity="5.0810462236404419e-01" nType="0">
        <Node pos="l" depth="1" NCoef="0" IVar="5" Cut="2.1245658397674561e-01" cType="1" res="2.0850662142038345e-02" rms="4.6082514524459839e-01" purity="5.4519599676132202e-01" nType="0">
          <Node pos="l" depth="2" NCoef="0" IVar="-1" Cut="0.0000000000000000e+00" cType="1" res="-1.3895996846258640e-02" rms="4.3491178750991821e-01" purity="2.6924180984497070e-01" nType="-99"/>
          <Node pos="r" depth="2" NCoef="0" IVar="-1" Cut="0.0000000000000000e+00" cType="1" res="7.1811014786362648e-03" rms="4.6352398395538330e-01" purity="5.8854067325592041e-01" nType="-99"/>
        </Node>
        <Node pos="r" depth="1" NCoef="0" IVar="6" Cut="6.7987674474716187e-01" cType="1" res="-7.7803641557693481e-02" rms="4.2034295201301575e-01" purity="2.9961094260215759e-01" nType="0">
          <Node pos="l" depth="2" NCoef="0" IVar="-1" Cut="0.0000000000000000e+00" cType="1" res="-3.8082648068666458e-02" rms="3.7328264117240906e-01" purity="1.7524966597557068e-01" nType="-99"/>
          <Node pos="r" depth="2" NCoef="0" IVar="-1" Cut="0.0000000000000000e+00" cType="1" res="-8.0861654132604599e-03" rms="4.3700590729713440e-01" purity="3.6422693729400635e-01" nType="-99"/>
        </Node>
      </Node>
    </BinaryTree>
    <BinaryTree type="DecisionTree" boostWeight="1.0000000000000000e+00" itree="43">
      <Node pos="s" depth="0" NCoef="0" IVar="0" Cut="1.0054466724395752e+00" cType="1" res="-2.8838620055466890e-03" rms="4.5359987020492554e-01" purity="5.0023728609085083e-01" nType="0">
        <Node pos="l" depth="1" NCoef="0" IVar="4" Cut="6.3367486000061035e+00" cType="1" res="7.1613110601902008e-02" rms="4.4036874175071716e-01" purity="6.5877491235733032e-01" nType="0">
          <Node pos="l" depth="2" NCoef="0" IVar="-1" Cut="0.0000000000000000e+00" cType="1" res="9.3152960762381554e-03" rms="4.5237320661544800e-01" purity="6.2742155790328979e-01" nType="-99"/>
          <Node pos="r" depth="2" NCoef="0" IVar="-1" Cut="0.0000000000000000e+00" cType="1" res="3.1628880649805069e-02" rms="4.0048709511756897e-01" purity="7.3455739021301270e-01" nType="-99"/>
        </Node>
        <Node pos="r" depth="1" NCoef="0" IVar="1" Cut="6.6666668653488159e-01" cType="1" res="-2.0454006269574165e-02" rms="4.5488998293876648e-01" purity="4.6284607052803040e-01" nType="0">
          <Node pos="l" depth="2" NCoef="0" IVar="-1" Cut="0.0000000000000000e+00" cType="1" res="-5.1063895225524902e-02" rms="3.3436402678489685e-01" purity="1.1292508244514465e-01" nType="-99"/>
          <Node pos="r" depth="2" NCoef="0" IVar="-1" Cut="0.0000000000000000e+00" cType="1" res="-2.6093334890902042e-03" rms="4.5778879523277283e-01" purity="4.7874042391777039e-01" nType="-99"/>
        </Node>
      </Node>
    </BinaryTree>
    <BinaryTree type="DecisionTree" boostWeight="1.0000000000000000e+00" itree="44">
      <Node pos="s" depth="0" NCoef="0" IVar="5" Cut="9.4145750999450684e-01" cType="1" res="9.1622602194547653e-03" rms="4.5983543992042542e-01" purity="5.0171279907226562e-01" nType="0">
        <Node pos="l" depth="1" NCoef="0" IVar="6" Cut="7.8518939018249512e-01" cType="1" res="2.6454666629433632e-02" rms="4.6377077698707581e-01" purity="5.3622817993164062e-01" nType="0">
          <Node pos="l" depth="2" NCoef="0" IVar="-1" Cut="0.0000000000000000e+00" cType="1" res="-8.9022924657911062e-04" rms="4.6237489581108093e-01" purity="4.9996024370193481e-01" nType="-99"/>
          <Node pos="r" depth="2" NCoef="0" IVar="-1" Cut="0.0000000000000000e+00" cType="1" res="1.0615327395498753e-02" rms="4.6354797482490540e-01" purity="5.6171989440917969e-01" nType="-99"/>
        </Node>
        <Node pos="r" depth="1" NCoef="0" IVar="5" Cut="9.7620737552642822e-01" cType="1" res="-7.7443554997444153e-02" rms="4.2923954129219055e-01" purity="3.2884892821311951e-01" nType="0">
          <Node pos="l" depth="2" NCoef="0" IVar="-1" Cut="0.0000000000000000e+00" cType="1" res="-6.4463089220225811e-03" rms="4.6000036597251892e-01" purity="4.0293601155281067e-01" nType="-99"/>
          <Node pos="r" depth="2" NCoef="0" IVar="-1" Cut="0.0000000000000000e+00" cType="1" res="-7.2923548519611359e-02" rms="8.1433631479740143e-02" purity="0.0000000000000000e+00" nType="-99"/>
        </Node>
      </Node>
    </BinaryTree>
    <BinaryTree type="DecisionTree" boostWeight="1.0000000000000000e+00" itree="45">
      <Node pos="s" depth="0" NCoef="0" IVar="4" Cut="2.1160221099853516e+00" cType="1" res="8.8534289970993996e-03" rms="4.6359404921531677e-01" purity="5.0278669595718384e-01" nType="0">
        <Node pos="l" depth="1" NCoef="0" IVar="5" Cut="3.1677401065826416e-01" cType="1" res="1.0123998671770096e-01" rms="4.9441465735435486e-01" purity="5.7616776227951050e-01" nType="0">
          <Node pos="l" depth="2" NCoef="0" IVar="-1" Cut="0.0000000000000000e+00" cType="1" res="5.7130090892314911e-02" rms="4.8865804076194763e-01" purity="5.6708151102066040e-01" nType="-99"/>
          <Node pos="r" depth="2" NCoef="0" IVar="-1" Cut="0.0000000000000000e+00" cType="1" res="1.4121903106570244e-02" rms="4.8940491676330566e-01" purity="5.7852452993392944e-01" nType="-99"/>
        </Node>
        <Node pos="r" depth="1" NCoef="0" IVar="2" Cut="6.1904764175415039e-01" cType="1" res="-9.5925694331526756e-03" rms="4.5495030283927917e-01" purity="4.8813536763191223e-01" nType="0">
          <Node pos="l" depth="2" NCoef="0" IVar="-1" Cut="0.0000000000000000e+00" cType="1" res="-4.7724891453981400e-02" rms="3.5294818878173828e-01" purity="2.3698820173740387e-01" nType="-99"/>
          <Node pos="r" depth="2" NCoef="0" IVar="-1" Cut="0.0000000000000000e+00" cType="1" res="-6.3917238730937243e-04" rms="4.5650461316108704e-01" purity="4.9665197730064392e-01" nType="-99"/>
        </Node>
      </Node>
    </BinaryTree>
    <BinaryTree type="DecisionTree" boostWeight="1.0000000000000000e+00" itree="46">
      <Node pos="s" depth="0" NCoef="0" IVar="0" Cut="2.1488332748413086e+00" cType="1" res="-9.1295400634407997e-03" rms="4.6017134189605713e-01" purity="4.8761871457099915e-01" nType="0">
        <Node pos="l" depth="1" NCoef="0" IVar="4" Cut="5.0183844566345215e+00" cType="1" res="2.8217077255249023e-02" rms="4.6859958767890930e-01" purity="5.7715004682540894e-01" nType="0">
          <Node pos="l" depth="2" NCoef="0" IVar="-1" Cut="0.0000000000000000e+00" cType="1" res="-1.9831773824989796e-03" rms="4.7408330440521240e-01" purity="5.4156219959259033e-01" nType="-99"/>
          <Node pos="r" depth="2" NCoef="0" IVar="-1" Cut="0.0000000000000000e+00" cType="1" res="1.9442314282059669e-02" rms="4.5265993475914001e-01" purity="6.3616865873336792e-01" nType="-99"/>
        </Node>
        <Node pos="r" depth="1" NCoef="0" IVar="2" Cut="8.0952382087707520e-01" cType="1" res="-5.5843695998191833e-02" rms="4.4501623511314392e-01" purity="3.7563046813011169e-01" nType="0">
          <Node pos="l" depth="2" NCoef="0" IVar="-1" Cut="0.0000000000000000e+00" cType="1" res="-3.4701380878686905e-02" rms="3.9927637577056885e-01" purity="2.4885569512844086e-01" nType="-99"/>
          <Node pos="r" depth="2" NCoef="0" IVar="-1" Cut="0.0000000000000000e+00" cType="1" res="-7.3724566027522087e-03" rms="4.5202338695526123e-01" purity="4.0511292219161987e-01" nType="-99"/>
        </Node>
      </Node>
    </BinaryTree>
    <BinaryTree type="DecisionTree" boostWeight="1.0000000000000000e+00" itree="47">
      <Node pos="s" depth="0" NCoef="0" IVar="5" Cut="9.4115781784057617e-01" cType="1" res="2.0763613283634186e-03" rms="4.6498158574104309e-01" purity="4.9417716264724731e-01" nType="0">
        <Node pos="l" depth="1" NCoef="0" IVar="4" Cut="5.8810701370239258e+00" cType="1" res="1.6240458935499191e-02" rms="4.7302609682083130e-01" purity="5.2457648515701294e-01" nType="0">
          <Node pos="l" depth="2" NCoef="0" IVar="-1" Cut="0.0000000000000000e+00" cType="1" res="-1.2298740912228823e-03" rms="4.7432461380958557e-01" purity="5.0578945875167847e-01" nType="-99"/>
          <Node pos="r" depth="2" NCoef="0" IVar="-1" Cut="0.0000000000000000e+00" cType="1" res="1.3822810724377632e-02" rms="4.6691781282424927e-01" purity="5.6431061029434204e-01" nType="-99"/>
        </Node>
        <Node pos="r" depth="1" NCoef="0" IVar="5" Cut="9.6098333597183228e-01" cType="1" res="-6.9247879087924957e-02" rms="4.1486525535583496e-01" purity="3.4109964966773987e-01" nType="0">
          <Node pos="l" depth="2" NCoef="0" IVar="-1" Cut="0.0000000000000000e+00" cType="1" res="3.8625474553555250e-03" rms="4.6050739288330078e-01" purity="5.0979042053222656e-01" nType="-99"/>
          <Node pos="r" depth="2" NCoef="0" IVar="-1" Cut="0.0000000000000000e+00" cType="1" res="-4.1046034544706345e-02" rms="3.3011028170585632e-01" purity="1.5159481763839722e-01" nType="-99"/>
        </Node>
      </Node>
    </BinaryTree>
    <BinaryTree type="DecisionTree" boostWeight="1.0000000000000000e+00" itree="48">
      <Node pos="s" depth="0" NCoef="0" IVar="6" Cut="1.0825724899768829e-01" cType="1" res="-1.2911408208310604e-02" rms="4.5952841639518738e-01" purity="4.7709786891937256e-01" nType="0">
        <Node pos="l" depth="1" NCoef="0" IVar="6" Cut="-3.0574547126889229e-02" cType="1" res="-1.1217748373746872e-01" rms="4.2467930912971497e-01" purity="2.9016035795211792e-01" nType="0">
          <Node pos="l" depth="2" NCoef="0" IVar="-1" Cut="0.0000000000000000e+00" cType="1" res="1.1495416052639484e-02" rms="4.7497963905334473e-01" purity="4.3304327130317688e-01" nType="-99"/>
          <Node pos="r" depth="2" NCoef="0" IVar="-1" Cut="0.0000000000000000e+00" cType="1" res="-3.6363609135150909e-02" rms="3.9708310365676880e-01" purity="2.4907000362873077e-01" nType="-99"/>
        </Node>
        <Node pos="r" depth="1" NCoef="0" IVar="4" Cut="4.9398078918457031e+00" cType="1" res="1.7001084052026272e-03" rms="4.6264252066612244e-01" purity="5.0461423397064209e-01" nType="0">
          <Node pos="l" depth="2" NCoef="0" IVar="-1" Cut="0.0000000000000000e+00" cType="1" res="-3.4803044982254505e-03" rms="4.6153795719146729e-01" purity="4.8228615522384644e-01" nType="-99"/>
          <Node pos="r" depth="2" NCoef="0" IVar="-1" Cut="0.0000000000000000e+00" cType="1" res="1.0429104790091515e-02" rms="4.6244207024574280e-01" purity="5.6248295307159424e-01" nType="-99"/>
        </Node>
      </Node>
    </BinaryTree>
    <BinaryTree type="DecisionTree" boostWeight="1.0000000000000000e+00" itree="49">
      <Node pos="s" depth="0" NCoef="0" IVar="2" Cut="9.5238095521926880e-01" cType="1" res="3.3251591958105564e-03" rms="4.6132716536521912e-01" purity="4.9673211574554443e-01" nType="0">
        <Node pos="l" depth="1" NCoef="0" IVar="2" Cut="7.7092593908309937e-01" cType="1" res="2.4161767214536667e-02" rms="4.6634823083877563e-01" purity="5.3564858436584473e-01" nType="0">
          <Node pos="l" depth="2" NCoef="0" IVar="-1" Cut="0.0000000000000000e+00" cType="1" res="-1.2593587860465050e-02" rms="4.6839401125907898e-01" purity="3.9036214351654053e-01" nType="-99"/>
          <Node pos="r" depth="2" NCoef="0" IVar="-1" Cut="0.0000000000000000e+00" cType="1" res="1.0035523213446140e-02" rms="4.6347603201866150e-01" purity="5.7423722743988037e-01" nType="-99"/>
        </Node>
        <Node pos="r" depth="1" NCoef="0" IVar="5" Cut="8.3661043643951416e-01" cType="1" res="-3.3031605184078217e-02" rms="4.5012882351875305e-01" purity="4.2882871627807617e-01" nType="0">
          <Node pos="l" depth="2" NCoef="0" IVar="-1" Cut="0.0000000000000000e+00" cType="1" res="-2.2609177976846695e-02" rms="4.4188779592514038e-01" purity="3.2461538910865784e-01" nType="-99"/>
          <Node pos="r" depth="2" NCoef="0" IVar="-1" Cut="0.0000000000000000e+00" cType="1" res="4.8653157427906990e-03" rms="4.4987118244171143e-01" purity="5.1865488290786743e-01" nType="-99"/>
        </Node>
      </Node>
    </BinaryTree>
    <BinaryTree type="DecisionTree" boostWeight="1.0000000000000000e+00" itree="50">
      <Node pos="s" depth="0" NCoef="0" IVar="3" Cut="4.9398078918457031e+00" cType="1" res="1.1985559947788715e-02" rms="4.5597276091575623e-01" purity="5.0947272777557373e-01" nType="0">
        <Node pos="l" depth="1" NCoef="0" IVar="3" Cut="2.6983144283294678e+00" cType="1" res="2.7608312666416168e-02" rms="4.6236202120780945e-01" purity="5.4892498254776001e-01" nType="0">
          <Node pos="l" depth="2" NCoef="0" IVar="-1" Cut="0.0000000000000000e+00" cType="1" res="-2.4824398569762707e-03" rms="4.6181750297546387e-01" purity="5.0458264350891113e-01" nType="-99"/>
          <Node pos="r" depth="2" NCoef="0" IVar="-1" Cut="0.0000000000000000e+00" cType="1" res="1.5358731150627136e-02" rms="4.5916014909744263e-01" purity="5.9785169363021851e-01" nType="-99"/>
        </Node>
        <Node pos="r" depth="1" NCoef="0" IVar="6" Cut="6.8251091241836548e-01" cType="1" res="-2.6569940149784088e-02" rms="4.3742641806602478e-01" purity="4.1210809350013733e-01" nType="0">
          <Node pos="l" depth="2" NCoef="0" IVar="-1" Cut="0.0000000000000000e+00" cType="1" res="-2.6648307219147682e-02" rms="4.0888831019401550e-01" purity="3.0220562219619751e-01" nType="-99"/>
          <Node pos="r" depth="2" NCoef="0" IVar="-1" Cut="0.0000000000000000e+00" cType="1" res="3.9628483355045319e-03" rms="4.4457501173019409e-01" purity="4.6714103221893311e-01" nType="-99"/>
        </Node>
      </Node>
    </BinaryTree>
    <BinaryTree type="DecisionTree" boostWeight="1.0000000000000000e+00" itree="51">
      <Node pos="s" depth="0" NCoef="0" IVar="0" Cut="9.6314400434494019e-01" cType="1" res="1.3304695487022400e-02" rms="4.5665639638900757e-01" purity="5.1113492250442505e-01" nType="0">
        <Node pos="l" depth="1" NCoef="0" IVar="5" Cut="7.8439801931381226e-01" cType="1" res="7.8954711556434631e-02" rms="4.4407975673675537e-01" purity="6.7660641670227051e-01" nType="0">
          <Node pos="l" depth="2" NCoef="0" IVar="-1" Cut="0.0000000000000000e+00" cType="1" res="3.5106375813484192e-02" rms="4.0896007418632507e-01" purity="7.3807740211486816e-01" nType="-99"/>
          <Node pos="r" depth="2" NCoef="0" IVar="-1" Cut="0.0000000000000000e+00" cType="1" res="5.0807693041861057e-03" rms="4.6102425456047058e-01" purity="6.3007134199142456e-01" nType="-99"/>
        </Node>
        <Node pos="r" depth="1" NCoef="0" IVar="4" Cut="3.0572841167449951e+00" cType="1" res="-1.8407204188406467e-03" rms="4.5817548036575317e-01" purity="4.7296074032783508e-01" nType="0">
          <Node pos="l" depth="2" NCoef="0" IVar="-1" Cut="0.0000000000000000e+00" cType="1" res="-1.0792844928801060e-02" rms="4.4714686274528503e-01" purity="4.2807379364967346e-01" nType="-99"/>
          <Node pos="r" depth="2" NCoef="0" IVar="-1" Cut="0.0000000000000000e+00" cType="1" res="7.4462410993874073e-03" rms="4.6333596110343933e-01" purity="5.0736832618713379e-01" nType="-99"/>
        </Node>
      </Node>
    </BinaryTree>
    <BinaryTree type="DecisionTree" boostWeight="1.0000000000000000e+00" itree="52">
      <Node pos="s" depth="0" NCoef="0" IVar="3" Cut="4.9398078918457031e+00" cType="1" res="6.0251925606280565e-04" rms="4.5843771100044250e-01" purity="4.9617937207221985e-01" nType="0">
        <Node pos="l" depth="1" NCoef="0" IVar="1" Cut="9.5238095521926880e-01" cType="1" res="2.3516701534390450e-02" rms="4.6435213088989258e-01" purity="5.4609405994415283e-01" nType="0">
          <Node pos="l" depth="2" NCoef="0" IVar="-1" Cut="0.0000000000000000e+00" cType="1" res="1.3149807229638100e-02" rms="4.6277010440826416e-01" purity="6.1021298170089722e-01" nType="-99"/>
          <Node pos="r" depth="2" NCoef="0" IVar="-1" Cut="0.0000000000000000e+00" cType="1" res="-5.7477699592709541e-03" rms="4.6195307374000549e-01" purity="4.5946317911148071e-01" nType="-99"/>
        </Node>
        <Node pos="r" depth="1" NCoef="0" IVar="6" Cut="8.3667701482772827e-01" cType="1" res="-5.9065237641334534e-02" rms="4.3706503510475159e-01" purity="3.6620333790779114e-01" nType="0">
          <Node pos="l" depth="2" NCoef="0" IVar="-1" Cut="0.0000000000000000e+00" cType="1" res="-2.8391353785991669e-02" rms="4.1107982397079468e-01" purity="3.0834379792213440e-01" nType="-99"/>
          <Node pos="r" depth="2" NCoef="0" IVar="-1" Cut="0.0000000000000000e+00" cType="1" res="-1.2281410454306751e-04" rms="4.5172253251075745e-01" purity="4.1921633481979370e-01" nType="-99"/>
        </Node>
      </Node>
    </BinaryTree>
    <BinaryTree type="DecisionTree" boostWeight="1.0000000000000000e+00" itree="53">
      <Node pos="s" depth="0" NCoef="0" IVar="6" Cut="1.0864441096782684e-01" cType="1" res="9.3870311975479126e-03" rms="4.6810588240623474e-01" purity="4.9415814876556396e-01" nType="0">
        <Node pos="l" depth="1" NCoef="0" IVar="2" Cut="8.5671234130859375e-01" cType="1" res="9.8380319774150848e-02" rms="4.7710239887237549e-01" purity="5.0507736206054688e-01" nType="0">
          <Node pos="l" depth="2" NCoef="0" IVar="-1" Cut="0.0000000000000000e+00" cType="1" res="3.8049150258302689e-02" rms="4.8067367076873779e-01" purity="5.6922441720962524e-01" nType="-99"/>
          <Node pos="r" depth="2" NCoef="0" IVar="-1" Cut="0.0000000000000000e+00" cType="1" res="-6.7280861549079418e-03" rms="4.4292330741882324e-01" purity="3.8466456532478333e-01" nType="-99"/>
        </Node>
        <Node pos="r" depth="1" NCoef="0" IVar="1" Cut="9.5238095521926880e-01" cType="1" res="-1.0187522508203983e-02" rms="4.6381843090057373e-01" purity="4.9175649881362915e-01" nType="0">
          <Node pos="l" depth="2" NCoef="0" IVar="-1" Cut="0.0000000000000000e+00" cType="1" res="3.9176950231194496e-03" rms="4.6255236864089966e-01" purity="5.3127300739288330e-01" nType="-99"/>
          <Node pos="r" depth="2" NCoef="0" IVar="-1" Cut="0.0000000000000000e+00" cType="1" res="-1.2588188052177429e-02" rms="4.6222648024559021e-01" purity="4.2523676156997681e-01" nType="-99"/>
        </Node>
      </Node>
    </BinaryTree>
    <BinaryTree type="DecisionTree" boostWeight="1.0000000000000000e+00" itree="54">
      <Node pos="s" depth="0" NCoef="0" IVar="5" Cut="1.6051046550273895e-01" cType="1" res="-9.9222902208566666e-03" rms="4.5545133948326111e-01" purity="4.8674133419990540e-01" nType="0">
        <Node pos="l" depth="1" NCoef="0" IVar="2" Cut="9.0476191043853760e-01" cType="1" res="-1.0878977924585342e-01" rms="3.6532750725746155e-01" purity="1.8782256543636322e-01" nType="0">
          <Node pos="l" depth="2" NCoef="0" IVar="-1" Cut="0.0000000000000000e+00" cType="1" res="-6.8709423067048192e-04" rms="4.3551608920097351e-01" purity="3.0469721555709839e-01" nType="-99"/>
          <Node pos="r" depth="2" NCoef="0" IVar="-1" Cut="0.0000000000000000e+00" cType="1" res="-5.3448319435119629e-02" rms="2.4861279129981995e-01" purity="8.0179803073406219e-02" nType="-99"/>
        </Node>
        <Node pos="r" depth="1" NCoef="0" IVar="4" Cut="6.8223319053649902e+00" cType="1" res="4.5189782977104187e-03" rms="4.6540778875350952e-01" purity="5.3040349483489990e-01" nType="0">
          <Node pos="l" depth="2" NCoef="0" IVar="-1" Cut="0.0000000000000000e+00" cType="1" res="-3.2865384127944708e-03" rms="4.6479764580726624e-01" purity="5.1032310724258423e-01" nType="-99"/>
          <Node pos="r" depth="2" NCoef="0" IVar="-1" Cut="0.0000000000000000e+00" cType="1" res="1.1287782341241837e-02" rms="4.6356090903282166e-01" purity="5.7835644483566284e-01" nType="-99"/>
        </Node>
      </Node>
    </BinaryTree>
    <BinaryTree type="DecisionTree" boostWeight="1.0000000000000000e+00" itree="55">
      <Node pos="s" depth="0" NCoef="0" IVar="2" Cut="9.5238095521926880e-01" cType="1" res="-6.7317392677068710e-03" rms="4.5829764008522034e-01" purity="4.8558387160301208e-01" nType="0">
        <Node pos="l" depth="1" NCoef="0" IVar="6" Cut="1.5928851068019867e-01" cType="1" res="1.4485859312117100e-02" rms="4.5655173063278198e-01" purity="5.3149336576461792e-01" nType="0">
          <Node pos="l" depth="2" NCoef="0" IVar="-1" Cut="0.0000000000000000e+00" cType="1" res="-1.4687509275972843e-02" rms="4.4659680128097534e-01" purity="3.5865220427513123e-01" nType="-99"/>
          <Node pos="r" depth="2" NCoef="0" IVar="-1" Cut="0.0000000000000000e+00" cType="1" res="8.8488515466451645e-03" rms="4.5678108930587769e-01" purity="5.8695715665817261e-01" nType="-99"/>
        </Node>
        <Node pos="r" depth="1" NCoef="0" IVar="2" Cut="9.7055488824844360e-01" cType="1" res="-4.1237387806177139e-02" rms="4.5903322100639343e-01" purity="4.1092246770858765e-01" nType="0">
          <Node pos="l" depth="2" NCoef="0" IVar="-1" Cut="0.0000000000000000e+00" cType="1" res="-3.1940784305334091e-02" rms="4.4520044326782227e-01" purity="3.3427852392196655e-01" nType="-99"/>
          <Node pos="r" depth="2" NCoef="0" IVar="-1" Cut="0.0000000000000000e+00" cType="1" res="-4.5641483739018440e-03" rms="4.5892402529716492e-01" purity="4.2657130956649780e-01" nType="-99"/>
        </Node>
      </Node>
    </BinaryTree>
    <BinaryTree type="DecisionTree" boostWeight="1.0000000000000000e+00" itree="56">
      <Node pos="s" depth="0" NCoef="0" IVar="1" Cut="6.6666668653488159e-01" cType="1" res="2.2190355230122805e-03" rms="4.6378999948501587e-01" purity="4.9080228805541992e-01" nType="0">
        <Node pos="l" depth="1" NCoef="0" IVar="0" Cut="2.8971812725067139e+00" cType="1" res="1.4841464161872864e-01" rms="4.7129055857658386e-01" purity="4.8869451880455017e-01" nType="0">
          <Node pos="l" depth="2" NCoef="0" IVar="-1" Cut="0.0000000000000000e+00" cType="1" res="5.0101098604500294e-03" rms="4.2585325241088867e-01" purity="4.1198819875717163e-01" nType="-99"/>
          <Node pos="r" depth="2" NCoef="0" IVar="-1" Cut="0.0000000000000000e+00" cType="1" res="7.4001736938953400e-02" rms="4.7918808460235596e-01" purity="5.7038491964340210e-01" nType="-99"/>
        </Node>
        <Node pos="r" depth="1" NCoef="0" IVar="6" Cut="2.1251846849918365e-01" cType="1" res="-7.8645516186952591e-03" rms="4.6156427264213562e-01" purity="4.9094769358634949e-01" nType="0">
          <Node pos="l" depth="2" NCoef="0" IVar="-1" Cut="0.0000000000000000e+00" cType="1" res="-1.6614597290754318e-02" rms="4.4736027717590332e-01" purity="3.3798497915267944e-01" nType="-99"/>
          <Node pos="r" depth="2" NCoef="0" IVar="-1" Cut="0.0000000000000000e+00" cType="1" res="1.5799913089722395e-03" rms="4.6346843242645264e-01" purity="5.2600365877151489e-01" nType="-99"/>
        </Node>
      </Node>
    </BinaryTree>
    <BinaryTree type="DecisionTree" boostWeight="1.0000000000000000e+00" itree="57">
      <Node pos="s" depth="0" NCoef="0" IVar="1" Cut="9.5238095521926880e-01" cType="1" res="-7.5459512881934643e-03" rms="4.5714750885963440e-01" purity="4.8267969489097595e-01" nType="0">
        <Node pos="l" depth="1" NCoef="0" IVar="1" Cut="9.0702605247497559e-01" cType="1" res="2.6901684701442719e-02" rms="4.5902538299560547e-01" purity="5.3101414442062378e-01" nType="0">
          <Node pos="l" depth="2" NCoef="0" IVar="-1" Cut="0.0000000000000000e+00" cType="1" res="-2.8366057667881250e-03" rms="4.5553439855575562e-01" purity="4.5932054519653320e-01" nType="-99"/>
          <Node pos="r" depth="2" NCoef="0" IVar="-1" Cut="0.0000000000000000e+00" cType="1" res="2.0511295646429062e-02" rms="4.5729649066925049e-01" purity="6.5170073509216309e-01" nType="-99"/>
        </Node>
        <Node pos="r" depth="1" NCoef="0" IVar="1" Cut="9.6394264698028564e-01" cType="1" res="-6.7616514861583710e-02" rms="4.4755548238754272e-01" purity="3.9839300513267517e-01" nType="0">
          <Node pos="l" depth="2" NCoef="0" IVar="-1" Cut="0.0000000000000000e+00" cType="1" res="1.5461828559637070e-02" rms="4.7295668721199036e-01" purity="6.0549336671829224e-01" nType="-99"/>
          <Node pos="r" depth="2" NCoef="0" IVar="-1" Cut="0.0000000000000000e+00" cType="1" res="-2.1106924861669540e-02" rms="4.3755811452865601e-01" purity="3.5893198847770691e-01" nType="-99"/>
        </Node>
      </Node>
    </BinaryTree>
    <BinaryTree type="DecisionTree" boostWeight="1.0000000000000000e+00" itree="58">
      <Node pos="s" depth="0" NCoef="0" IVar="3" Cut="1.0576626777648926e+01" cType="1" res="2.8765218332409859e-02" rms="4.5727539062500000e-01" purity="5.2455431222915649e-01" nType="0">
        <Node pos="l" depth="1" NCoef="0" IVar="1" Cut="6.6666668653488159e-01" cType="1" res="1.2305213138461113e-02" rms="4.5704585313796997e-01" purity="5.2704387903213501e-01" nType="0">
          <Node pos="l" depth="2" NCoef="0" IVar="-1" Cut="0.0000000000000000e+00" cType="1" res="-3.3312767744064331e-02" rms="3.8278874754905701e-01" purity="2.3513858020305634e-01" nType="-99"/>
          <Node pos="r" depth="2" NCoef="0" IVar="-1" Cut="0.0000000000000000e+00" cType="1" res="3.9135618135333061e-03" rms="4.5847776532173157e-01" purity="5.3717857599258423e-01" nType="-99"/>
        </Node>
        <Node pos="r" depth="1" NCoef="0" IVar="5" Cut="6.7566043138504028e-01" cType="1" res="9.5026135444641113e-02" rms="4.5217749476432800e-01" purity="5.1453244686126709e-01" nType="0">
          <Node pos="l" depth="2" NCoef="0" IVar="-1" Cut="0.0000000000000000e+00" cType="1" res="7.4739963747560978e-04" rms="4.2440453171730042e-01" purity="3.3159583806991577e-01" nType="-99"/>
          <Node pos="r" depth="2" NCoef="0" IVar="-1" Cut="0.0000000000000000e+00" cType="1" res="3.7901848554611206e-02" rms="4.6025320887565613e-01" purity="6.7021608352661133e-01" nType="-99"/>
        </Node>
      </Node>
    </BinaryTree>
    <BinaryTree type="DecisionTree" boostWeight="1.0000000000000000e+00" itree="59">
      <Node pos="s" depth="0" NCoef="0" IVar="3" Cut="2.1160221099853516e+00" cType="1" res="2.6110357139259577e-03" rms="4.5551297068595886e-01" purity="4.9928027391433716e-01" nType="0">
        <Node pos="l" depth="1" NCoef="0" IVar="0" Cut="2.6352784633636475e+00" cType="1" res="7.4093282222747803e-02" rms="4.2980507016181946e-01" purity="6.2752968072891235e-01" nType="0">
          <Node pos="l" depth="2" NCoef="0" IVar="-1" Cut="0.0000000000000000e+00" cType="1" res="2.9614510014653206e-02" rms="4.0999481081962585e-01" purity="7.3489856719970703e-01" nType="-99"/>
          <Node pos="r" depth="2" NCoef="0" IVar="-1" Cut="0.0000000000000000e+00" cType="1" res="-1.6820769757032394e-02" rms="4.4439303874969482e-01" purity="3.4686031937599182e-01" nType="-99"/>
        </Node>
        <Node pos="r" depth="1" NCoef="0" IVar="5" Cut="9.4197446107864380e-01" cType="1" res="-1.2110790237784386e-02" rms="4.5924976468086243e-01" purity="4.7286722064018250e-01" nType="0">
          <Node pos="l" depth="2" NCoef="0" IVar="-1" Cut="0.0000000000000000e+00" cType="1" res="-4.9715940804162528e-06" rms="4.6913501620292664e-01" purity="5.0704222917556763e-01" nType="-99"/>
          <Node pos="r" depth="2" NCoef="0" IVar="-1" Cut="0.0000000000000000e+00" cType="1" res="-1.6157984733581543e-02" rms="4.0476265549659729e-01" purity="3.1215110421180725e-01" nType="-99"/>
        </Node>
      </Node>
    </BinaryTree>
    <BinaryTree type="DecisionTree" boostWeight="1.0000000000000000e+00" itree="60">
      <Node pos="s" depth="0" NCoef="0" IVar="0" Cut="3.0974748134613037e+00" cType="1" res="4.5630908571183681e-03" rms="4.6147540211677551e-01" purity="4.9148884415626526e-01" nType="0">
        <Node pos="l" depth="1" NCoef="0" IVar="1" Cut="8.0952382087707520e-01" cType="1" res="-1.2926323339343071e-02" rms="4.6382412314414978e-01" purity="5.0733590126037598e-01" nType="0">
          <Node pos="l" depth="2" NCoef="0" IVar="-1" Cut="0.0000000000000000e+00" cType="1" res="-3.2070852816104889e-02" rms="4.1016471385955811e-01" purity="2.5795564055442810e-01" nType="-99"/>
          <Node pos="r" depth="2" NCoef="0" IVar="-1" Cut="0.0000000000000000e+00" cType="1" res="1.2676345650106668e-03" rms="4.6860876679420471e-01" purity="5.4512929916381836e-01" nType="-99"/>
        </Node>
        <Node pos="r" depth="1" NCoef="0" IVar="5" Cut="1.0835836827754974e-01" cType="1" res="4.8218183219432831e-02" rms="4.5262089371681213e-01" purity="4.5193323493003845e-01" nType="0">
          <Node pos="l" depth="2" NCoef="0" IVar="-1" Cut="0.0000000000000000e+00" cType="1" res="-5.2518032491207123e-02" rms="2.1978355944156647e-01" purity="4.6882167458534241e-02" nType="-99"/>
          <Node pos="r" depth="2" NCoef="0" IVar="-1" Cut="0.0000000000000000e+00" cType="1" res="1.6252852976322174e-02" rms="4.6490097045898438e-01" purity="4.9714612960815430e-01" nType="-99"/>
        </Node>
      </Node>
    </BinaryTree>
    <BinaryTree type="DecisionTree" boostWeight="1.0000000000000000e+00" itree="61">
      <Node pos="s" depth="0" NCoef="0" IVar="5" Cut="8.8986247777938843e-01" cType="1" res="5.1878509111702442e-03" rms="4.5392173528671265e-01" purity="5.0410252809524536e-01" nType="0">
        <Node pos="l" depth="1" NCoef="0" IVar="1" Cut="8.0952382087707520e-01" cType="1" res="2.8305051848292351e-02" rms="4.4926500320434570e-01" purity="5.3677129745483398e-01" nType="0">
          <Node pos="l" depth="2" NCoef="0" IVar="-1" Cut="0.0000000000000000e+00" cType="1" res="-1.5740916132926941e-02" rms="4.2722222208976746e-01" purity="2.8526952862739563e-01" nType="-99"/>
          <Node pos="r" depth="2" NCoef="0" IVar="-1" Cut="0.0000000000000000e+00" cType="1" res="1.1999961920082569e-02" rms="4.5173436403274536e-01" purity="6.0447919368743896e-01" nType="-99"/>
        </Node>
        <Node pos="r" depth="1" NCoef="0" IVar="0" Cut="7.2522425651550293e-01" cType="1" res="-3.9123076945543289e-02" rms="4.5947679877281189e-01" purity="4.4148325920104980e-01" nType="0">
          <Node pos="l" depth="2" NCoef="0" IVar="-1" Cut="0.0000000000000000e+00" cType="1" res="1.8823066726326942e-02" rms="4.5328524708747864e-01" purity="6.7509031295776367e-01" nType="-99"/>
          <Node pos="r" depth="2" NCoef="0" IVar="-1" Cut="0.0000000000000000e+00" cType="1" res="-1.3348534703254700e-02" rms="4.5733156800270081e-01" purity="4.0391105413436890e-01" nType="-99"/>
        </Node>
      </Node>
    </BinaryTree>
    <BinaryTree type="DecisionTree" boostWeight="1.0000000000000000e+00" itree="62">
      <Node pos="s" depth="0" NCoef="0" IVar="2" Cut="7.6190477609634399e-01" cType="1" res="5.8402838185429573e-03" rms="4.5818859338760376e-01" purity="5.0089949369430542e-01" nType="0">
        <Node pos="l" depth="1" NCoef="0" IVar="3" Cut="5.0554580688476562e+00" cType="1" res="-8.9860469102859497e-02" rms="4.4374850392341614e-01" purity="3.4046599268913269e-01" nType="0">
          <Node pos="l" depth="2" NCoef="0" IVar="-1" Cut="0.0000000000000000e+00" cType="1" res="-4.2573954910039902e-02" rms="4.2696335911750793e-01" purity="2.7224680781364441e-01" nType="-99"/>
          <Node pos="r" depth="2" NCoef="0" IVar="-1" Cut="0.0000000000000000e+00" cType="1" res="1.2091854587197304e-02" rms="4.3106952309608459e-01" purity="4.4439899921417236e-01" nType="-99"/>
        </Node>
        <Node pos="r" depth="1" NCoef="0" IVar="5" Cut="2.6502245664596558e-01" cType="1" res="1.7837597057223320e-02" rms="4.5856016874313354e-01" purity="5.2101188898086548e-01" nType="0">
          <Node pos="l" depth="2" NCoef="0" IVar="-1" Cut="0.0000000000000000e+00" cType="1" res="2.3386720567941666e-02" rms="4.5782494544982910e-01" purity="4.2884823679924011e-01" nType="-99"/>
          <Node pos="r" depth="2" NCoef="0" IVar="-1" Cut="0.0000000000000000e+00" cType="1" res="-5.4919585818424821e-04" rms="4.5656725764274597e-01" purity="5.4491120576858521e-01" nType="-99"/>
        </Node>
      </Node>
    </BinaryTree>
    <BinaryTree type="DecisionTree" boostWeight="1.0000000000000000e+00" itree="63">
      <Node pos="s" depth="0" NCoef="0" IVar="2" Cut="7.1428573131561279e-01" cType="1" res="6.7896246910095215e-03" rms="4.5411974191665649e-01" purity="5.0295388698577881e-01" nType="0">
