<?xml version="1.0"?>
<MethodSetup Method="MLP::MLPBNN">
  <GeneralInfo>
    <Info name="TMVA Release" value="4.2.1 [262657]"/>
    <Info name="ROOT Release" value="6.12/06 [396294]"/>
    <Info name="Creator" value="nlane"/>
    <Info name="Date" value="Sun Apr 14 14:25:52 2024"/>
    <Info name="Host" value="Linux buildservice008.fnal.gov 3.10.0-693.17.1.el7.x86_64 #1 SMP Thu Jan 25 04:11:40 CST 2018 x86_64 x86_64 x86_64 GNU/Linux"/>
    <Info name="Dir" value="/exp/uboone/app/users/nlane/NeutralKaonAnalysis/TMVA/SelectorMVA"/>
    <Info name="Training events" value="9958"/>
    <Info name="TrainingTime" value="1.85614481e+01"/>
    <Info name="AnalysisType" value="Classification"/>
  </GeneralInfo>
  <Options>
    <Option name="NCycles" modified="Yes">60</Option>
    <Option name="HiddenLayers" modified="Yes">N+5</Option>
    <Option name="NeuronType" modified="Yes">tanh</Option>
    <Option name="RandomSeed" modified="No">1</Option>
    <Option name="EstimatorType" modified="No">CE</Option>
    <Option name="NeuronInputType" modified="No">sum</Option>
    <Option name="V" modified="Yes">False</Option>
    <Option name="VerbosityLevel" modified="No">Default</Option>
    <Option name="VarTransform" modified="Yes">N</Option>
    <Option name="H" modified="Yes">True</Option>
    <Option name="CreateMVAPdfs" modified="No">False</Option>
    <Option name="IgnoreNegWeightsInTraining" modified="No">False</Option>
    <Option name="TrainingMethod" modified="Yes">BFGS</Option>
    <Option name="LearningRate" modified="No">2.000000e-02</Option>
    <Option name="DecayRate" modified="No">1.000000e-02</Option>
    <Option name="TestRate" modified="Yes">5</Option>
    <Option name="EpochMonitoring" modified="No">False</Option>
    <Option name="Sampling" modified="No">1.000000e+00</Option>
    <Option name="SamplingEpoch" modified="No">1.000000e+00</Option>
    <Option name="SamplingImportance" modified="No">1.000000e+00</Option>
    <Option name="SamplingTraining" modified="No">True</Option>
    <Option name="SamplingTesting" modified="No">False</Option>
    <Option name="ResetStep" modified="No">50</Option>
    <Option name="Tau" modified="No">3.000000e+00</Option>
    <Option name="BPMode" modified="No">sequential</Option>
    <Option name="BatchSize" modified="No">-1</Option>
    <Option name="ConvergenceImprove" modified="No">1.000000e-30</Option>
    <Option name="ConvergenceTests" modified="No">-1</Option>
    <Option name="UseRegulator" modified="Yes">True</Option>
    <Option name="UpdateLimit" modified="No">10000</Option>
    <Option name="CalculateErrors" modified="No">False</Option>
    <Option name="WeightRange" modified="No">1.000000e+00</Option>
  </Options>
  <Variables NVar="7">
    <Variable VarIndex="0" Expression="separation" Label="separation" Title="Track Start Separation" Unit="cm" Internal="separation" Type="F" Min="1.43901026e-02" Max="4.99534798e+00"/>
    <Variable VarIndex="1" Expression="pion_plus_trkscore" Label="pion_plus_trkscore" Title="Pion Plus Candidate Track/Shower Score" Unit="F" Internal="pion_plus_trkscore" Type="F" Min="0.00000000e+00" Max="1.00000000e+00"/>
    <Variable VarIndex="2" Expression="pion_minus_trkscore" Label="pion_minus_trkscore" Title="Pion Minus Candidate Track/Shower Score" Unit="F" Internal="pion_minus_trkscore" Type="F" Min="0.00000000e+00" Max="1.00000000e+00"/>
    <Variable VarIndex="3" Expression="pion_plus_dEdX" Label="pion_plus_dEdX" Title="Pion Plus Candidate Mean dE/dX" Unit="F" Internal="pion_plus_dEdX" Type="F" Min="2.10916549e-01" Max="2.00000000e+01"/>
    <Variable VarIndex="4" Expression="pion_minus_dEdX" Label="pion_minus_dEdX" Title="Pion Minus Candidate Mean dE/dX" Unit="F" Internal="pion_minus_dEdX" Type="F" Min="2.33498022e-01" Max="2.00000000e+01"/>
    <Variable VarIndex="5" Expression="pion_plus_LLR" Label="pion_plus_LLR" Title="Pion Plus LLR PID Score" Unit="F" Internal="pion_plus_LLR" Type="F" Min="-9.99723971e-02" Max="9.94055629e-01"/>
    <Variable VarIndex="6" Expression="pion_minus_LLR" Label="pion_minus_LLR" Title="Pion Minus LLR PID Score" Unit="F" Internal="pion_minus_LLR" Type="F" Min="-9.99723971e-02" Max="9.93233263e-01"/>
  </Variables>
  <Spectators NSpec="0"/>
  <Classes NClass="2">
    <Class Name="Signal" Index="0"/>
    <Class Name="Background" Index="1"/>
  </Classes>
  <Transformations NTransformations="1">
    <Transform Name="Normalize">
      <Selection>
        <Input NInputs="7">
          <Input Type="Variable" Label="separation" Expression="separation"/>
          <Input Type="Variable" Label="pion_plus_trkscore" Expression="pion_plus_trkscore"/>
          <Input Type="Variable" Label="pion_minus_trkscore" Expression="pion_minus_trkscore"/>
          <Input Type="Variable" Label="pion_plus_dEdX" Expression="pion_plus_dEdX"/>
          <Input Type="Variable" Label="pion_minus_dEdX" Expression="pion_minus_dEdX"/>
          <Input Type="Variable" Label="pion_plus_LLR" Expression="pion_plus_LLR"/>
          <Input Type="Variable" Label="pion_minus_LLR" Expression="pion_minus_LLR"/>
        </Input>
        <Output NOutputs="7">
          <Output Type="Variable" Label="separation" Expression="separation"/>
          <Output Type="Variable" Label="pion_plus_trkscore" Expression="pion_plus_trkscore"/>
          <Output Type="Variable" Label="pion_minus_trkscore" Expression="pion_minus_trkscore"/>
          <Output Type="Variable" Label="pion_plus_dEdX" Expression="pion_plus_dEdX"/>
          <Output Type="Variable" Label="pion_minus_dEdX" Expression="pion_minus_dEdX"/>
          <Output Type="Variable" Label="pion_plus_LLR" Expression="pion_plus_LLR"/>
          <Output Type="Variable" Label="pion_minus_LLR" Expression="pion_minus_LLR"/>
        </Output>
      </Selection>
      <Class ClassIndex="0">
        <Ranges>
          <Range Index="0" Min="1.3752101361751556e-01" Max="4.9949707984924316e+00"/>
          <Range Index="1" Min="0.0000000000000000e+00" Max="1.0000000000000000e+00"/>
          <Range Index="2" Min="0.0000000000000000e+00" Max="1.0000000000000000e+00"/>
          <Range Index="3" Min="6.3982009887695312e-01" Max="2.0000000000000000e+01"/>
          <Range Index="4" Min="2.3349802196025848e-01" Max="2.0000000000000000e+01"/>
          <Range Index="5" Min="-9.1758266091346741e-02" Max="9.8032069206237793e-01"/>
          <Range Index="6" Min="-9.7965374588966370e-02" Max="9.8530155420303345e-01"/>
        </Ranges>
      </Class>
      <Class ClassIndex="1">
        <Ranges>
          <Range Index="0" Min="1.4390102587640285e-02" Max="4.9953479766845703e+00"/>
          <Range Index="1" Min="0.0000000000000000e+00" Max="1.0000000000000000e+00"/>
          <Range Index="2" Min="0.0000000000000000e+00" Max="1.0000000000000000e+00"/>
          <Range Index="3" Min="2.1091654896736145e-01" Max="2.0000000000000000e+01"/>
          <Range Index="4" Min="2.3349802196025848e-01" Max="2.0000000000000000e+01"/>
          <Range Index="5" Min="-9.9972397089004517e-02" Max="9.9405562877655029e-01"/>
          <Range Index="6" Min="-9.9972397089004517e-02" Max="9.9323326349258423e-01"/>
        </Ranges>
      </Class>
      <Class ClassIndex="2">
        <Ranges>
          <Range Index="0" Min="1.4390102587640285e-02" Max="4.9953479766845703e+00"/>
          <Range Index="1" Min="0.0000000000000000e+00" Max="1.0000000000000000e+00"/>
          <Range Index="2" Min="0.0000000000000000e+00" Max="1.0000000000000000e+00"/>
          <Range Index="3" Min="2.1091654896736145e-01" Max="2.0000000000000000e+01"/>
          <Range Index="4" Min="2.3349802196025848e-01" Max="2.0000000000000000e+01"/>
          <Range Index="5" Min="-9.9972397089004517e-02" Max="9.9405562877655029e-01"/>
          <Range Index="6" Min="-9.9972397089004517e-02" Max="9.9323326349258423e-01"/>
        </Ranges>
      </Class>
    </Transform>
  </Transformations>
  <MVAPdfs/>
  <Weights>
    <Layout NLayers="3">
      <Layer Index="0" NNeurons="8">
        <Neuron NSynapses="12">
          -5.8634028514750280e-01 2.0242553078560022e+00 1.4500705432352590e+00 1.4232131460542885e+00 -1.1870367185038790e+00 -5.8758060753665609e-01 -4.2266230204647237e-01 2.0741602498940805e+00 -7.8577978820435401e-01 -6.5265908757733870e-01 -1.5749121588869515e+00 -3.9581301728923207e-01 
        </Neuron>
        <Neuron NSynapses="12">
          -1.3202742581323568e+00 -2.4622146540668206e-02 -2.8435968479205757e-02 4.4875410019341744e-01 1.1207102327909549e-01 1.5131724904706891e+00 -1.6182932442332723e-01 1.3007317730879788e+00 3.4475420626872401e-02 -1.1829349587773692e+00 1.2403228004399189e+00 7.9486123062653891e-01 
        </Neuron>
        <Neuron NSynapses="12">
          -7.7362126530502140e-01 5.3837473062191270e-02 1.2032119785434576e+00 -9.7743666871058421e-01 -1.7815896405945573e+00 -3.9438732785487385e-01 4.4579489060617572e-01 1.3377298971864622e+00 -2.0247279864365600e-02 -1.0888284915796060e+00 7.8443733198908527e-01 2.1946539070135551e-01 
        </Neuron>
        <Neuron NSynapses="12">
          -8.6193389852810920e-01 1.4611514673272654e+00 -1.3492739402975604e+00 1.4175184456650396e+00 7.2948133541403248e-01 6.2526530196999797e-01 1.9230609877169424e+00 1.3125793874353697e+00 -8.6590571906413527e-01 -5.3856786300485737e-01 4.8398650276649213e-01 -4.9628436316310570e-01 
        </Neuron>
        <Neuron NSynapses="12">
          2.4959052615601651e-01 1.0141572438736430e+00 4.3276589274485827e-01 1.0961356450304718e+00 -1.4700480488490479e+00 8.9526129199396332e-01 -1.3639276405347607e+00 -3.5016480169014969e-01 -1.3576072991852604e+00 -4.9226270443877118e-01 9.6688516834894389e-01 4.1127166254211461e-01 
        </Neuron>
        <Neuron NSynapses="12">
          -2.2990612960052128e+00 8.4962430226551333e-01 -8.8094489707108870e-01 5.5926561504997485e-01 1.9956738821539823e+00 -1.2432930033050111e+00 1.5940326875586647e-01 -3.2441004980914534e-01 6.0055235236573079e-01 -6.3677700256780434e-01 -2.5366712803241531e-01 -6.6936087947088696e-01 
        </Neuron>
        <Neuron NSynapses="12">
          7.4824499787969456e-01 4.5217300743875194e-01 8.5325860822141264e-01 -1.9700309397752849e-01 -1.8731391773915551e+00 -2.1976889840688507e+00 7.0030541734354101e-01 2.5022968249080119e-01 1.3701641773958599e+00 -6.4578200466039681e-02 1.1771362771647393e+00 -2.5150362366335960e-01 
        </Neuron>
        <Neuron NSynapses="12">
          -3.7523479967631973e-01 -6.6411156737043184e-03 7.0664163317130002e-01 -1.0747217736749060e+00 -1.6329817597814547e+00 -1.5964656577826546e+00 -5.8951190379334906e-01 -1.3032260694914657e-01 2.0392929771743402e+00 -3.1147180173113891e+00 7.4853994050594286e-02 1.9133601964594724e+00 
        </Neuron>
      </Layer>
      <Layer Index="1" NNeurons="13">
        <Neuron NSynapses="1">
          -5.6280064793573970e-01 
        </Neuron>
        <Neuron NSynapses="1">
          -3.6970498572840471e-01 
        </Neuron>
        <Neuron NSynapses="1">
          -9.2532654610733156e-01 
        </Neuron>
        <Neuron NSynapses="1">
          2.0441885311076535e-01 
        </Neuron>
        <Neuron NSynapses="1">
          -7.2892298761294416e-01 
        </Neuron>
        <Neuron NSynapses="1">
          -5.7718912507889397e-01 
        </Neuron>
        <Neuron NSynapses="1">
          -3.4355137635578270e-01 
        </Neuron>
        <Neuron NSynapses="1">
          -3.2716232913394949e-01 
        </Neuron>
        <Neuron NSynapses="1">
          6.5810997380546951e-02 
        </Neuron>
        <Neuron NSynapses="1">
          1.3767542039091214e+00 
        </Neuron>
        <Neuron NSynapses="1">
          2.8898165242261653e-01 
        </Neuron>
        <Neuron NSynapses="1">
          -7.2368267136840991e-01 
        </Neuron>
        <Neuron NSynapses="1">
          -1.2502668520036730e+00 
        </Neuron>
      </Layer>
      <Layer Index="2" NNeurons="1">
        <Neuron NSynapses="0"/>
      </Layer>
    </Layout>
    <InverseHessian NElements="11881" NRows="109" NCols="109">
      <Row Index="0">
        1.0197760417965340e+00 1.4565137137383799e-01 -5.2473475440947721e-02 1.6689701980008961e-01 -4.7482390387276134e-02 -1.7770203488484435e-02 -7.2256382943553132e-02 1.8547959195435712e-01 -9.4064803773392347e-01 8.8271323721968886e-01 -6.5866331884083487e-02 -5.4960405819734182e-01 6.8882327270754951e-01 -1.1758033057952116e-02 6.0915997041404175e-03 -1.3545482649028673e-01 2.5930717036068189e-02 -6.5314637175115320e-02 1.3738213163380547e-01 3.9620130397234843e-01 5.0979176685919692e-01 1.9729376510292078e+00 1.3428846387084437e-01 1.1868632207879208e+00 4.3697870775420300e-01 1.3080118096328913e-01 -1.6538264582785168e-02 -3.2034862920153073e-01 -6.9027336538950906e-02 8.6825371455770042e-03 5.0975290744861693e-02 1.7201278572723513e-01 8.7009335926879405e-01 1.4789440601342605e+00 2.4143281690561652e-02 2.1036875125960858e-01 5.4242220769537097e-01 1.8211612966103985e-01 5.1771664667668263e-02 1.3489889137393188e-01 4.3294204404677628e-02 -1.7782428785335397e-02 1.4435613692256444e-01 1.7321063917257831e-01 -1.4633473127647627e+00 5.4522470051643790e-01 1.4428533623892820e-02 -8.0896919180879179e-01 -9.5991215261738150e-02 7.7430776132999812e-02 -5.4350226042853660e-03 8.5640149930221454e-02 -5.2602771747797199e-02 -1.8574355980584996e-02 -6.2376808066272882e-02 -7.2620048199943457e-02 -1.4096090741819336e+00 1.3968447897172038e+00 6.3104227338383584e-02 8.5930153871841952e-01 1.1885867708963647e+00 3.7406209767486814e-01 -8.1797271079243672e-02 -3.5799025884821883e-01 1.3952305364889978e-02 2.9781552785114518e-02 6.1482316407678428e-02 -2.2646567389477251e-01 9.7312930817578258e-01 -8.8867001997172679e-05 -3.5560062808456083e-01 -7.0105394021848810e-01 -3.1516246204209453e-01 6.9149454694124660e-04 2.6618369279733101e-03 1.3609299078458204e-01 -3.9362679587811256e-02 1.3093530957057672e-01 -2.0707709633968754e-02 -2.3446744285627513e-02 3.2270519440434180e+00 1.0202700082795027e-01 1.4841671752874669e-01 -3.6464068536747718e-01 7.6255573027741663e-02 -2.1451654506097906e-01 5.4770255037844121e-02 3.3382851249583889e-01 -2.0769452078079315e-02 9.5784576158048418e-02 -1.4623437922512211e-01 -1.4113887610506104e-01 1.9699535981351737e+00 4.6166645349437019e-01 1.1145064307325911e-01 -2.3565577876798613e+00 -1.7595085986266951e-01 3.5045555069968204e-02 -5.0874592129713278e-02 -3.6447702215341937e-02 7.0724687643190128e-03 -3.5735442829097394e-02 2.0137528858743432e-02 4.3446951757132479e-02 -7.4227917372479843e-02 7.0077299881010102e+00 -8.2613425149514474e-03 5.3832154231411256e+00 1.5848173407836517e+00 
      </Row>
      <Row Index="1">
        1.4565137136303719e-01 6.4806261102740272e+00 2.7193184199531838e-02 2.1469857555190286e+00 4.7159042058327882e-02 1.5057271610410725e-01 4.4422724949913162e-01 -6.1751381405892225e-01 -6.9751487240512688e-01 1.3297847257015756e+00 -1.1192071306237608e+00 -2.2750919874943851e+00 -4.6983736766912082e-01 1.9741735615140915e-01 1.0426826820997789e-01 1.8477392876562186e+00 -6.7756051461863198e-02 -2.0115116329547036e-01 1.3120288146719983e-01 -5.4793489818240770e-01 2.1630705631918401e+00 -1.2630902803609172e+00 7.3488928515330065e-01 3.3560651587937951e+00 -7.4211103758256902e-02 5.3183913386318937e-01 2.3479645652738267e-02 -3.4378790826294185e+00 8.2551036097781777e-02 5.6485886070284402e-02 -1.9024275173934457e-04 -8.5824539129240507e-01 -5.3245739515164114e-01 1.9930661963653868e+00 4.2753053567232568e-01 1.9916528862014773e+00 7.3133630590762166e-02 4.3113054041830736e+00 2.2769557575420485e-01 2.7878600849684623e+00 -6.6306807380123609e-02 6.9103680047469834e-02 8.7402146668737946e-01 -1.0597279526022044e-01 1.2146488651848673e+00 2.3519689484400921e+00 -9.4278735282003090e-02 -3.1783074333043344e+00 1.0803638408090940e-01 3.3251140892144955e+00 -1.8097586740380839e-02 2.0313109409119949e+00 2.0696996302298659e-01 2.2196912701799770e-02 4.0680703817427777e-02 4.1948899238414106e-01 1.1308662080928393e+00 -1.1980755931699032e+00 1.8077207902851777e-01 9.8096130227099998e-01 -3.4732394225994884e-01 2.3808124634376151e+00 2.5357950601460788e-02 1.1589946973404330e+00 -1.7382313324959919e-01 7.6749440600290916e-02 1.2212532063097266e-01 -2.9670417475123698e-03 -4.3842084089840522e-01 4.7403443772841527e+00 -3.4100792396164986e-01 -3.4454023804447624e+00 1.9056820438386429e-01 1.4971769822135792e+00 -6.3732613939124771e-03 -1.9990896788312837e+00 1.2930910337352292e-01 5.9767901161706646e-02 1.3199236987046728e-01 3.8067326359890893e-02 2.4970169701477856e+00 -1.6336715313378392e-01 4.5789848975545822e-01 -1.2808464777437005e+00 1.8397007426302098e-01 2.0894934519214123e-01 -1.4430766696836594e-01 -2.5674981358454216e+00 2.2834225561418683e-01 6.2125981023308824e-02 -5.6314968546005657e-02 4.3726262329083143e-01 -4.5317025745838579e-01 -1.2060785087287446e+01 -3.5224532367663863e-01 -3.7320716194215300e+00 1.2820937678010963e-01 1.0572939183661179e+00 -9.1677096783373629e-02 -6.9098691649008304e-01 -1.1366147003656346e-01 -4.4188231622700080e-02 1.6796418250650211e-01 -1.6252346050137984e-01 -2.4171161383833190e-01 3.6785773708361916e+01 -1.9693594138559342e-01 1.2133443642106773e+01 2.5059588901840620e+01 
      </Row>
      <Row Index="2">
        -5.2473475455563801e-02 2.7193184160726525e-02 1.5726414988099313e+00 -1.0192803607264351e+00 -2.9168902341059405e-01 -1.1266001324892325e-01 -7.6678324826293845e-02 1.0582943397342018e-01 2.0136514447861259e-01 1.4304920392864549e+00 4.3850506289305635e-01 9.5479116376633810e-01 6.5646584597849403e-02 1.3986799726296320e-01 -3.4382761330844787e-02 -4.3852452361402783e-01 -4.6595822918779090e-02 3.3467215356046809e-01 -4.7267055154509574e-02 -2.3277804967772003e-01 8.4830306393732346e-02 2.8041182369241304e+00 -5.1173169558298337e-01 -1.5906896538463731e+00 9.3683660288064768e-02 2.1137799116504805e-02 9.2381107391544059e-01 9.5502854420351238e-02 -6.8820273473015969e-01 1.0948136511186499e-01 1.7151038055882906e-01 7.5391389773817652e-02 -1.5210893923961510e-01 2.9727530703872511e+00 -2.3430590787130334e-01 -2.1212539430615765e-01 1.6409986110064545e-01 -2.0741609309103753e-01 -1.1657548250573031e+00 -2.9446193368002654e-01 3.8846939133820535e-02 -6.4465971439794344e-03 7.6128514124525426e-02 -3.3120447885276433e-01 9.6044117628896664e-01 1.2436245790729359e+00 -1.0574210659645819e-01 1.2075839256533993e-03 -1.6138811827085198e-02 2.5443859940699337e-02 1.9085093331826833e-01 -5.8365769574475035e-01 -6.5196549256761882e-01 1.2739499671728427e-01 -1.6558047727807843e-01 1.2278695674424878e-01 -1.0881072210801679e+00 1.9886087490517914e+00 -2.2217765771354542e-01 -4.3389995762440686e-01 9.2106930563043699e-02 -5.3026446071085441e-02 -4.4385850814979033e-01 1.8558135323618130e-01 8.4582083223333671e-01 -2.7092738784021708e-01 7.7638337394896097e-03 -1.3803165625359864e-01 4.6143328271246431e-01 4.0793230348635356e+00 1.5032332058051459e-01 6.9991757510144137e-01 -7.7893876039555554e-02 1.6134853385793117e-02 4.1588029260298626e-01 1.4668925953178896e-01 -6.9181848157579218e-01 -3.8783786259910868e-01 1.4950647235701325e-01 1.4928224562146769e-01 -1.5129662601026812e+00 3.7291685039810485e-01 -2.4437390255781555e-01 9.7435442235653835e-01 4.7389017991343638e-02 -2.2155686517264903e-01 3.5260730308769639e-01 6.3058922844350984e-01 -6.4771751842938352e-01 -4.6068529381090045e-01 -1.5610659959211737e-01 -1.1626758055407058e-01 -8.5650632336209576e-01 -3.1585194280011537e+00 2.5943231997439758e-01 1.0309513683138620e+00 -2.7846692930377320e-02 -2.3610571240631161e-02 9.5282662827557751e-01 9.5959960566809277e-02 4.7291840438057092e-01 1.2637130666491145e-01 3.9526802149439294e-02 -4.2032579083507216e-02 -4.2336174257154580e-03 2.4454652762319050e+01 8.8642537893862283e-02 -3.2927947378321734e+00 2.7474690496195134e+01 
      </Row>
      <Row Index="3">
        1.6689701971790782e-01 2.1469857553243519e+00 -1.0192803606950065e+00 4.6916540944071436e+01 1.7009981869999280e-01 -6.3243951997115766e-01 -7.8543014843398817e-02 -1.4504896785344144e+00 -1.4918102542181003e+01 8.3469444253200429e+00 -9.1066736152573968e-01 8.1555540081413591e-01 3.2765866954094780e-02 -4.4057762216172214e-01 -4.8570195335984701e-01 1.4873318902823222e+01 -5.1384297456691130e-01 2.2816309541845697e-01 4.0250419261192022e-01 -5.1029855580869610e-01 1.4715734335955123e+01 1.2219316794855192e+01 -1.2616531561491280e+00 -2.2011621537053268e+00 5.0644283909298005e-01 3.0769170783875723e+00 -5.0036166203698784e-01 -2.9557047833234858e+01 3.3901635674489139e-01 2.1055416296737040e-01 -3.7996011447365391e-01 -6.6165555778449370e-01 -9.7897142499124037e+00 1.0492154309748365e+01 4.2602180043853199e-01 2.8266237188865584e+00 4.1152077332311693e-01 1.8089025891167556e+00 2.2472569525849062e-01 3.4989464327524203e+01 -7.4465053156895430e-02 1.6836141966223700e-01 9.2601251622009384e-01 -4.3432499993864337e-01 -5.8151120607080173e+00 4.8029087241585948e+00 -6.1848082153305972e-01 -1.9363153279270342e+00 2.5285628449353786e-01 3.8656392193071842e-01 -8.1320935930115446e-01 2.6959663956335177e+01 1.6243958490636637e-01 2.3935078073050675e-01 -4.8365757138254306e-01 -1.2716217892548853e-01 -2.6152514738917986e+01 8.7340720240075651e+00 -1.7028703894967538e+00 -1.0976295861217251e+01 5.6429764298028540e-01 1.2710990308053314e+00 2.2377511686646145e-01 1.6972790561975803e+01 1.6289196497408548e-01 -8.3559627732698905e-01 -1.7166613882222959e-01 2.6234172498447589e-01 2.6376133662412638e+01 4.5864858049070492e+00 -4.0847329689403739e-01 2.1404240262133212e+00 -1.7724838705644291e-01 2.2233884045851324e+00 -5.1288110263140485e-01 -8.1383139916040115e-01 7.8667996657696942e-02 -1.6888169886982745e+00 -1.7464931266391312e-01 -9.4878458012220945e-02 4.9710739041842551e+01 7.2464020373044224e-01 -1.2671627582364042e+00 2.9159591861662051e+00 6.9966790045879801e-02 -2.4609252280093852e+00 2.5314905769327323e-02 -2.5099972487185390e+01 2.4566350948725349e-01 -8.2636804517751428e-01 -6.4782302049681037e-02 5.2007908259839503e-02 4.2150498029903147e+01 -3.8462362611342733e+01 -3.6686251532376213e-01 -2.2961410426131983e+00 -1.6235638850927819e-01 1.3904853002959257e+00 -4.0541188777918724e-01 -4.9956507649651511e+00 1.5779419536286804e-01 2.0200149449076521e-01 2.5978736845236666e-01 -1.6065764640333247e-01 -2.4980961199032756e+00 1.4932888731815876e+02 1.8460768324026577e-01 -1.1713757029089146e+01 1.6028408201381407e+02 
      </Row>
      <Row Index="4">
        -4.7482390379741446e-02 4.7159042071897306e-02 -2.9168902341945113e-01 1.7009981866756618e-01 1.0711870091173785e+00 1.3681591250924485e-01 3.9353215264427359e-02 -3.9173129740110252e-01 9.3701646255740761e-02 -1.1918078523774087e+00 -8.5474090906194522e-01 3.5108466148154588e-01 -4.1595948659459092e-02 -1.1308973431928628e-01 -3.1780707999701570e-02 1.8187016020924585e-01 -1.4953391685543599e-01 -8.7713705360400962e-02 -1.1976504677642377e-01 -3.0991036698127744e-01 -7.9047770714085708e-01 -2.4761727015406452e+00 5.1466469871490506e-01 -2.9281909452116045e-01 -1.1376877662150081e-01 -1.1817928174854422e-01 -1.0042390153728498e-01 -4.8775256083927354e-02 9.4996587646760589e-01 -2.2832087346740557e-02 -9.5197048962025993e-02 -1.0236752898643195e-01 -7.5419236336187101e-01 -2.5696555023284486e+00 6.9328724770084810e-02 1.5879190743420893e-01 -8.9170671723726697e-02 8.7268410725680590e-02 6.8827778889140379e-02 -1.0646438737229948e-01 -2.8292446429745088e-01 -3.2574128014269624e-03 -7.1562785453527844e-02 -3.0445362634836909e-01 5.8247263489316659e-01 -6.9334485804027235e-01 2.6553282067469469e-01 2.5353763992906103e-01 -5.6776589100959111e-02 7.7474640993714899e-02 4.7936928574491111e-02 -1.3008088914215515e-01 8.3964891323247792e-01 7.2169729972200392e-02 6.8286645059128986e-02 1.4178551649629137e-01 1.4661585642700139e+00 -1.6747115392724417e+00 1.6883943411881122e-01 -2.4201261374852251e-01 -6.0499584628960962e-02 5.6560741006176397e-03 -3.4210531924490313e-02 8.2624677974674154e-02 -1.0996075309543571e+00 -1.1016344068594333e-01 -1.0295251132400195e-02 -4.6973152447531497e-03 3.7500518132190441e-01 -1.4513185682542682e+00 6.4406342172702594e-02 1.8706883538604180e-01 -4.3581047737395934e-02 1.3724672589228767e-01 -2.1018452291051530e-02 -1.3602433262907299e-01 1.0049107045544574e+00 -1.3640996716678400e-02 4.9532851592176533e-02 -1.2653216473006598e-01 4.7136481358293070e-01 1.5194166396248043e-01 2.7893834216220592e-01 3.7566437499707594e-01 5.5674712210273036e-02 1.4988918769413156e-01 3.7865126525354495e-02 -2.3501451208100210e-02 9.9166054484692900e-01 1.2751615277219086e-01 1.6878742475118741e-01 4.9817139155839490e-02 3.1510256379420959e-01 2.5985740223501814e+00 -5.2007051702957857e-02 4.5132419405690594e-01 4.3549517025490043e-02 6.1928180552032266e-03 -1.9298605697370202e-01 -1.2641015437230570e-02 -3.6421211872126547e-01 2.3352315415160332e-02 -7.3070974559903620e-03 -6.7700638620631720e-02 1.3123681970262632e-02 -1.7641808217184305e+01 -1.5498292890768114e-01 -1.7198178670395601e+00 -1.5883567611466155e+01 
      </Row>
      <Row Index="5">
        -1.7770203480662161e-02 1.5057271613625117e-01 -1.1266001323344454e-01 -6.3243951986758873e-01 1.3681591249659153e-01 1.3649572784099204e+00 5.0583537967700674e-02 -1.8197253661528148e-02 -5.2398852310218853e+00 -1.6624105695211686e-01 -1.7818339810581799e-01 -5.1905769685454994e-01 -8.9638639883876173e-02 -8.8636112387603994e-02 3.4372098470394762e-02 2.8502416562124944e-01 -1.2738770903526972e-01 -1.1938232671282116e+00 2.0784267549306035e-01 7.8465415516289327e-02 2.8926080846776383e+00 -1.2618250460918965e+00 3.2655063603019796e-01 1.6638546178847438e+00 -4.4206395084228058e-02 -1.1734723760309412e-01 -3.3205025214225921e-03 -1.6233624028399979e-01 3.0941057048523304e-02 2.5118518515586824e-01 6.0292651210806708e-02 1.4156060105865964e-01 -1.7401580104665393e-01 -1.4466001968876347e+00 2.3932001671938619e-01 4.0883219909975144e-01 -3.8459194277569164e-02 2.9486724542659382e-02 7.1399916870336644e-02 -3.3084692566870583e-01 -4.8331247230213967e-02 -3.1479345796447944e-01 -2.4265863305441890e-01 5.3318677871730231e-02 -6.3146363735337285e+00 -2.7025957202139050e-01 2.3247036995180045e-01 -1.1604075336816702e+00 1.1486713179113206e-02 1.0113846142486843e-01 1.4232216573522354e-02 -5.9224813397961429e-01 4.2563891930130687e-02 -4.3362373419472383e-01 1.3726228888224146e-01 2.1290512620476536e-02 -1.0151488050611306e+01 5.3347717425665020e-01 1.9339360089025040e-01 1.0223804592784671e+00 -3.1548809671771608e-02 5.4301654192471571e-02 -2.6315752363880590e-03 -1.7815544075300493e-01 -5.8713288491683883e-02 9.1496848325594327e-01 -9.6810923551052780e-02 -3.4866641649108188e-02 3.7463219269825290e+00 -3.6278849971128402e-01 8.0471798499181624e-02 -1.2941170743202299e+00 1.6012237267867510e-01 2.4733292647260430e-03 -5.5173476733963375e-02 -2.0674547000808816e-01 1.8464959339673273e-01 1.3629693038546646e+00 -1.1824758288445164e-01 -2.9479899233277557e-02 7.6123789498161347e+00 5.6118220546821318e-01 6.1372096449320346e-02 -6.9835776763175506e-01 -3.4985582388500303e-02 1.7236004005707178e-01 -6.4762550645236977e-02 4.7246305250521414e-01 1.7403570508291660e-01 1.0847385248184644e+00 -1.5282748592313639e-01 -1.2680505533840453e-01 1.3330414925376283e+01 1.2240500540225403e+00 -2.0703758223174021e-01 -3.4292428722401804e+00 1.1521762886565342e-02 -1.4656868145332368e-03 -3.8919584854522862e-02 3.4668114275153802e-02 -4.9712861322222551e-02 -3.7391521111549753e-01 -1.8769739634153907e-02 2.2677552369071888e-02 -3.9145441200093978e-01 -5.2244360760811430e+00 -1.2326123248384054e-01 7.6403934742887802e+00 -1.2654762429408244e+01 
      </Row>
      <Row Index="6">
        -7.2256382951938036e-02 4.4422724945003739e-01 -7.6678324862637481e-02 -7.8543015066045996e-02 3.9353215288097765e-02 5.0583537978296622e-02 1.6841721330627974e+00 2.6374797643268311e-01 2.1084463700743346e+00 3.2682160987462749e-01 -1.8178459462498486e-01 1.4011066252952276e+00 -1.4055792823237953e-01 -1.8017322774113345e-01 1.0117196200168349e-02 6.8016281955441305e-01 4.0337530650025363e-02 2.6292297939509912e-01 -2.3632138587003343e-01 3.9890294877760712e-01 -9.3068077277262695e-01 -2.4336819488141898e-01 4.7989358721776032e-01 -3.9464401332813268e+00 -1.1900751276475754e-01 2.5708275322611038e-02 -3.1105396822311584e-02 -6.3321220532260392e-01 2.5033476363630264e-02 -1.5794555863326010e-03 -3.7632716703664915e-01 3.4356720418864900e-01 -7.9087271876604603e-01 -1.0072544388340576e+00 2.6289011140657659e-01 -1.2665782880688918e+00 -1.3405393559895884e-01 2.7131033771446028e-01 6.1363555279501207e-02 3.7418714224809063e-01 -6.0893112830714045e-02 2.5801335082150378e-03 -1.0893108919534555e+00 3.8121053896082163e-01 -1.5697457441196487e+00 9.3716714845708537e-01 -2.7331567339665658e-02 2.6545251873598770e+00 4.1428097632970805e-02 2.8652915861396766e-01 -5.2940972524951287e-02 6.8365699508917577e-02 3.9935063582126756e-02 6.3469689458402173e-02 8.7204232741021737e-01 -2.6616578079844921e-01 -2.3884901045519658e+00 3.5392672795376079e-01 -1.7847950848435068e-01 -2.4752008561446344e+00 -1.6109094538639288e-01 1.8055683570849240e-01 3.5022554135559325e-02 1.7530832397658780e-01 -3.8400359045900563e-02 -1.0717189414552002e-01 2.2490686683115696e-01 -1.3413589550580549e-01 1.2283405503480820e+00 -5.3431921728857290e-01 -1.4407312633268030e-01 3.3001336564889510e+00 -3.1856429127728736e-02 -9.0421224915708809e-02 -6.9689958520503859e-02 -1.5506176691866957e-01 8.9426440578050936e-02 -1.7800677252893443e-01 -3.9000008844881612e-01 1.5683764400525160e-01 3.7732950283147622e+00 5.3385537073544720e-01 4.5947856100329965e-01 1.2127112511074261e+00 7.4924033049539207e-02 2.3563554656210153e-01 -8.9265262913470145e-02 -6.8303454436600308e-01 1.4543289153048766e-02 -2.2170199086957187e-01 8.0067033365373208e-01 -8.8876149893361109e-02 5.0918588630172685e+00 1.9349767783571297e+00 -2.2547032727319596e-01 6.8499100232779533e+00 2.7929574208179701e-02 5.3495858493314119e-02 -3.9272969789936781e-02 -1.1992681879631908e-01 -1.7162385212485844e-02 6.0766049033045486e-02 -1.9319575394264552e-01 9.2779808639963907e-02 -1.0245331239669830e-01 -3.8145784358751520e+00 -9.9146484116334754e-03 -1.6125430511618283e+01 1.2172597820936867e+01 
      </Row>
      <Row Index="7">
        1.8547959190507868e-01 -6.1751381416795414e-01 1.0582943400328304e-01 -1.4504896784741277e+00 -3.9173129738680501e-01 -1.8197253729614005e-02 2.6374797657234694e-01 8.8623050905169816e+00 1.8215122632705152e+00 4.8799482034253412e+00 7.4771824892526761e-01 -2.6048736051679988e-01 7.2395251405144923e-01 7.9612054747433392e-01 1.1644166306444775e-01 -8.9212423084620129e-01 5.3045284040642426e-01 6.6991769624756503e-01 6.0158196509795181e-01 5.1057495334685168e+00 -3.5360986351657333e+00 1.2295820842973818e+01 -1.1674482122747656e+00 -7.5340305879806313e-01 3.3907766553787549e-01 8.3879793974718475e-01 2.2344239772821589e-01 -3.1980213150023301e-01 -5.2393099434447299e-01 2.1616480826462003e-01 2.7148669290260102e-01 5.1546392556632972e+00 9.8105886387108754e-01 1.2871422357533653e+01 -5.5344709667784042e-01 -1.0035810203853002e+00 2.5272458168946416e-01 -5.8564872712737781e-01 5.3164836367234070e-03 -3.2700239379582641e-01 2.1342409414852970e-01 3.5185632902562419e-01 -9.0981575201414178e-01 5.0746258085630220e+00 -1.4763091675459057e+00 2.7563386454773138e+00 -1.3453917734389470e-01 2.3756446688777014e-01 -6.3097032396814162e-02 -7.5733002885682144e-01 -7.7523203664970064e-02 -3.6996482561329336e-01 -4.8015323357215506e-01 5.8672641141910759e-02 5.1160419010429170e-01 -1.3470825180718926e+00 1.2973915113964276e+00 8.2590789883351086e+00 -5.0045616448511998e-01 4.7360180901524562e-01 6.7638213220320420e-01 -4.9320294291295447e-01 -4.2286470510332227e-02 -7.4780542926241278e-01 2.8542283685299086e-01 -4.3076703795047588e-01 -2.4374884717853995e-01 -9.3146626881551198e-01 3.2964194254677714e-01 9.0518558105744518e+00 3.4973960349702227e-01 3.7356772690494178e-01 -2.8281440548975845e-01 -4.9223928323299071e-01 -5.0512027733507575e-02 -5.8498400741882950e-02 -5.2204788065998309e-01 -6.6037534266850006e-01 -2.7479550839368772e-01 3.0099721351974684e-01 -2.2989592586109158e+00 1.6624544234525018e-01 -6.2617243038098713e-01 1.6676939326152529e-01 -1.5227651093927963e-01 -9.0007590938970172e-01 -2.1701776951710025e-01 1.7932142972081513e+00 -6.4400296353438535e-01 -7.2752044897770574e-01 -2.5753359743599402e-01 -1.1801961794954128e+00 1.8816037687369755e+00 -1.5474165296416492e+01 6.2502178851687384e-01 1.7771866018938414e+00 -2.5298301783562710e-01 -3.0786532763522356e-01 1.3139446555562637e-01 4.9494868524134483e-02 2.4435524364070671e-01 1.7403932238354805e-01 -2.3488784191515849e-01 1.1293633856692482e+00 2.8243625224661273e-01 9.7575571494960400e+01 2.5989390140129753e-01 -1.1757053711983552e+00 9.7701599780639086e+01 
      </Row>
      <Row Index="8">
        -9.4064803758857352e-01 -6.9751487218431674e-01 2.0136514425712448e-01 -1.4918102543096211e+01 9.3701646283818718e-02 -5.2398852307523214e+00 2.1084463695884779e+00 1.8215122628207610e+00 3.0766411535136768e+02 -1.1598802079244457e+01 -5.8163308804112912e-01 5.1673567425052696e+00 -1.5446666213880283e-01 3.7668163040419422e-01 9.5138217498445043e-01 -6.4914119660186875e+00 9.9933115733439415e-01 1.8054307349519494e+01 -1.9549820923173784e+00 1.6257460875399743e+00 -4.5168321254644766e+01 -4.3565784757820481e+01 -9.8334925034151199e-02 -6.5730480822579800e+00 4.4390360442191246e-01 -2.5096559111567101e+00 5.9073753742143442e-01 1.1163902478688646e+01 1.0429684227370561e+00 -2.4143298224206271e+00 1.3962115083513364e+00 4.2346968750496139e-01 2.6896417175193822e+01 -3.9557841632130085e+01 -1.0854444462819610e+00 -4.1641896635515661e+00 -9.3288493079343482e-01 -2.5069890082464208e-01 -2.9989885480652567e-01 -7.7254558135278160e+00 -1.0345607518889396e-01 4.2289673969262997e+00 1.3100134863797832e+00 1.8045112382779660e+00 1.6912037641547232e+02 -1.1964896550788232e+01 1.1277892623866443e+00 6.8657061750439956e+00 -1.4735906828974210e+00 -6.0580811171121152e-01 -2.5809723358966474e-01 -2.8439970384402011e+00 9.4895901014658379e-01 5.1015179675875393e+00 -2.0708445741223236e+00 -5.1288026020948929e-01 2.7697058788029426e+02 2.3945115544822819e+00 -2.5687656604498734e+00 3.0609938702661741e+00 -2.6225762192751252e+00 -6.5116678534839423e-01 -2.4721550443976548e-01 -3.2986805751920349e+00 -1.7695067385184526e+00 -9.7076561763630913e+00 1.3542155380790406e+00 -1.7367161902593908e+00 -1.0294337594117931e+02 -1.1968435102656670e+01 1.5128401597758909e+00 5.5823912104355733e+00 -3.9388156953433301e-01 1.4361685100625188e+00 4.3210178284318546e-01 -1.4773938993045759e+00 -2.5044931752680066e-01 -1.4773988927119959e+01 2.5945176576496198e-01 1.8984958176308147e+00 -2.5786102317823770e+02 3.2045102517149369e+00 3.3677448391072566e+00 2.4455380963664393e+00 -1.7038433741898267e+00 7.2119631116122451e-01 -9.9842966431140789e-01 6.3826405401336697e+00 2.2026586645608537e-01 -1.1475483277534577e+01 -8.0704506711386248e-01 2.2950594702282401e-01 -3.6586188870449195e+02 9.9968844318566909e+01 -5.3661225117573541e-01 2.1285155304831179e+01 6.1840453868052425e-01 -2.1490485412110977e-01 2.2874961165264163e-01 2.1263306959483170e+00 -6.3305424816223255e-01 5.8472748006068693e+00 2.2726658664221891e-01 2.5625786945514739e-01 1.1098999831531289e+01 -3.5496599710846425e+02 3.0132355827559465e-02 -3.0348899544455755e+01 -3.2870398001268507e+02 
      </Row>
      <Row Index="9">
        8.8271323198205209e-01 1.3297847144465038e+00 1.4304920428621699e+00 8.3469444339862093e+00 -1.1918078510934720e+00 -1.6624106437802766e-01 3.2682162491983036e-01 4.8799482048198115e+00 -1.1598802035863883e+01 6.2768384756560908e+02 1.1009103687992964e+01 4.7760209232414068e+00 2.3201686042218341e+00 4.5124971907470153e+00 -2.1693540336360622e+00 -1.7634747589358977e+01 1.7856237526838943e+00 1.2133812359857070e+00 2.0902811044027003e+00 -8.2291033902668715e+00 3.6098954786554472e+01 5.5713772499301183e+02 2.6423729864605505e-01 -1.7649601091644001e+01 -2.0992328426857485e+00 3.0889183755849454e+00 -2.7306938904449668e-01 -3.5151390954594532e+00 1.1124920310047881e+00 -1.6749254985659743e+00 -2.1834570104220683e+00 2.5020105680246427e+00 -9.7175626850325152e+00 6.8984288792169775e+02 -9.0635711351066039e-01 -6.8535170179318898e+00 3.0966070089867781e+00 1.9146923880951183e+00 -4.1033425487748276e-01 4.1314011269971509e+00 -3.1342961822600310e-02 3.8219806603058459e-01 3.4836838756638100e-01 2.1850364947261944e+00 -1.5657176741077613e+01 3.8674169085444817e+02 -5.2579568984992586e-01 1.9289889971919583e+00 -2.6139497997984917e+00 1.8988899836279107e+00 -6.6053506677946261e-01 1.2492585898669355e+00 -2.7274419612291345e-01 -7.4927960915320302e-01 4.4393780862728827e-02 -2.6691578375661233e+00 -1.4433879438542178e+01 3.6207608543382719e+02 -5.4676917806201937e+00 -7.3784471198521171e+00 8.5770879012892429e+00 1.4231683007562139e+00 3.1385195852237407e-01 -1.6046942207451469e+00 -1.0525794539713926e+00 -1.6890193860695249e-01 -2.6564815692247123e-01 -1.0685156166212983e+00 5.1700350478456638e+00 5.5893775097160915e+02 1.7709217597905200e+00 -7.5757861336088457e+00 -3.7873539298876171e+00 2.1902350064340359e-01 3.6068526627794495e-01 -1.3294755511654772e+00 5.2318635604673847e-01 -1.1142927662963618e+00 1.3090753066053145e+00 7.4968877403864198e-01 1.6516533939142640e+01 9.5618708279305096e+01 -8.7301741931460164e+00 6.3809422325845055e+00 4.8880849663679173e+00 -6.1311482040673368e+00 2.3805106994757841e+00 1.3241598166771274e+01 -1.9407385140072879e+00 -3.6622783023077266e-01 2.6941109576089817e-01 7.1944092123162919e+00 -1.5589710877938394e+00 -2.8461987844953078e+03 -4.8929684557278428e+00 5.3792068284879264e+01 -2.9319669952945628e+00 5.4932498029497312e-01 3.6719978800583014e-01 -1.1138956418041797e+00 2.1640235982351683e-01 2.6067050909520939e-03 -9.4080658626173458e-02 1.2110485622569920e+00 -2.8950678409951014e-01 1.0481643941417919e+04 2.1110307161305180e+00 -5.9909289803709065e+01 1.0535218435813942e+04 
      </Row>
      <Row Index="10">
        -6.5866331985546367e-02 -1.1192071308732463e+00 4.3850506292062619e-01 -9.1066736159291395e-01 -8.5474090901533373e-01 -1.7818339822768081e-01 -1.8178459435694094e-01 7.4771824881099747e-01 -5.8163308678092562e-01 1.1009103672953074e+01 9.0525574627843870e+00 1.1841698705645227e+00 3.3333454420297920e-01 3.3358620391585758e-01 -5.7717623646078353e-02 -1.3112855297669739e+00 6.9217166665619045e-01 6.1108368978218341e-01 4.1156783180137446e-01 9.2295697447979819e-01 -1.4425722380741357e-01 1.7395527124612240e+01 -4.9080082254006419e+00 -3.5548064374587516e+00 9.7670437961967005e-02 9.2880813745249979e-02 3.1807536133796210e-01 2.6504778978695137e-01 -7.5308349956359488e-01 1.4198759695739796e-01 2.5841083161129380e-01 8.0895229716041772e-01 -4.2730180883358670e-02 1.9700007682384523e+01 -2.8621414047272995e+00 -1.5076415261434795e+00 1.1112278315120871e-01 -4.7064148925493737e-01 -3.6733217566335735e-01 -5.2871932350025341e-01 3.9587519234929125e-01 2.9587044279901115e-01 -2.1065865526907290e-01 8.9406275247669686e-01 -1.5497324912520480e+00 6.1194773239190745e+00 -2.2459776665423066e+00 2.8318156630167071e+00 4.8258859636544402e-02 -2.8037371029053038e-01 3.6153199874019479e-02 -7.8892856651367749e-01 -5.1821464396363104e-01 2.6312575675760097e-01 2.2542005617236771e-01 -7.8336692875823233e-02 -4.1165681761685411e+00 8.5385113063768436e+00 -3.7842916849142445e+00 -7.7249645541321466e-01 2.7859648814547311e-01 -3.9295499110965604e-01 -1.7113485398451264e-01 -3.6908545535623904e-01 9.0354314094611876e-01 -7.3467777216770336e-02 4.2286094926943463e-02 -2.1026732802481574e-01 1.3096041381087637e+00 1.2642224730491089e+01 9.2322475891814726e-01 3.5550133751341919e+00 3.6841698181514511e-02 -8.6338372610594433e-02 1.8702201641823779e-01 7.4715151446478001e-02 -7.4291557800281482e-01 -3.4495096223770166e-01 3.8683422634681663e-01 3.8728072039782940e-01 1.1210680509480477e+00 -5.9421102633995737e-01 -5.1184252700488839e+00 1.5367425661278167e+00 -2.2830783297773935e-01 -5.9069980292297508e-01 1.3037241112052955e-01 1.9129803017267037e+00 -1.2149038662709672e+00 -7.6285895336918585e-01 -6.9345386312650448e-01 -4.3548762434682792e-01 5.2030327737459130e+00 -4.1524452076204241e+01 2.3202218384641204e-02 7.9879813149878505e+00 -1.4858763994757776e-01 -2.4866561403216725e-01 2.9089444867258529e-01 1.9151864898567489e-01 4.5265862478187990e-01 5.0154892512112824e-02 -1.4388781938129203e-01 2.0268209652190233e-01 1.0607711781052825e-01 1.8424140822330349e+02 1.1406143881225566e+00 -1.6906863111854371e+01 2.0004303123230571e+02 
      </Row>
      <Row Index="11">
        -5.4960405849544713e-01 -2.2750919889215080e+00 9.5479116290334787e-01 8.1555539531655086e-01 3.5108466210454026e-01 -5.1905769670685231e-01 1.4011066255415017e+00 -2.6048736403890871e-01 5.1673567555120039e+00 4.7760205414660959e+00 1.1841698640073446e+00 4.7024228466538204e+01 -2.8033782982263373e+00 -1.7167031785371916e+00 -1.1476238137462595e+00 -7.3579306035948300e-01 -7.1611321665877714e-01 1.3592934653913900e+00 -2.9368592875908588e+00 -3.9882810404979825e+00 -1.3455877035566955e+01 6.4457864909290992e+00 -2.2385198887893933e+00 -8.1513315448223779e+01 -1.3875490561849184e+00 -8.2646673512835167e-01 6.9559305134693239e-01 1.8740494093200615e+00 7.7984668087170028e-02 -3.9694729247281413e-01 -1.9091691840028926e+00 -1.6796028459121464e+00 2.0769012591735141e+00 -1.6544977319345158e+00 -1.1799198549006729e-01 -1.9516478842242478e+01 -7.4488840110212784e-01 -9.3673077000217120e-01 -4.7924649661777130e-01 8.3131595394607716e-01 -3.2967164951726191e-02 3.0536211165257088e-01 -2.9068973538913081e+00 -1.2853839503608946e+00 3.1713375727654709e+00 2.9209434349436911e+00 -2.4193019286018930e-01 4.6579392693337361e+01 4.3558604802874029e-01 -2.5707166271954001e+00 2.7660108492632329e-01 2.8286971316965692e+00 -2.9324048663907504e-03 7.3255273617031458e-01 9.1806579789883669e-01 -3.1246234990995925e-01 -7.4473375280755794e-01 1.4517832386094423e+00 2.4581832883006316e-01 -3.5255443929684475e+01 -1.8205467348185107e+00 5.3335737310944564e-01 2.7476711328586312e-01 6.7985880187712810e-01 3.9533414149038204e-01 -1.0591130361114065e+00 1.7853755290410664e+00 8.0420999842591245e-01 -2.2607499619827571e+00 -5.5883286326182571e+00 4.2425929636900983e-01 6.5735372429414653e+01 2.9516381994514773e-01 -1.9712772298605474e-01 5.0592460196094025e-01 9.9062358103802484e-01 4.1103135655805972e-01 -2.0480851248550969e+00 1.2677658237464545e-01 1.1740579211491731e-01 -1.0748320861371049e+01 4.5862403846155395e+00 -9.2295708221996065e-01 2.6926203302648929e+01 1.6512249384341260e+00 1.2661801108697062e+00 8.1596838967774155e-01 -1.9675429635746591e+00 4.6210696453199329e-01 -1.4377625377283674e+00 2.7005337278328465e+00 3.2582993735502148e+00 2.8050442528751240e+00 -2.4402916829531549e+01 1.3822456784557784e+00 2.1749421490929083e+02 4.8356388414307033e-01 -6.1893495331193826e-01 8.2190621105461614e-01 5.1210425303619256e-01 -1.2102807277850021e-02 6.2613834890690201e-01 -9.0145063126307601e-01 -3.0797082056317837e-01 7.5317179767768982e-01 6.4634953542285928e+01 2.8881070564911027e-01 -4.0810869539698825e+02 4.6976427964075930e+02 
      </Row>
      <Row Index="12">
        6.8882327272870469e-01 -4.6983736756428052e-01 6.5646584663866747e-02 3.2765867372404500e-02 -4.1595948706095953e-02 -8.9638639896964634e-02 -1.4055792824699154e-01 7.2395251431771612e-01 -1.5446666311229662e-01 2.3201686330815221e+00 3.3333454470226798e-01 -2.8033782981249811e+00 3.3968848085873327e+00 -2.6554612721763782e-01 -1.1058989273982649e-01 -2.4315499629181181e-01 4.5404907278339612e-01 -6.5182305245670757e-02 -2.4045249595015200e-01 7.1687146249847666e-01 1.4878535666534098e-01 4.4316039621577898e+00 -2.1073111684111923e-01 6.6240879038393885e+00 1.0098379731303198e+00 2.7932614770459391e-01 9.8192147742890451e-02 -7.5650783127647725e-02 -7.9090804502435913e-02 -5.1610527278241891e-02 3.2619964095692661e-01 7.1124909374726930e-01 6.8888538113914466e-01 2.8459425934851161e+00 -9.2297112782431259e-02 1.1453471739376972e+00 1.1234713195977308e+00 -2.7548391598666677e-01 -1.2928903233032168e-01 -2.4837428922287375e-01 6.3050629103292288e-05 7.2789983307413847e-02 6.5567353260358185e-01 3.8985397612135381e-01 -5.0669253663009017e-01 1.2491403641702692e+00 -4.6684627307782278e-03 -2.8560611172392938e+00 -3.4883318461091928e-01 -2.4333785533931107e-01 6.7790841504686457e-03 -4.2550250582222260e-01 -1.2308997808661343e-01 8.8158436598522419e-02 -3.5442984804303773e-01 -2.3884349416059431e-01 6.0785971721485410e-01 4.1732798260283879e+00 -1.9857165960921935e-01 2.4605981911161088e+00 2.6733070378221706e+00 1.4304857111229963e-01 -6.9621030374818205e-03 -4.9611662935180434e-01 -1.4206997423039430e-01 -9.4733664159432851e-02 3.8598065157421457e-01 2.4118082318438588e-01 6.9872806481570660e-01 1.9970178679926676e-02 2.0209648549988343e-01 -5.2495375753358031e+00 -1.0409726755013031e+00 -2.2819928085899663e-01 7.8179638528189654e-03 2.2640018777527882e-01 -1.2582477758498462e-01 -3.6941695171497363e-01 1.4424864905823348e-01 -5.9132302893557045e-02 -2.0950104339343723e-01 8.1593189444143022e-01 -2.0848673034017060e-01 -1.6818750868806682e+00 -1.1310932079596123e+00 -9.0473359004558218e-02 9.8239205528155987e-02 5.3844844184084839e-01 -3.2839841389911023e-01 -3.0138334876988762e-02 -1.5875407447453760e-01 -6.8649876006515009e-01 -1.0759859674260275e+00 1.0574313680957498e+01 -7.8427795925813240e-02 -1.7609990279118186e+01 -5.3030104963681413e-01 -8.0099026886615188e-02 1.0799319269149957e-01 2.5597428274191619e-02 9.6738534009538371e-02 6.6337525504406414e-02 1.0520418441482324e-01 1.1578711294116782e-01 3.9677017830782924e-02 -2.9967764639036929e+00 5.3408461818889974e-02 3.0997914190948027e+01 -3.4284629431799665e+01 
      </Row>
      <Row Index="13">
        -1.1758033091695097e-02 1.9741735608008870e-01 1.3986799728778010e-01 -4.4057762209638440e-01 -1.1308973431195923e-01 -8.8636112436379477e-02 -1.8017322764313803e-01 7.9612054748912442e-01 3.7668163066559468e-01 4.5124971913742229e+00 3.3358620402498218e-01 -1.7167031760419356e+00 -2.6554612740607308e-01 3.0407935256442968e+00 -6.4044986270477000e-02 -4.8324554250586194e-01 1.2234581744280126e-01 2.7282905380027589e-02 3.6793068980775168e-01 3.7377507238354241e-01 4.6430930027670483e+00 5.9602561038584208e+00 6.0396481952381320e-01 1.0029947836693478e+00 6.3499889128980719e-02 1.9763733713171505e-01 1.1364862258514048e-01 9.1828105321001274e-04 -1.6180549118200435e-01 -8.3069304887897544e-02 2.9320789328079916e-01 4.4787617520310607e-01 -1.4909811654508704e+00 9.8963654461216439e+00 -2.2900792388337388e-01 6.5401317991892360e-01 1.9968616073794049e-01 6.9218032649369987e-02 -1.4414446965320549e-01 -3.9725643958599832e-01 4.8634035978197432e-02 2.5192077499299775e-02 1.5761336052987346e-01 5.1637794168472873e-01 5.1335488140929986e-01 3.4290893703813961e+00 -1.2867992404751072e-01 -2.4787191424095258e+00 -2.7746587875659312e-02 1.7341307712363663e-01 1.0439663148134312e-02 -4.2420102296777751e-01 -1.3096006558108006e-01 -4.7054330804039819e-02 -5.9644097279703323e-02 -1.1561275646949926e-01 1.8185795909854243e+00 -1.7012595207489376e+00 -3.2940443733936331e-01 4.2006805263815544e-01 4.4244735368192778e-01 -6.7243702957847751e-01 -2.0110353357169680e-02 -2.6872097133598638e-01 5.3109469751401905e-02 -3.5533147936234522e-02 -2.8299052494402488e-01 -3.9262770255254403e-02 -1.9539821703708613e+00 6.4397407511624039e+00 -3.3985864577166257e-02 -2.0905804308118521e+00 -1.2071381508938997e-01 -1.0113254818325523e-01 6.5014432020338075e-02 -3.2039860770896755e-01 -1.6175444936584504e-01 -1.5016482360698408e-01 -1.6100033980812223e-02 8.3004027592274043e-02 -1.0989294198594721e+00 -1.6379062583880692e+00 -1.9543074739383084e-01 -7.8331703441224709e-01 4.4886821526820947e-01 -2.1430628905061795e+00 5.8422850836378104e-02 1.1373783224592853e+00 -1.6037060638052930e-01 -3.3597437821945304e-02 -3.9612391217352116e-01 1.7384067710511680e-02 -5.5026074911218705e+00 -1.6250240886978020e+01 -5.9750138221294868e-01 5.8097697299825288e+00 -9.5166890717283709e-02 3.2709237700288926e-02 1.0741754180106883e-01 -7.4352767665599395e-02 8.8385148231209174e-02 3.0133744694671082e-02 7.5554884659481042e-02 9.1837508264817957e-02 -2.3765985023241870e-02 6.8111596139351349e+01 5.3121809579035659e-02 -6.2698731550725872e-01 6.8734234226038268e+01 
      </Row>
      <Row Index="14">
        6.0915997345176720e-03 1.0426826827793745e-01 -3.4382761347870883e-02 -4.8570195338908206e-01 -3.1780708009112146e-02 3.4372098511550320e-02 1.0117196114862281e-02 1.1644166306871284e-01 9.5138217469548547e-01 -2.1693540323335583e+00 -5.7717623707958410e-02 -1.1476238158865044e+00 -1.1058989257771772e-01 -6.4044986258376901e-02 1.0477417873203145e+00 6.4461894517443385e-01 -6.9156016310504076e-01 -3.1418664790159717e-01 -3.1046087879132545e-02 2.4613353014911266e-01 -1.3559842686382968e+00 -3.2688804573472505e+00 -2.4938383937423547e-01 2.8693349621700803e-01 3.9685900108351740e-02 -3.1230689123152230e-02 -1.6308753826787481e-02 3.3748695812780061e-01 -8.6433684578386960e-03 1.6393328790820338e-02 2.0425595101103471e-02 1.0110657790604445e-01 -4.2815262408008659e-01 -4.1190083051635522e+00 7.1919524897267856e-02 5.4361087815162468e-01 -1.1965998051414517e-02 5.1894727716820292e-02 5.7260843402742678e-02 -2.2657305268588113e-01 -3.4475375547720018e-02 5.8069856803645944e-02 7.8322591305689304e-02 4.5787216891052562e-01 -7.6432022930874810e-02 -3.2198604157735229e+00 1.9014760177092610e-02 -2.7891135945881407e-01 1.8026058550217744e-02 5.0812712276160202e-02 -2.7577441553251619e-02 -2.5452136469201625e-01 1.2457973871376538e-02 1.3142520705646552e-01 -5.9607843036084136e-02 6.5943820060392414e-03 -1.1107278651370400e-01 -9.6651093455277604e-01 1.1586091009424843e-01 7.2111004532474243e-01 -1.1324105198727352e-01 2.4567516716956561e-02 -2.0178139326075470e-01 -2.3586876436337795e-01 1.3677348163329717e-01 -4.8034047703342742e-02 2.9745351096277517e-03 -8.2584396689794226e-02 2.6291106426749222e-01 -3.0656876513183668e+00 6.9159712215848101e-02 -5.9938166785019520e-01 2.7399386491990724e-02 -4.4593952992156599e-02 -5.9959946920237692e-02 -1.3243796190020890e-02 -4.7261032619530463e-02 -1.8419555312988900e-01 3.1940364563367948e-02 5.6284568815293173e-02 3.7991266086378594e-01 2.5912519644402110e-01 1.2686403255080109e-01 -6.4300655595828793e-01 1.1799492747356574e-02 9.9791030363129724e-02 -7.7959764712019575e-01 -3.4588823577955097e-01 4.8912759089317226e-01 2.3995000609885642e-01 2.4991959683261802e-02 2.3297404334009369e-02 1.7605087982323382e+00 1.6858186871552455e+01 1.2248596034143733e-01 8.3425975577872502e-01 2.3361277283036306e-02 2.8490586700942911e-03 -4.5939252338496120e-02 1.7133679470491166e-02 -7.8976916923978822e-03 4.5160060321418026e-02 2.8956014709430038e-02 4.1359720405429262e-02 3.1331764864115388e-02 -5.9142219406142665e+01 -3.5606554649062663e-02 1.7550602852378048e+00 -6.0768851699917370e+01 
      </Row>
      <Row Index="15">
        -1.3545482636646966e-01 1.8477392878677898e+00 -4.3852452377154805e-01 1.4873318902210713e+01 1.8187016021606439e-01 2.8502416583566514e-01 6.8016281915686250e-01 -8.9212423112553552e-01 -6.4914119663325733e+00 -1.7634747615461265e+01 -1.3112855306287656e+00 -7.3579307086223622e-01 -2.4315499550531072e-01 -4.8324554265880770e-01 6.4461894535652753e-01 3.7870088742168555e+01 -9.1163039760153741e-01 2.3912833151925122e-01 -4.9900003465137893e-01 4.6551499814041020e-01 -4.2878152066932742e+01 -1.6325743867192212e+01 -4.1541496195590955e-01 -8.8319621374001089e-01 8.2744586223254979e-02 1.1096069433573050e+00 -1.0681969179033075e-01 -1.1528405561205648e+01 -4.0905086949402786e-02 7.8272343588312393e-02 -5.9839968007784239e-01 -2.2251330276752332e-01 -5.6314242662321377e+00 -2.6299194680517903e+01 3.7363322413232003e-01 1.7869194926284035e+00 -2.9921538692007049e-01 1.4542625616159019e+00 3.3915524112998902e-01 1.3116932966404436e+01 -1.7346988818091996e-01 4.2688054107247730e-01 -5.9659352526962223e-02 -3.1537256383407342e-01 -5.7422486052469370e+00 -2.0692009337328614e+01 7.0229892869388943e-01 -8.2969992393736902e-01 2.6400750582487285e-02 1.1457112282891413e+00 -3.3680431180008596e-01 1.1030126842602582e+01 2.0532262694292261e-01 5.0862971103853671e-01 6.3257471037244606e-01 -3.8150213308743380e-01 -1.9572820979810935e+01 -5.2593591123266759e+00 5.1713330713442218e-01 -1.1259977417958780e+01 -4.5900725206422521e-01 5.7202686174468909e-01 5.1750207474502180e-02 1.6054184330165944e-01 2.9039555459514560e-01 -3.6759031331043057e-01 1.2516101010594799e-01 -3.9898069904711286e-02 3.0192121876159778e+01 -1.7435930578906294e+01 -2.9548925213075794e-01 3.0304118497501582e+00 9.2100995020775733e-02 6.5356847488157843e-01 -4.0339294510370283e-01 -6.8928066657107845e-01 1.7365262367217527e-01 -5.7415853664086680e-01 -1.7022083557593515e-01 -1.6520693895305372e-01 3.4942929411680183e+01 4.0660673226681361e+00 6.6422382122331236e-01 3.3850179479664915e+00 -3.4980404954344857e-01 4.1251224112726748e-01 -8.2884255194106216e-01 -3.1735533232121256e+01 7.4963344896555295e-01 -8.0141037581178687e-02 1.1186324798739296e+00 -9.7404130556320356e-01 7.1950820450223972e+01 7.0530956620009661e+01 1.1293213289952972e+00 4.6175381952127497e+00 1.0754557188742178e-01 6.1768639891545296e-01 -2.0493604239026961e-01 -2.5440195162301187e+00 -3.5637864665821167e-02 -1.0784756300963760e-02 3.2285273067163084e-02 -6.8465790241971122e-02 -1.5313946744232407e+00 -2.8644654551847782e+02 -2.0265525420399894e-01 -2.7021297417539994e+01 -2.5961055119340472e+02 
      </Row>
      <Row Index="16">
        2.5930717039018170e-02 -6.7756051448773683e-02 -4.6595822911520202e-02 -5.1384297451978256e-01 -1.4953391686092132e-01 -1.2738770903613950e-01 4.0337530646868736e-02 5.3045284043712826e-01 9.9933115721952481e-01 1.7856237560117449e+00 6.9217166671249686e-01 -7.1611321668326289e-01 4.5404907278619844e-01 1.2234581746451889e-01 -6.9156016312359836e-01 -9.1163039769478216e-01 2.3544980200765573e+00 1.4179462919981306e-01 1.0602680914895968e-01 9.1816842868017820e-02 -6.2507448125308862e-01 1.0150632818687957e+00 5.4297905087523224e-01 6.6646845311149083e-01 4.3646693901786243e-02 3.7553437451159459e-02 -1.0687093559291011e-02 2.5052994623990266e-01 -1.9823806938239275e-01 8.2792437283980697e-03 7.8251958885521763e-02 3.4653587826513538e-01 1.5694365960035306e-01 1.2827209295716822e+00 -2.4597901973287897e-01 -6.9550563584177894e-01 4.2381613729453149e-02 -2.2710753942983497e-02 -1.5780776192261120e-02 -3.8888515667347878e-01 1.1303978394439895e-01 1.2693516918676293e-01 1.5982902902111407e-02 3.6775966718943348e-01 7.3036207134489595e-01 2.6837115476048656e+00 -1.6000320681014563e-01 -9.3064849856574483e-02 -3.9799389163035034e-02 -6.1441810889397985e-03 -1.7910356495004054e-02 -3.6279453583636356e-01 -1.5749724943671931e-01 4.5274743544846618e-02 3.1222500152552769e-02 -9.9341316774918045e-02 1.4426994117776708e+00 7.2869961163030261e-01 -3.3816368500467042e-01 3.5974734215289039e-01 2.8160701993927617e-02 -1.0842997060687409e-01 1.5675077829852907e-01 1.1519207932245261e-01 -4.6889332723841903e-01 -2.4091188279809495e-02 8.3705059806541970e-03 6.1998326991714037e-02 -1.0776361590233252e+00 9.7431679589567466e-01 -2.0543079301340611e-01 1.0177683761889986e-01 -4.3797291998680571e-02 -7.1260775279144151e-03 -8.3778292713201086e-03 -1.1029087879954325e-01 -2.5173687919950116e-01 -1.1531929560146970e-01 5.5197615099114063e-03 -5.3504209388390414e-02 -1.3750759525276597e+00 7.2585524214339614e-02 -2.8528390403499854e-01 -5.8579692834456520e-01 -2.8223469829790104e-01 -1.0753324566191327e-01 4.7500725702611091e-01 8.1666563534097303e-01 -1.6886408723886479e+00 -1.6329088360470223e-01 -9.8019760630591743e-02 3.6478116544863465e-02 -1.3207088866628147e+00 5.4764829376752644e+00 -5.5190498975528346e-01 -1.6858288617744153e+00 -3.7549831148162925e-02 -3.2585386654090394e-02 4.2092199317296450e-03 6.4610532752363864e-02 1.0583386056023689e-01 4.4907229271564660e-02 -1.6984400283908886e-02 1.0149225709690231e-01 9.2304516828972144e-02 -7.2244999563016110e-01 1.2820845259735322e-01 3.9157800640441915e+00 -4.7421019945669158e+00 
      </Row>
      <Row Index="17">
        -6.5314637176049128e-02 -2.0115116331132982e-01 3.3467215354241731e-01 2.2816309531649992e-01 -8.7713705350467963e-02 -1.1938232671197200e+00 2.6292297938725806e-01 6.6991769618482166e-01 1.8054307349710022e+01 1.2133812293387418e+00 6.1108368965582471e-01 1.3592934650855095e+00 -6.5182305224170692e-02 2.7282905337248253e-02 -3.1418664786326572e-01 2.3912833168139880e-01 1.4179462920274755e-01 7.1215847927563773e+00 3.1202628634189372e-01 1.5030736675852813e-01 6.5716551054376682e+00 6.5526511976433599e-01 9.0843211981250049e-01 -1.0074677843452926e+00 2.9869293177970563e-01 -4.6741628809855079e-02 3.6416008426836832e-01 6.4537606815507975e-01 -1.1645516558329828e-02 -4.8316190312859164e-01 -2.4024104575768035e-02 4.8411345796246502e-01 1.0310110817504881e+00 -1.1162938265167561e+00 -1.8279749163944334e-01 -4.0249706499560400e-01 5.0692581777274259e-02 -1.9859066044875998e-01 -2.6182864508279052e-01 3.0715416860787825e-02 3.1844521397225573e-02 1.1109081064290920e+00 6.0626536870120795e-01 5.5261072302789049e-01 1.3128023187329351e+01 9.3318805882858236e-02 -2.2541325402006973e-01 1.2896418263882019e+00 -1.1949645605387205e-01 -1.8088139284429050e-01 8.2728255569326128e-02 4.0317476985946377e-01 1.7598946117456618e-02 1.6007037890391995e+00 -2.9865378059899234e-01 -1.2978241256548934e-01 1.9457265775543213e+01 5.7424052334461129e-01 -3.2337489830523430e-01 -1.2838700188340499e+00 -1.5349277840944353e-01 -2.0046451518672193e-01 -1.8054542098172810e-01 8.8122600583098398e-02 -1.1271433074690412e-01 -3.1617004139937999e+00 1.8063267977038053e-01 -3.3807708475718851e-01 -6.8291514067209187e+00 2.8699925102300483e-01 -1.1058553245189567e-01 1.5584563220904695e+00 -4.1910578650233510e-01 -1.3925591574251883e-01 2.6252376913378228e-02 -2.0103374810892705e-01 -2.2846330175885554e-01 -4.0413298438515541e+00 3.2854836023900369e-01 -5.6490802992926192e-02 -1.3198515745532529e+01 3.3544285930876949e+00 8.3180162049439982e-02 1.0483774548311453e+00 -1.1666087538332315e-02 -5.4367162086155774e-03 2.8745023821490046e-01 -5.8396620403123134e-01 -7.3370058863874585e-02 -5.5521016721182850e+00 -3.5722250990394705e-01 2.2988541411146179e-01 -3.2689255259886934e+01 4.0345432485718433e+00 -8.7696112673297577e-01 4.4849735254365908e-01 -7.9367830685910662e-04 -3.8767982162293768e-02 3.1397414522525974e-01 4.6622492491447780e-02 3.6191874109234100e-02 1.0384955659806716e+00 4.2372457204857834e-02 1.3855373382290231e-01 9.7154931908542763e-01 -8.0102961200060498e+00 1.3100664700502745e-01 -6.1768615982061119e+00 -2.3621932475442433e+00 
      </Row>
      <Row Index="18">
        1.3738213164720392e-01 1.3120288153926973e-01 -4.7267055105109534e-02 4.0250419291945150e-01 -1.1976504680992406e-01 2.0784267548068946e-01 -2.3632138587490914e-01 6.0158196529229713e-01 -1.9549820930100135e+00 2.0902811253951796e+00 4.1156783217063264e-01 -2.9368592873723953e+00 -2.4045249596118157e-01 3.6793068994468792e-01 -3.1046087997613547e-02 -4.9900003521389680e-01 1.0602680914574841e-01 3.1202628632872209e-01 3.5012693678507558e+00 -6.3985133394244842e-01 1.7741890599121941e+00 9.4369600624303729e-01 1.1761330390981883e+00 5.3062563444253374e+00 1.0726375010458611e-01 2.7110883192333973e-01 -5.6093068082317447e-02 -6.5362796903224019e-01 -1.3721169989371657e-01 1.1511794136534192e-01 2.5194738297663566e-01 5.8344847533065858e-01 5.0823270570897972e-01 8.5652459712257567e-01 -1.6864194099884866e-01 1.5898026224732811e+00 2.8295279633644366e-01 3.0819658539924633e-02 5.6600372577847571e-02 4.9924943095157870e-01 1.0898386080913411e-01 3.3038884591514328e-02 -1.1629716408755476e-01 4.3727643541471273e-01 -1.0182495260712265e-01 5.0515177590518929e+00 1.1430036076616368e-01 -4.9681549371998983e+00 -7.4869414596024475e-02 1.3486651159188814e-01 -4.3942717196751302e-02 -4.1317377240166486e-03 -6.0240419189424861e-02 -1.2001716029693554e-01 1.6119429598998217e-01 -5.0133269483167320e-02 -1.5689418048078743e+00 4.5112549079750863e-01 -2.1881075656489724e-02 3.4644631703167752e+00 7.3236557999922525e-01 -1.5696541464276947e-01 1.0472069554003427e-02 2.7841834582754793e-01 1.0498356139093312e-01 1.9189283536090607e-01 -1.0160828965279980e+00 2.5343854353619688e-01 1.7473137906878708e+00 1.7906232019880655e+00 -3.7703399757827771e-02 -4.1931579067852960e+00 -5.2254383264999926e-02 4.4260222293157847e-02 -1.2970741571869393e-03 -2.7268080365633574e-01 -1.6115255403314599e-01 3.0815257182116795e-01 -2.3396078341446772e-01 6.5669665542609779e-02 2.3225497110658515e+00 -2.8895848311088201e-01 -1.1477942034585327e-01 -2.2325404909094777e+00 4.3144932761690769e-01 -3.6751142089666494e-01 3.0117930290516348e-03 4.5618520850831212e-01 -1.0755250994992452e-01 -1.8983788710733498e-01 -2.5865606839881123e+00 5.0207513270296877e-01 1.0304059950272100e+00 5.4046435619723638e+00 -9.2666490239814248e-01 -7.1131059805097028e+00 -1.0957721906260423e-01 6.5141862568763559e-02 -4.2414771820794533e-02 -1.0505867459057663e-01 5.2295156178005155e-02 -1.1955985697820608e-01 3.2028978699761623e-02 1.3332844382766859e-01 -1.2627651646850047e-01 1.4455835700262654e+00 2.0938928604010448e-02 2.1660849376754044e+01 -2.0070034639449535e+01 
      </Row>
      <Row Index="19">
        3.9620130404458109e-01 -5.4793489797675532e-01 -2.3277804965863425e-01 -5.1029855554384085e-01 -3.0991036703428421e-01 7.8465415582023468e-02 3.9890294860884978e-01 5.1057495336801821e+00 1.6257460862675375e+00 -8.2291033657942307e+00 9.2295697474730787e-01 -3.9882810443714369e+00 7.1687146279788094e-01 3.7377507254988090e-01 2.4613353002521238e-01 4.6551499720229028e-01 9.1816842900106943e-02 1.5030736667186126e-01 -6.3985133371532454e-01 7.2087951394868384e+00 -9.0841109089252470e-03 -1.2265771015232911e+00 -9.8380134509540595e-01 5.3503087818337178e+00 5.9475261991569095e-01 6.2616756234691229e-01 -8.6775071392005493e-02 -8.1074964808797090e-01 -3.2856602323718309e-01 2.0677169244756410e-01 3.2365297152474715e-01 3.4020632516765370e+00 -7.1413601024823237e-01 -2.9666992786928716e+00 -3.3465414803163179e-01 7.5954558129339489e-01 2.4637115089032319e-01 -4.6988918394595747e-01 3.8067090195890330e-01 9.9080596505393359e-02 1.6271541051543764e-01 2.9777998476244438e-01 -4.9623789174153926e-01 3.7680882066790828e+00 -1.1496407529612043e+00 -8.6011315624882130e+00 -2.1869606181452061e-02 -3.8864959483821622e+00 -1.0498772716539984e-01 -4.6960893079555877e-01 -9.0293205274557697e-02 -6.8927329065247012e-02 -2.1695041934835707e-01 1.4758685454475540e-01 4.0011373743102485e-01 -9.7915758030863698e-01 1.8450765086586252e-01 1.7463034822740369e+00 -6.2549124602959716e-01 2.2090453238930134e+00 9.3421132178781363e-01 -4.5491397196508387e-01 -3.4971773343698095e-02 -2.7555007469404647e-01 2.2745626805476743e-01 -2.9629363338868941e-01 3.4618847071640424e-02 -1.4891996382340242e+00 6.0581146020170307e-01 -3.6976975214315075e+00 2.3776469051188043e-01 -3.7891910741350108e+00 -2.3874112695826555e-01 -4.6820311611588483e-01 -1.9921239145741709e-01 3.1353323567689273e-02 -3.2905599610916170e-01 -4.6717423980396688e-01 -3.4323437104346949e-01 1.0058055067580685e-01 1.1115390185443541e+00 -1.6168780538514582e+00 -2.0172691685719230e-01 -1.6175586796590224e+00 -2.9612665880415623e-01 -4.3939371706524666e-01 -3.3812306287869687e-01 3.6486175095679924e-01 -1.8061934235657162e-01 -2.3997664210615369e-01 5.0621876058338744e-01 -3.3751291232413836e+00 2.6921378768513193e+00 3.6022932956564745e+01 3.2995552378045800e-01 -1.4115247796914113e+01 -2.2078347414346078e-01 -1.8312563594436329e-01 -1.6367215125666024e-01 -1.0781350431583241e-01 7.5660802258705750e-02 1.3059097526729924e-01 -1.1438948394775393e-01 8.1189379191764532e-01 5.7631213947051618e-02 -1.0958011119620156e+02 1.3932116654498394e-01 2.7596866255284812e+01 -1.3759004013338509e+02 
      </Row>
      <Row Index="20">
        5.0979176676065663e-01 2.1630705631742924e+00 8.4830306726530580e-02 1.4715734337602044e+01 -7.9047770725419753e-01 2.8926080843962438e+00 -9.3068077233687063e-01 -3.5360986342445813e+00 -4.5168321256445616e+01 3.6098954881330883e+01 -1.4425722168266475e-01 -1.3455877022975393e+01 1.4878535573889984e-01 4.6430930033654869e+00 -1.3559842692132220e+00 -4.2878152068683043e+01 -6.2507448136745869e-01 6.5716551055792616e+00 1.7741890592735137e+00 -9.0841126759063640e-03 5.0956408526586597e+02 -1.7095493884538417e+01 3.4640989395567203e+00 1.3937859383589693e+01 6.6352551589200237e-01 6.3094940455504089e-01 -5.2212826971061710e-01 -1.6152747987810812e+01 -6.2707745250497471e-01 2.1641133213419899e+00 2.2890246523842821e+00 -3.5112430312692720e+00 1.1188372236636383e+01 1.7145741241319900e+01 -7.8605629831357537e-01 3.0870427322283955e-01 4.3047479606600092e-01 7.2656521242076411e-01 -9.9120062360885788e-02 1.1853311141297421e+01 1.6517544401193285e-01 -2.4820269532383339e+00 2.6766513460055741e+00 -3.2662304124776580e+00 -2.6370560692510480e+01 3.3320362425371670e+01 -2.1047276157340926e+00 -1.5623603391019515e+01 6.6075368771695064e-02 1.5987802710972225e+00 -4.8298262759224619e-01 7.2588618599285457e+00 -1.2955418537241612e+00 -3.7197308892043282e+00 2.4553522147541398e-01 6.3163668764547820e-01 -6.0481883199411271e+01 4.1031612677509294e+01 -1.0535881197966397e+00 -2.0323479263003570e+00 5.7404406714272227e-01 -4.6211263178702211e-01 4.4917607257964487e-01 1.6593004884774928e+01 1.5422935791258674e+00 4.0882100488206845e+00 -3.4639133272038114e-01 -5.6485041910540934e-01 -5.8458759399868242e+01 2.6552171907215040e+01 -1.4946704748233097e+00 -1.6090341270750514e+01 3.4079733607451701e-01 1.4241859723975407e+00 -1.2097043202162361e-01 2.7304448897219835e+00 -1.0373821663718701e+00 8.4389869639726385e+00 -6.6072151076447272e-01 5.9344042813252473e-01 4.6836273757179420e+01 -9.0375175923040274e+00 -1.1991122286797411e+00 1.2764025695429515e-01 -3.7567286770387232e-02 -4.3135520435698194e+00 1.1460631734620721e+00 3.1109181452185886e+01 -9.7276676954239472e-01 -7.6961983299530408e+00 -1.8098513239656817e+00 -1.1809075062861729e-01 -2.9916485301639688e+02 -6.1425224110622565e+01 -3.0641163181587028e+00 -4.3821514149233529e+01 8.0366281863149203e-02 9.1376710496223090e-01 2.7355208450910096e-01 -2.5292282775348700e+00 7.4652988662087638e-01 -2.8282581061800407e+00 5.2739379413048293e-01 -6.1252819850589080e-01 -4.8331248871385588e+00 3.3223819802518437e+02 1.3810453138578715e-01 8.9038006177237037e+01 2.4497806617841152e+02 
      </Row>
      <Row Index="21">
        1.9729376450159180e+00 -1.2630902931446428e+00 2.8041182411980117e+00 1.2219316805741983e+01 -2.4761727001405234e+00 -1.2618250546934178e+00 -2.4336817752555362e-01 1.2295820845145499e+01 -4.3565784709635068e+01 5.5713772505400993e+02 1.7395527143009531e+01 6.4457869321608996e+00 4.4316039288252362e+00 5.9602561035379695e+00 -3.2688804591963447e+00 -1.6325743838695608e+01 1.0150632780236575e+00 6.5526512739360632e-01 9.4369598201334393e-01 -1.2265771304168678e+00 -1.7095493992025723e+01 1.0825393560450020e+03 -4.2354552583321308e+00 -1.2290195402069386e+01 -3.4741006462167832e+00 1.0303054739311200e+01 1.0040461418736506e+00 -3.6405420232067689e+00 -1.1112415482571063e+00 -5.7684140687886920e+00 -6.1778207987215312e+00 8.5306505032094186e+00 -4.0817608553027704e+01 1.0415812689564725e+03 4.6904578911659156e+00 -7.9121019391287595e-01 5.9788606799836588e+00 -4.9401433800669381e-01 -1.1063520434482939e+00 8.2395658115488004e+00 8.1771794420246458e-01 -2.0400946566342704e-01 -4.7230708155558823e+00 7.3680386581420931e+00 -4.4565901865251362e+01 4.1944748792364157e+02 -8.2944840790975216e-01 1.3889750686212210e+00 -5.5858340884020432e+00 -1.4015623633452273e-01 -2.4533456588996794e-01 1.2797985936906879e+00 -1.7283780733577099e+00 -1.6960866884310235e+00 9.6375034685195549e-01 -6.3103544898617647e+00 -4.7970713453249175e+01 3.4586958848728585e+02 -6.0369711245205151e+00 -5.7826250622729933e+00 1.7714954397233669e+01 2.3427853938846965e+00 -8.7132843646109692e-01 2.8124603827018291e-01 -1.1898344370067360e-01 -7.6168768812936261e-01 -1.7972835353699843e+00 -4.4318093639051996e+00 8.9728034722773309e+00 5.0809304869123298e+02 3.5941142545869189e+00 -1.2087296970163637e+00 -8.8153636957647876e+00 -1.5151133041731133e+00 1.2523870890724134e+00 -1.3468497977584888e+00 -1.0494612776110444e+00 -1.9743533211294562e+00 1.7807859558349659e-01 1.8387179764528394e-01 3.6222158618154936e+01 3.9250494048222514e+01 -1.1504547107615561e+01 4.5063855179961925e+00 9.5383791533247688e+00 -1.3823400160344930e+01 3.1856641708093649e+00 9.5114979397476027e+00 -1.0635643803660031e+00 2.3746479748645086e+00 4.3099996892658172e+00 4.3771125016469110e+00 9.2219767115473772e+01 -3.2589470017381163e+03 -9.0484148308457399e+00 -5.3130771268801968e-01 -6.3037443225444587e+00 -5.2464567934277828e-01 8.4062883988072801e-01 -1.1096308912205715e+00 8.2620050509006271e-01 -2.1728582620542100e-02 -8.7224460041431429e-01 3.2200743273418602e+00 -9.4378912102222934e-01 1.2101125497112555e+04 2.8503497177364414e+00 -8.9116065161552527e+00 1.2098885249811370e+04 
      </Row>
      <Row Index="22">
        1.3428846390631577e-01 7.3488928526654962e-01 -5.1173169555727327e-01 -1.2616531559275472e+00 5.1466469868026721e-01 3.2655063605392343e-01 4.7989358714416142e-01 -1.1674482121153460e+00 -9.8334925825203201e-02 2.6423731656194605e-01 -4.9080082251546173e+00 -2.2385198903625305e+00 -2.1073111671759759e-01 6.0396481964361715e-01 -2.4938383946931575e-01 -4.1541496255669874e-01 5.4297905088800502e-01 9.0843211977056759e-01 1.1761330391949723e+00 -9.8380134517641515e-01 3.4640989405390306e+00 -4.2354552373849401e+00 1.0070340348631879e+01 5.2520259820618156e+00 -1.7209267917000765e-01 -3.6727146357812851e-01 -3.7494106197151472e-01 9.3535100328761012e-01 4.3555148548561018e-01 -1.1810367311654493e-01 -9.6411724684348332e-02 -6.2466499990539037e-01 -7.8092017884317855e-01 -1.8770434395241082e+00 2.1084927441955212e+00 7.5680799799307674e-01 -1.1958922676996886e-02 2.5986324301742131e-01 3.9434401546048642e-01 -8.4443039032529033e-01 -1.8345351039072977e-01 -2.7600037913975745e-01 1.6222211497692163e-01 -1.7186246816361786e-01 1.0329123049505142e+00 1.2038667825386931e+00 1.7739383293366313e+00 -1.6629235253457182e+00 -1.8069153906703458e-01 1.4359545284496833e-01 -2.5246389703071748e-02 -4.0197707895155288e-01 3.6218967176538847e-01 -3.7423295754636143e-01 -2.1915698088000607e-01 -1.1356487909091873e-02 5.0486123105444296e+00 -9.8060539297373595e+00 2.8678588122034427e+00 1.1647073280507041e+00 2.2554352557676793e-02 -3.6552209791693713e-02 2.3704134388528070e-01 5.2018591908108647e-02 -8.8129754264183724e-01 8.9309269432752636e-02 -3.0786002234011683e-01 2.3560154472170344e-01 -2.5523196419197172e+00 -3.9597145364952766e+00 -2.3112794864057884e+00 -2.9618056826184374e+00 -1.3081412227878397e-01 -1.4276443623948909e-01 -1.0127998132833965e-01 2.6006739549115565e-01 5.0664592480780968e-01 4.7211958810898125e-01 -2.8625372087749779e-01 -1.1976535783689563e-01 -1.1858367882523453e+00 -3.9582008697672499e-01 3.3923141599169915e+00 -1.9638655954682995e+00 3.2101790035169769e-01 9.8006410595696258e-03 8.8420308661112640e-02 5.0581976996125155e-01 2.0213274042431237e-01 -4.1723954067400126e-01 -6.6710970327582964e-01 6.2077810313128579e-01 -8.0175243746469320e+00 8.6696684292042470e+00 -4.5416267913851138e+00 -9.9849243729357493e+00 4.7657104841347581e-02 6.3046284900941940e-02 -4.0886086853775772e-01 1.2328252487298614e-02 -3.2605117603433864e-01 -1.4799615519008266e-01 1.2914492812859943e-01 -1.4308758114542272e-01 -7.4699865067042681e-02 -4.7438547124923957e+01 -7.7028949693717430e-01 1.8076429073532736e+01 -6.4699606747293672e+01 
      </Row>
      <Row Index="23">
        1.1868632214686841e+00 3.3560651619956090e+00 -1.5906896519509246e+00 -2.2011621415658738e+00 -2.9281909590480382e-01 1.6638546175878446e+00 -3.9464401338873358e+00 -7.5340305100780824e-01 -6.5730481112257548e+00 -1.7649600246563750e+01 -3.5548064230088130e+00 -8.1513315449745875e+01 6.6240879041787908e+00 1.0029947891946016e+00 2.8693349148490999e-01 -8.8319623709181538e-01 6.6646845307067748e-01 -1.0074677850485485e+00 5.3062563449934173e+00 5.3503087733565016e+00 1.3937859411835575e+01 -1.2290194425222580e+01 5.2520259786524059e+00 1.8431071061448466e+02 2.5587483012262591e+00 9.7420388603499486e-01 -7.6138625417714378e-01 1.7430543035777446e-01 -1.9805282814481573e-02 9.7572409212597533e-01 4.7852720632089571e+00 2.8788203013611309e+00 3.2936561129382262e+00 -5.4377766388404645e+00 1.8048115360983059e+00 4.1513323533095630e+01 1.4825989305092888e+00 1.2758625633444316e+00 7.3818164158163979e-01 -3.9057690411835098e+00 2.9863946627880239e-01 -6.7100092134159883e-01 7.9267308744643410e+00 9.5444069378310059e-01 5.8281014789536130e+00 -1.6117710661346791e+01 2.9175860357516052e+00 -9.8369897554923227e+01 -1.0726795864353635e+00 3.6427646130624121e+00 -1.1673088608916771e-01 -9.7523436060384086e+00 1.7487821359463140e-01 -1.6783085669654838e+00 -3.9056202719872459e+00 7.3026316204395925e-01 2.4761564609654897e+01 7.2601934837675408e+00 1.3693109639104137e+00 8.0540096909905827e+01 4.1121944847745908e+00 -4.8934312543678971e-01 -2.4602343738417887e-01 -2.2272795886237873e+00 -7.1849357168274530e-01 1.9991678562405637e+00 -3.5430906387052707e+00 -6.9275337959446714e-01 -2.2739763121902956e+00 1.3156016445494743e+00 1.3191395556844182e-01 -1.4654628349866076e+02 -4.9738256351132615e-01 4.4698884614869572e-01 -3.0435661733942992e-01 -2.0745987942759773e-02 -1.9511046183311009e-01 4.6899756273173807e+00 2.6813496859498920e-01 9.9492929738924651e-03 -5.4468045200192137e+00 -8.1844767159863352e+00 4.7894125206691323e+00 -5.6170135918198909e+01 -3.7469640908063737e+00 -1.1264770742702370e+00 -2.7983765660955862e-01 5.4253022319651327e+00 7.1481780482395674e-02 1.9981872745051790e+00 -6.5110965014904787e+00 -5.6137413781728878e+00 -3.3873126073227816e+01 5.9924790434717409e+01 -1.8780108069386716e+00 -4.9577269451534801e+02 -1.0510055206239635e+00 9.9091226443490588e-01 -1.1181392552599581e+00 4.4228302894357513e-01 -1.8987257905363567e-01 -1.2269721048072855e+00 2.1980400482038913e+00 3.0137520830237330e-01 -3.0393751649355671e-01 -1.8508437754044837e+02 -1.1782538460362288e+00 9.0633033395944415e+02 -1.0851085628381020e+03 
      </Row>
      <Row Index="24">
        4.3697870777395309e-01 -7.4211103694392322e-02 9.3683660303454985e-02 5.0644283922332534e-01 -1.1376877664126361e-01 -4.4206395071645588e-02 -1.1900751280501964e-01 3.3907766563015684e-01 4.4390360397038220e-01 -2.0992328323127651e+00 9.7670438106376878e-02 -1.3875490570359226e+00 1.0098379731973584e+00 6.3499889198073423e-02 3.9685900053130919e-02 8.2744585880022203e-02 4.3646693908499623e-02 2.9869293175645012e-01 1.0726375015734962e-01 5.9475261986482697e-01 6.6352551644521984e-01 -3.4741006341029106e+00 -1.7209267917267390e-01 2.5587483030698417e+00 2.6337962045121177e+00 -1.2098305455840377e-01 2.0920655270699792e-02 -3.1672915104935978e-01 7.2544146922137009e-02 -7.5770214399585201e-02 -1.8481423697965291e-01 1.0485641921376598e-01 2.7382406445973992e+00 -1.1536116803444632e+00 6.4260367897519544e-02 1.0208770711150428e+00 6.2252197444547419e-01 -3.3168182343136038e-02 -1.9263660584464445e-01 2.5311025284404520e-01 7.4744302429099241e-02 8.3327335620351550e-02 6.6018113674580026e-01 1.5648026163014048e-01 6.8208222092471260e-01 -2.0911478537627772e+00 -1.3070051079483966e-01 -1.3931844876607897e+00 -1.8034796501948469e-01 -8.3120931503147144e-02 -6.4042243492083567e-03 3.7667167626618925e-01 -2.5085466073499063e-01 1.1141007345791820e-01 -3.7096587570678913e-01 -1.2725824842713762e-01 -1.9916314201430119e-01 -6.6502061121032163e-01 -6.5111456986573057e-02 1.0635161931674963e+00 1.4925349126175860e+00 9.5766894244036394e-02 -1.0070940560986266e-01 4.9369829626959927e-01 1.5206323966384830e-01 -1.2350152287340316e-01 1.9129210849916706e-01 6.8730768372695650e-02 -5.7630495443321950e-01 -5.8244098759196561e-01 7.7162774759633013e-02 -1.5123641714241862e+00 -9.3271120131251628e-01 -2.2343792903220416e-02 5.2221302502683170e-02 -1.0274917564471853e-01 -4.0171245792990362e-01 -1.9685064553482334e-01 2.5009617235063586e-01 -1.1983542253088508e-02 1.0891811125243294e+00 -1.0299229477548248e+00 -1.0024087618519401e-01 -8.7865333231175391e-01 -1.5413276065595478e+00 2.6266202183305221e-02 1.0524689866720295e-01 -4.9600273347007034e-01 -3.7495962008632289e-01 -1.7433939495490863e-01 -2.7986738707121428e-03 -3.4335825589988184e-01 -1.8284271325390633e+00 5.4685292289055134e+00 -8.4327263092365351e-02 -6.1570712856503818e+00 -2.4772324943502066e-01 4.1706750454888128e-03 1.5993605294335750e-01 -5.6984434047528384e-02 1.6460364137767328e-01 8.1889351693539655e-02 1.0942415722012888e-01 3.3405061383098289e-02 -1.8700241610718107e-02 -2.5629172202726888e+01 1.2526496094725587e-02 1.1197902886796104e+01 -3.6847338373275697e+01 
      </Row>
      <Row Index="25">
        1.3080118094361382e-01 5.3183913383021364e-01 2.1137799142522340e-02 3.0769170784909079e+00 -1.1817928175019077e-01 -1.1734723763779087e-01 2.5708275386492119e-02 8.3879793979497208e-01 -2.5096559111179402e+00 3.0889183801024558e+00 9.2880813889564706e-02 -8.2646673343570676e-01 2.7932614757780516e-01 1.9763733715837217e-01 -3.1230689154255135e-02 1.1096069433489630e+00 3.7553437436151388e-02 -4.6741628784111977e-02 2.7110883183269580e-01 6.2616756219266045e-01 6.3094940428369917e-01 1.0303054744253927e+01 -3.6727146367620572e-01 9.7420388227010224e-01 -1.2098305461446013e-01 2.6957853426474183e+00 -6.2016432436513280e-02 -1.0390408856077709e+00 -1.1029193467794643e-01 2.7815133589440294e-02 -6.2279177098064256e-02 1.3969016929171812e-01 9.8315293031365503e-01 7.1700625651015280e+00 6.0817700851077816e-01 -9.2857479451415648e-02 2.1573131548439523e-01 3.8078170920834764e-01 4.7431572605644054e-02 2.7925846019553582e+00 6.9942187117388172e-02 7.2711694430518919e-02 1.4920123754987691e-02 5.5898863968132118e-01 -1.6692530186778640e+00 2.7592395249839683e+00 -1.7744885675122113e-02 -1.1994848466385974e+00 -2.7767615540796875e-02 2.9807851932125262e-01 -4.8320045589564792e-03 2.0436551763256823e+00 -8.7045928854209365e-02 -3.6404715365947027e-02 9.0659500568520762e-02 -4.1524232679644013e-01 -3.2474067663737749e+00 3.9342162639667855e+00 -2.8498029056867641e-01 -9.6590583901519811e-02 5.1507498070583324e-01 2.8391002540629984e-01 1.2248171965410483e-02 9.7354921516523518e-01 7.3022442600290935e-02 -9.3200187054126304e-02 -1.1277565280305814e-01 -7.2600785699974524e-02 2.2948350440804770e+00 2.4844199401596541e+00 5.7668583751100760e-02 -1.0456260707134339e+00 -1.4798990130876177e-01 -1.8888258085017359e-01 -1.6349272281055795e-02 -5.5546783356054252e-01 -1.2702318823561143e-01 -1.6856228792624961e-01 -1.2865661450093455e-01 1.0753717659401746e-01 4.4751318776807238e+00 5.5287622353409560e-01 -4.7216314073257448e-01 -4.3524668908577591e-02 2.7125518773198859e-01 -1.9346594730479147e+00 7.1782811217349266e-02 -3.1403414993338719e+00 -6.7879488169291152e-02 -1.0348044573736712e-02 -7.0833236654370232e-02 -4.1920543165990809e-04 3.5809638706821034e+00 -4.6319157464159026e+00 -3.9556687644563554e-01 -1.2022872381957899e+00 -1.3750468930377963e-01 1.7033275113746826e-01 -4.0865730204559650e-02 -3.8318288083202823e-01 3.8381305410369271e-02 2.4721616222976375e-02 4.2567276523584885e-03 1.4278619325409397e-01 -1.9212364131118692e-01 4.5958895867871561e+01 5.6232748147051509e-02 3.8884362736182432e+00 4.1942699444172383e+01 
      </Row>
      <Row Index="26">
        -1.6538264581513751e-02 2.3479645652438173e-02 9.2381107391052097e-01 -5.0036166206120924e-01 -1.0042390153545888e-01 -3.3205025174960490e-03 -3.1105396828233545e-02 2.2344239771416952e-01 5.9073753745021351e-01 -2.7306939048812851e-01 3.1807536130628122e-01 6.9559305117286063e-01 9.8192147755690420e-02 1.1364862257603370e-01 -1.6308753818121691e-02 -1.0681969176220818e-01 -1.0687093557706806e-02 3.6416008426652580e-01 -5.6093068073502859e-02 -8.6775071366332501e-02 -5.2212826971460125e-01 1.0040461402296117e+00 -3.7494106195731086e-01 -7.6138625378596203e-01 2.0920655278700850e-02 -6.2016432440767488e-02 1.2309542793660713e+00 1.3878864142815897e-01 -7.6885167960469802e-01 -1.7103164395145953e-01 1.2379267871760997e-01 5.3482882776278995e-02 9.0399616411763350e-01 1.2543817423829751e+00 -2.2619539640031644e-01 -2.0889549368594829e-01 1.5348681806025188e-01 -1.5403582243991201e-01 -8.1666827440765200e-01 -1.2908795894864133e-01 6.3463318147439454e-02 4.4871863509426943e-02 2.4375158192043805e-01 -1.9372157469655299e-01 7.6444038805630043e-01 1.2555160556325973e-01 -4.9899167943344147e-02 -2.2987176427745482e-01 -1.6489820490868126e-02 1.9649794536661352e-02 1.7912973275569577e-01 -2.0899265907350684e-01 -3.5198468969650643e-01 1.7176935639266810e-01 -2.6446421784599056e-01 7.2329781965423473e-02 -8.2331127636271972e-01 -9.0047051897563790e-02 -8.5012794242960044e-02 -2.9188305065578052e-01 9.9196187769594601e-02 -4.6482946259462921e-02 -3.5654887570606358e-01 2.1762888920616774e-01 3.9586151014774529e-01 -3.2947192809934300e-01 1.0613902669427737e-02 -1.4357431074067939e-01 5.3937260169423151e-01 2.2454342036716142e+00 1.3543999600917411e-01 1.1748403062967402e-01 -5.2681652913461718e-02 -6.2544318563453410e-02 2.1691449086746947e-01 -5.8144517257822381e-03 -2.6155912141287030e-01 -3.6029673655132388e-01 2.6786333597721390e-01 1.4383298595421090e-01 3.1284536284431397e-02 3.5650494917852882e-02 6.6601944434922955e-02 5.9977901001328382e-01 8.2494373331521098e-02 -5.4443589056839867e-02 -1.5602009461007688e-01 2.5200190025458835e-01 -4.1152661303854948e-02 -2.3399567722419934e-01 -1.2916218071783131e-01 -7.7320475973527633e-02 1.7351740512762226e-02 3.7538934776470381e+00 2.1533557662263397e-01 5.0730252650941843e-01 -2.3901325839389094e-02 -2.0962419497468958e-02 6.0384650303839671e-01 8.6868420573104899e-03 2.4150087958769623e-01 1.3503799193768729e-01 6.3333039631014609e-02 -1.3119083024202845e-02 5.2942232274112849e-03 -5.0724223414007259e+00 3.1751079726755255e-02 -1.2668691910428209e+00 -3.9947441853136314e+00 
      </Row>
      <Row Index="27">
        -3.2034862915971019e-01 -3.4378790825465431e+00 9.5502854382289115e-02 -2.9557047833360116e+01 -4.8775256088909202e-02 -1.6233624021938908e-01 -6.3321220544871437e-01 -3.1980213154497505e-01 1.1163902478444440e+01 -3.5151390989810807e+00 2.6504778959827036e-01 1.8740494060703590e+00 -7.5650782882825673e-02 9.1828103485813717e-04 3.3748695815919710e-01 -1.1528405561328665e+01 2.5052994626817399e-01 6.4537606810156167e-01 -6.5362796885543206e-01 -8.1074964784385095e-01 -1.6152747987124851e+01 -3.6405420268613398e+00 9.3535100345419919e-01 1.7430543756346506e-01 -3.1672915095294440e-01 -1.0390408855851945e+00 1.3878864141784675e-01 3.5374975869857366e+01 -3.6925130259914946e-01 -2.2306820617098844e-01 -1.1578837592912457e+00 -3.2357549646982275e-01 -7.3045002268868267e+00 -1.0126452823131267e+01 -3.1495260668983754e-01 2.9908761389253140e+00 -4.8119469183804114e-01 -2.2802852351909566e+00 3.2000245282459788e-02 -2.6323308689738326e+01 1.5376748303340249e-01 1.2114940001992874e-01 -1.0598392194013517e-01 -2.7656942958641051e-01 1.4491464705945873e+01 -3.6244149752037629e+00 3.4437960617670232e-01 3.6895079839989648e+00 -2.4091273312900807e-01 -1.3683928068051894e+00 3.6948994454502698e-01 -1.9398177457813308e+01 -1.4884783316844619e-02 -1.0587450189046166e-01 -1.4437976975971389e-01 -1.6048969820206394e-01 3.3731942742751599e+01 7.1621469394007882e+00 1.7985463482433941e+00 6.8067076830263895e+00 -4.6916776579996622e-01 -1.4325612325653765e+00 -7.0695173258272015e-02 -1.1644138007348374e+01 -1.4207927750943367e-01 4.3603763898396847e-01 2.3892396261638349e-01 2.7313777824396240e-01 -2.9846439687046729e+01 -8.9761733374486496e+00 3.9831915507860216e-01 1.1067750565798806e+00 -5.3177487605182705e-03 -2.2355182894310057e+00 1.0956020952612540e-01 -2.9298532851833823e+00 -2.9126216155646034e-02 3.3600208772341489e-01 5.3996535674676815e-01 -2.3509024488902623e-02 -4.3904325514493394e+01 3.0270579088773486e+00 1.0168286281545145e+00 -3.8606511629160640e+00 -1.8528673229438558e-01 6.9999843712981891e-01 -1.3093286509180807e-01 9.6652638069386860e+00 2.0305033103716374e-01 2.1421024384992521e-02 9.3631990678844035e-01 3.4035682878193391e-01 -3.9788842977073443e+01 2.8105330168625404e+01 5.7400455318409627e-01 2.8309710856425783e+00 8.0720753843428375e-02 -1.3061794024439868e+00 -1.1191845200986233e-01 3.9882347362154906e+00 -1.3522040828044030e-01 1.8185836656040633e-01 -7.6300302748332091e-02 -9.3336303569200987e-02 2.5869751559829268e+00 -8.5783483764102726e+01 -1.8966747032824188e-01 -2.2888412748321718e+00 -8.2881399311035310e+01 
      </Row>
      <Row Index="28">
        -6.9027336547598850e-02 8.2551036081896123e-02 -6.8820273472087479e-01 3.3901635677918307e-01 9.4996587646792019e-01 3.0941057034437058e-02 2.5033476390579068e-02 -5.2393099433049883e-01 1.0429684227722607e+00 1.1124920322654930e+00 -7.5308349951444598e-01 7.7984668788880107e-02 -7.9090804555281002e-02 -1.6180549117482823e-01 -8.6433684672163058e-03 -4.0905086935825175e-02 -1.9823806938866606e-01 -1.1645516547324652e-02 -1.3721169993166954e-01 -3.2856602329493434e-01 -6.2707745263611159e-01 -1.1112415469148118e+00 4.3555148544764977e-01 -1.9805284373673404e-02 7.2544146900213713e-02 -1.1029193468068144e-01 -7.6885167960268852e-01 -3.6925130260354422e-01 2.7122594354038059e+00 1.0750867360188737e-01 -2.6071850709580591e-01 -5.2822960955824649e-01 4.0087958168001769e-01 -1.0524160160742237e+00 3.6150272341572731e-01 -4.5723308018594749e-01 -1.5572746261375370e-01 9.4131640317725168e-02 6.8380664952193815e-01 2.1287578528218404e-01 -4.2794069195431983e-01 4.4167042498546027e-03 -1.2440586032479334e-01 -1.2653210914921995e-01 9.9958108113514754e-01 9.6983680359198843e-01 1.8264686984976269e-01 1.6411663217346018e-01 -9.8002171706000243e-02 8.4651648480077682e-02 5.3572963750245339e-02 2.1061771606356472e-01 1.7029473560753665e+00 1.6741060193863255e-01 2.1136494041037679e-01 2.0228609268957443e-01 2.1903462865039387e+00 2.2379969037590985e-01 2.0438432326539657e-01 2.3912822933003475e-01 -8.3880045076632825e-02 3.3503084074652634e-02 3.7286905307616011e-02 6.7104452874218623e-02 -2.2139801498820884e+00 -1.3737641456838015e-01 -4.7365507065129958e-02 -4.5616984431219032e-02 4.0383082995180786e-02 8.7457783392484068e-01 6.1115987558591586e-02 -8.8411998856459062e-02 -1.8766736497548209e-01 1.4161887476415566e-01 -2.8248924568858635e-02 6.7935527306053345e-03 1.7011973609292408e+00 -5.2639369764339250e-02 1.3419329261572707e-01 5.9122236079660245e-02 -1.0416231642966522e-01 1.0831593424503971e+00 1.2022624737777740e-01 4.6986925050348027e-01 -3.7221094424124787e-02 1.8445123791526349e-01 2.5769821319762820e-01 7.7997957278346242e-03 1.1327759369972574e+00 6.8705559336741384e-03 2.8713602168982644e-01 4.2063911513388935e-01 -1.8122129901077071e+00 -6.4387118197807531e+00 -1.7789954883501713e-01 -3.0399423519011759e-01 6.5392972206304606e-02 2.2840281833519827e-02 -7.6729215077202673e-01 -1.3770006746729319e-04 -8.7479677704618386e-01 6.0253453808220739e-02 -3.6642064217072591e-02 -6.4263991898105916e-02 1.1073363645477144e-01 1.8260186915928557e+01 -1.2376148801465320e-01 6.2018576711071505e-01 1.7663922329902746e+01 
      </Row>
      <Row Index="29">
        8.6825371752468072e-03 5.6485886142099151e-02 1.0948136510270956e-01 2.1055416298025875e-01 -2.2832087359724085e-02 2.5118518519194666e-01 -1.5794556651513858e-03 2.1616480829396778e-01 -2.4143298227747527e+00 -1.6749254946087717e+00 1.4198759694909313e-01 -3.9694729440911658e-01 -5.1610527130834555e-02 -8.3069304858923249e-02 1.6393328775335791e-02 7.8272343347230988e-02 8.2792437450610722e-03 -4.8316190316535623e-01 1.1511794147404836e-01 2.0677169253167921e-01 2.1641133219522661e+00 -5.7684140639255475e+00 -1.1810367304202940e-01 9.7572409639602942e-01 -7.5770214355820875e-02 2.7815133629843558e-02 -1.7103164396053927e-01 -2.2306820622269186e-01 1.0750867361552945e-01 1.3121104630457314e+00 4.7991319288529011e-01 -2.4901037518946345e-01 4.0385494527214982e-01 -6.2004977854556556e+00 4.6124540970022898e-01 2.2373956174018550e-01 -7.3432662967908013e-02 -2.1831537023629027e-02 -2.0375164661532080e-02 5.7785793004735964e-01 -5.0679244090531483e-02 -1.4982906395623252e-01 -8.1843962736825066e-02 1.5184198590211193e-01 -1.6254012610852442e+00 -1.7147938650814467e+00 -2.4319567351252652e-02 -4.3093279983634147e-01 3.6609693836066937e-02 2.9189107298225186e-02 9.2621571061779484e-03 1.8893650607995149e-01 3.9124064629028510e-02 -2.0746577478313810e-01 5.9310632629464746e-02 4.6640075033773869e-02 -3.0080841948930210e+00 1.9873760574202857e+00 -1.6736036977327395e-02 6.8814891094897623e-01 -1.7256705424981078e-01 -2.1553678745988236e-02 -3.3343914172485611e-02 3.5025428078256482e-01 4.7121095655241529e-02 4.4006627666522480e-01 -4.1114863897637063e-02 -5.2173456933477469e-02 1.3836079847249791e+00 -3.8029837775189250e+00 -4.1945422027520288e-02 -7.0197054830839045e-01 1.2061654033900027e-01 1.3493948750945331e-01 6.3665017064044094e-02 5.6332730098597406e-02 2.2282145766030936e-02 4.2636235877733952e-01 -1.3472353855493047e-01 1.7150413225391148e-01 1.8944969349286112e+00 6.5997261521644823e-01 -2.5450695569684195e-01 -1.9643358044362241e-01 -4.4038841999714667e-02 -2.9139065315883700e-02 1.3403745826307839e-01 -4.0235011778892116e-01 -1.2979105095647475e-01 -4.3405156109335419e-01 -3.6706664625479513e-01 1.8647339932757931e-01 2.3028142073700906e+00 1.5604088406328589e+01 -1.7160735155050161e-01 -2.4748950301806176e+00 4.0082255469201286e-02 1.6448296010053681e-02 5.7793832892995028e-02 -1.9803835938286364e-02 2.0600629563239978e-02 -1.3708619826669627e-01 -1.5715209138871710e-02 2.6563756003727651e-02 -1.4959571361989482e-01 -5.3405244635421248e+01 4.4144526464164197e-02 4.5785994707549005e+00 -5.7976821259079031e+01 
      </Row>
      <Row Index="30">
        5.0975290791399175e-02 -1.9024261498290507e-04 1.7151038057710366e-01 -3.7996011426957921e-01 -9.5197048999168032e-02 6.0292651249906015e-02 -3.7632716714168168e-01 2.7148669305893236e-01 1.3962115074735884e+00 -2.1834569925423466e+00 2.5841083182507418e-01 -1.9091691863741680e+00 3.2619964114102529e-01 2.9320789340166109e-01 2.0425595008954078e-02 -5.9839968073170269e-01 7.8251958905045105e-02 -2.4024104631151691e-02 2.5194738311736442e-01 3.2365297149527084e-01 2.2890246535615972e+00 -6.1778207776851559e+00 -9.6411724646862762e-02 4.7852720683865515e+00 -1.8481423695503474e-01 -6.2279176990671203e-02 1.2379267870061028e-01 -1.1578837594658893e+00 -2.6071850705511546e-01 4.7991319281916844e-01 3.7172016755485657e+00 -1.2108986727844935e+00 1.5172015837875641e-02 -5.0227191816200314e+00 7.9368733538092107e-01 -5.9903701868758652e-01 2.6196869804482847e-01 6.5269242116289372e-02 -1.7754864199525286e-01 -8.4640307769263678e-02 -2.5920001949970128e-02 9.7716359777276218e-02 1.3050475780325466e+00 1.9853425974596056e-01 1.9127351471361180e+00 -2.1230045605170744e+00 1.0873809694903275e-01 -3.1390072119377237e+00 -6.1083918102368351e-02 -3.7919694549857309e-02 4.5410445222637819e-04 1.6503607916943075e-01 -7.6286317047667751e-02 -9.6819970536046185e-03 -8.5443398690981942e-01 4.8347718304536394e-02 3.4016822024362128e+00 -2.3011863638302898e-01 2.3508882742312498e-01 2.8579259025808841e+00 2.7874110859221446e-01 -1.2660866282647021e-01 -6.3275902551476942e-02 1.9704248951279624e-01 8.3907267823920550e-02 1.0719679093796414e-01 -1.0518883082835817e-01 -8.2299940818130468e-02 -1.5925298915741344e+00 -2.2103971388578252e+00 1.1268976551223664e-01 -4.1716143677818387e+00 8.3935746187393079e-02 -1.8985020322503154e-02 2.3221340984380534e-01 1.4072929186975736e-01 4.5900995353775897e-03 -1.2799395675773440e-01 -2.7052218095507252e-01 3.9966216083090628e-01 -2.3507906120148618e+00 -7.4691022843922639e-01 -1.6649397982156594e-01 -1.2498956773794614e+00 1.4692593955085753e-01 -1.2964883708192493e-01 2.1241735582398280e-02 1.4908810373001138e+00 -1.2085463787862252e-02 -2.7763564837956206e-01 -2.8973008739736854e+00 8.8852224485599640e-01 -6.2050997128416689e+00 2.0865694007276424e+01 -4.8856334672473534e-01 -6.9872430812538777e+00 -4.8171230775921718e-02 1.4537421491199055e-02 1.4955859386010861e-01 3.6772608670800511e-02 7.6289185393067616e-02 -2.2499824243347510e-02 2.3441532770401935e-01 2.1996502275176726e-02 7.0754061966552817e-02 -6.8319315318300852e+01 -3.7271138432252326e-02 2.0040163863855131e+01 -8.8196272785555209e+01 
      </Row>
      <Row Index="31">
        1.7201278570384204e-01 -8.5824539131311284e-01 7.5391389830002709e-02 -6.6165555751899774e-01 -1.0236752900128110e-01 1.4156060100379086e-01 3.4356720427916798e-01 5.1546392558055345e+00 4.2346968730190704e-01 2.5020105824651182e+00 8.0895229750777276e-01 -1.6796028433808559e+00 7.1124909355988009e-01 4.4787617529335888e-01 1.0110657781647781e-01 -2.2251330299110267e-01 3.4653587824211068e-01 4.8411345799508554e-01 5.8344847519991305e-01 3.4020632513677156e+00 -3.5112430314220848e+00 8.5306505194943156e+00 -6.2466500008334069e-01 2.8788202957006650e+00 1.0485641911288524e-01 1.3969016932584566e-01 5.3482882779249508e-02 -3.2357549656902052e-01 -5.2822960953981091e-01 -2.4901037528897518e-01 -1.2108986729927262e+00 6.3629659914727910e+00 7.0219097024779464e-01 8.2905827145675701e+00 -6.5575708201565996e-01 1.0631359336796347e+00 1.7555899134345054e-01 -7.2134167859796572e-01 8.7216339233773255e-03 -3.2071454673127242e-01 7.8861938163839795e-02 2.1340666411407580e-01 -6.2019890544822320e-01 3.3776561488419601e+00 -2.2816014734362398e+00 2.3825986285646650e+00 -1.5320377287085005e-02 -1.4471244949676816e+00 -1.2889838983404589e-01 -7.7436967447413774e-01 -6.0323473305716052e-02 -9.6304285662912514e-01 -1.1833162608474268e-01 4.6703080071239356e-02 3.5513012310795528e-01 -8.4557045479131254e-01 5.3082984292480972e-01 7.0019054831785450e+00 -5.6244767216853375e-01 1.4919412642075507e+00 6.6750031049647873e-01 -5.1818600726653585e-01 -7.7305562654784707e-02 -6.3093065878160814e-01 -4.0558001995871562e-02 -3.1742367618405631e-01 -2.2298448020842654e-01 -6.5168807585762800e-01 1.8089432983050191e+00 6.9659029562065555e+00 1.7694053857799152e-01 -2.2862178119430419e+00 -2.0758250603597617e-01 -3.2531610946968770e-01 -6.2444514756193163e-02 1.5221643494251835e-01 -3.2393508304398466e-02 -2.2738936091074891e-01 8.5303056295300675e-02 -4.4406098799193078e-01 7.0669897605239385e-01 1.0148131350383949e-01 -3.0642623290114890e-01 -9.9090468228841977e-01 -6.9001033501116193e-02 -3.1388595661160562e-01 -8.2430713671295952e-02 9.1333126793825148e-01 1.8809565355379587e-02 -1.6808022392368116e-01 6.8740642538530716e-01 -2.9909390357515808e+00 4.3979533299752589e+00 -9.0038407544068306e+00 3.8884240390954650e-01 -8.8985731924031022e+00 -2.1860857656704569e-01 -2.5173632284769815e-01 3.3637700666357392e-02 4.9713222705034026e-02 1.0109696981950858e-01 1.1868048436782454e-01 -1.3296021492511773e-01 7.4383510131985831e-01 1.5772018972756019e-01 6.6757400328426456e+01 1.7952687667738143e-01 1.5408883035244260e+01 5.0734688916129159e+01 
      </Row>
      <Row Index="32">
        8.7009335953621303e-01 -5.3245739453448770e-01 -1.5210893936364300e-01 -9.7897142500232803e+00 -7.5419236345720719e-01 -1.7401580069895317e-01 -7.9087271950174909e-01 9.8105886399616793e-01 2.6896417172409524e+01 -9.7175626643575015e+00 -4.2730181245133281e-02 2.0769012408686081e+00 6.8888538252684794e-01 -1.4909811652836216e+00 -4.2815262413330546e-01 -5.6314242680589039e+00 1.5694365975836155e-01 1.0310110814159257e+00 5.0823270672818510e-01 -7.1413600928680721e-01 1.1188372241870667e+01 -4.0817608526026561e+01 -7.8092017807148317e-01 3.2936561533547319e+00 2.7382406450480756e+00 9.8315293062228193e-01 9.0399616403948357e-01 -7.3045002272345982e+00 4.0087958177914884e-01 4.0385494535598809e-01 1.5172016566303181e-02 7.0219097107667561e-01 2.2326356277193204e+02 -6.1207712741366763e+01 -3.6066024647075210e+00 -1.2222377638622181e+01 2.1263402007753029e-01 -3.9332420091347964e-02 5.0323997129831932e-01 -7.8929318706811351e+00 2.1984684225793671e-01 5.0927851086671749e-02 4.2066607907292592e+00 -1.8400746994370332e+00 1.7907851117677637e+01 -4.9383663955668453e+00 -1.3834876013024204e+00 6.8398190630068711e-01 1.5547774816245097e-01 -7.7358711989876794e-01 -4.7656297593940655e-01 -4.0865693588065390e+00 -9.8224132920245211e-01 2.9034384670052305e-01 -8.1570930283810050e-01 -7.1074184354803427e-01 3.9277810908525382e+01 3.7615017671766964e+01 3.7840816988424226e+00 1.1469418676986763e+01 -7.3667737112486975e-01 8.6747555102920160e-01 5.8993317483719321e-01 -9.1350311561600392e+00 1.0864553708751723e+00 -1.4316805126858112e-01 8.6451657550924099e-01 -8.0369032661282447e-01 -2.6261038839135239e+01 -2.9623034909549268e+01 -6.3029638196416415e-01 -4.4954943210518650e+00 4.9350669330056007e-01 -2.9112610531938621e-01 -2.3171399016799754e-01 2.9322696141486775e+00 -2.0129583605023527e-01 2.9357340463900528e-01 2.1165636321489720e+00 1.3317669996493753e-02 -7.5603893336105102e+01 1.3515995802124962e+01 -2.1701803442417078e-01 3.2063998245559953e+00 -2.7561052377715525e+00 1.8048392579944195e-01 -6.7142389407837610e-01 1.0730983098751462e+01 -1.9182274047408403e+00 -3.1792580549047500e-01 -1.0933990980306332e+00 -5.8727641082045756e-01 -2.1228991492660583e+02 1.8456676045336602e+02 4.2557818106785437e+00 -8.1463841176528913e+00 3.2218822269303693e-01 1.1504638260298750e-01 -1.9391314709981650e-02 2.5513133270703285e+00 1.7060975496799052e-01 1.4238763190219328e-02 3.0314350354620223e-01 5.0077428125110970e-02 2.8216314999247216e+00 -5.0484382608572986e+02 3.4595069555404576e-02 2.9612834579113581e+01 -5.3430665523023731e+02 
      </Row>
      <Row Index="33">
