<?xml version="1.0"?>
<MethodSetup Method="MLP::MLPBNN">
  <GeneralInfo>
    <Info name="TMVA Release" value="4.2.1 [262657]"/>
    <Info name="ROOT Release" value="6.12/06 [396294]"/>
    <Info name="Creator" value="nlane"/>
    <Info name="Date" value="Thu Feb 15 04:16:45 2024"/>
    <Info name="Host" value="Linux buildservice008.fnal.gov 3.10.0-693.17.1.el7.x86_64 #1 SMP Thu Jan 25 04:11:40 CST 2018 x86_64 x86_64 x86_64 GNU/Linux"/>
    <Info name="Dir" value="/uboone/app/users/nlane/NeutralKaonAnalysis/TMVA/AnalysisMVA"/>
    <Info name="Training events" value="694"/>
    <Info name="TrainingTime" value="4.95844841e-01"/>
    <Info name="AnalysisType" value="Classification"/>
  </GeneralInfo>
  <Options>
    <Option name="NCycles" modified="Yes">60</Option>
    <Option name="HiddenLayers" modified="Yes">N+5</Option>
    <Option name="NeuronType" modified="Yes">tanh</Option>
    <Option name="RandomSeed" modified="No">1</Option>
    <Option name="EstimatorType" modified="No">CE</Option>
    <Option name="NeuronInputType" modified="No">sum</Option>
    <Option name="V" modified="Yes">False</Option>
    <Option name="VerbosityLevel" modified="No">Default</Option>
    <Option name="VarTransform" modified="Yes">N</Option>
    <Option name="H" modified="Yes">True</Option>
    <Option name="CreateMVAPdfs" modified="No">False</Option>
    <Option name="IgnoreNegWeightsInTraining" modified="No">False</Option>
    <Option name="TrainingMethod" modified="Yes">BFGS</Option>
    <Option name="LearningRate" modified="No">2.000000e-02</Option>
    <Option name="DecayRate" modified="No">1.000000e-02</Option>
    <Option name="TestRate" modified="Yes">5</Option>
    <Option name="EpochMonitoring" modified="No">False</Option>
    <Option name="Sampling" modified="No">1.000000e+00</Option>
    <Option name="SamplingEpoch" modified="No">1.000000e+00</Option>
    <Option name="SamplingImportance" modified="No">1.000000e+00</Option>
    <Option name="SamplingTraining" modified="No">True</Option>
    <Option name="SamplingTesting" modified="No">False</Option>
    <Option name="ResetStep" modified="No">50</Option>
    <Option name="Tau" modified="No">3.000000e+00</Option>
    <Option name="BPMode" modified="No">sequential</Option>
    <Option name="BatchSize" modified="No">-1</Option>
    <Option name="ConvergenceImprove" modified="No">1.000000e-30</Option>
    <Option name="ConvergenceTests" modified="No">-1</Option>
    <Option name="UseRegulator" modified="Yes">True</Option>
    <Option name="UpdateLimit" modified="No">10000</Option>
    <Option name="CalculateErrors" modified="No">False</Option>
    <Option name="WeightRange" modified="No">1.000000e+00</Option>
  </Options>
  <Variables NVar="2">
    <Variable VarIndex="0" Expression="Gap" Label="Gap" Title="Gap" Unit="cm" Internal="Gap" Type=" " Min="2.55202758e-03" Max="6.99412415e+02"/>
    <Variable VarIndex="1" Expression="BDT_Score" Label="BDT_Score" Title="BDT Score" Unit=" " Internal="BDT_Score" Type="F" Min="-6.86542094e-01" Max="6.66935137e-03"/>
  </Variables>
  <Spectators NSpec="0"/>
  <Classes NClass="2">
    <Class Name="Background" Index="0"/>
    <Class Name="Signal" Index="1"/>
  </Classes>
  <Transformations NTransformations="1">
    <Transform Name="Normalize">
      <Selection>
        <Input NInputs="2">
          <Input Type="Variable" Label="Gap" Expression="Gap"/>
          <Input Type="Variable" Label="BDT_Score" Expression="BDT_Score"/>
        </Input>
        <Output NOutputs="2">
          <Output Type="Variable" Label="Gap" Expression="Gap"/>
          <Output Type="Variable" Label="BDT_Score" Expression="BDT_Score"/>
        </Output>
      </Selection>
      <Class ClassIndex="0">
        <Ranges>
          <Range Index="0" Min="2.5520275812596083e-03" Max="6.9941241455078125e+02"/>
          <Range Index="1" Min="-6.8061208724975586e-01" Max="6.6693513654172421e-03"/>
        </Ranges>
      </Class>
      <Class ClassIndex="1">
        <Ranges>
          <Range Index="0" Min="6.4442902803421021e-03" Max="5.6527984619140625e+02"/>
          <Range Index="1" Min="-6.8654209375381470e-01" Max="-4.1178103536367416e-02"/>
        </Ranges>
      </Class>
      <Class ClassIndex="2">
        <Ranges>
          <Range Index="0" Min="2.5520275812596083e-03" Max="6.9941241455078125e+02"/>
          <Range Index="1" Min="-6.8654209375381470e-01" Max="6.6693513654172421e-03"/>
        </Ranges>
      </Class>
    </Transform>
  </Transformations>
  <MVAPdfs/>
  <Weights>
    <Layout NLayers="3">
      <Layer Index="0" NNeurons="3">
        <Neuron NSynapses="7">
          -8.4109178682557428e-01 2.5321022382152485e+00 6.8766043482496131e-01 2.7344872999443104e+00 -2.0965212795418551e+00 -1.3298235689653459e+00 -1.0364636750691070e+00 
        </Neuron>
        <Neuron NSynapses="7">
          2.4100292110023593e+00 -1.3812567193542462e+00 -1.3741952706399765e+00 -6.9654371279733074e-01 -5.2169036211319753e-01 -2.1535430118406982e+00 -1.3179562844024999e+00 
        </Neuron>
        <Neuron NSynapses="7">
          -5.0825339785450230e-02 2.3860930745331077e-01 -5.0577163480997411e-01 1.3949232897132215e+00 4.0820215142178862e-01 1.5151207875161836e+00 -1.6377619821472782e+00 
        </Neuron>
      </Layer>
      <Layer Index="1" NNeurons="8">
        <Neuron NSynapses="1">
          -9.7091254662569249e-01 
        </Neuron>
        <Neuron NSynapses="1">
          1.0051302993502449e+00 
        </Neuron>
        <Neuron NSynapses="1">
          -6.7253816066399263e-01 
        </Neuron>
        <Neuron NSynapses="1">
          -9.8869683982119128e-01 
        </Neuron>
        <Neuron NSynapses="1">
          -3.9827174602809867e-01 
        </Neuron>
        <Neuron NSynapses="1">
          2.0503081192448382e+00 
        </Neuron>
        <Neuron NSynapses="1">
          -2.1541765548627563e+00 
        </Neuron>
        <Neuron NSynapses="1">
          -2.0880849640343784e+00 
        </Neuron>
      </Layer>
      <Layer Index="2" NNeurons="1">
        <Neuron NSynapses="0"/>
      </Layer>
    </Layout>
    <InverseHessian NElements="841" NRows="29" NCols="29">
      <Row Index="0">
        1.2702258860829353e+02 3.2998798402029031e+01 -7.0083165605215663e+02 3.1446254490754836e+02 -6.4188359615755815e+02 -3.3542871562396300e+01 -1.3699777862826335e+02 -2.2264171574203860e+02 -5.0484909956971883e+01 3.4283861769111093e+02 -3.5476284042462062e+01 1.6023394777959956e+02 2.0077935235328969e+01 -4.5462783128706576e+01 9.7883794629968719e+01 -1.8847465982825014e+01 2.5839928466279156e+02 2.2921115074892944e+02 -3.7327594127044570e+01 -6.4138339911063809e+01 -1.0196103920746972e+02 -3.6729419330377323e+02 -2.0694966044226553e+02 -7.9239625392088385e+02 2.8404748513156841e+02 2.4562675001052355e+01 -3.8914911277159327e+01 4.0719362638973485e+02 8.6708972257871409e+01 
      </Row>
      <Row Index="1">
        3.2998798420370349e+01 5.0446206681440517e+03 -5.9705561593975090e+03 -5.0621464386606880e+02 -1.1389632934739109e+03 3.0412930006156597e+02 -7.9456174281821768e+02 2.5263028478627982e+02 -1.7436807902292712e+03 -1.0536794066130033e+03 5.7285065712260291e+02 6.6184688731401766e+03 -6.0634856390793641e+02 1.0667380915562011e+02 1.3985561192871140e+02 8.8201720368461770e+02 -4.2620252296451654e+03 -2.2935060131194908e+02 -1.6002741604216121e+03 8.7952205071539856e+02 -5.7566539626791700e+02 4.0499068125535683e+02 -4.0855222993547886e+03 1.0045691488747354e+03 5.8853392932185909e+02 5.7746539645556004e+02 -6.9220818579800039e+02 2.0962678643113036e+03 -7.1496378924860312e+02 
      </Row>
      <Row Index="2">
        -7.0083165605831800e+02 -5.9705561592227250e+03 1.9523886515156031e+04 -1.3496486065894242e+03 8.4252250933343767e+03 -8.5777017058399497e+02 3.0311836419994588e+03 2.0123946470155961e+03 1.0037804398408116e+03 -2.2461594219579442e+03 3.4537461239535145e+02 -1.1133900984529502e+04 4.0302752893038061e+01 7.6450305589054324e+01 -5.7892298783708179e+02 -1.8252402975332293e+03 4.4615177305028719e+03 -8.5326400045896889e+02 3.8592434075811057e+03 -8.3590676566975230e+02 2.3052370281722815e+03 3.3190925987167029e+03 6.8456695990693024e+03 6.8816127929382401e+03 -1.8569046886250740e+03 -2.3805463377236747e+03 7.5605736020766790e+02 -8.4594356083767852e+03 1.4067455920782493e+03 
      </Row>
      <Row Index="3">
        3.1446254490346530e+02 -5.0621464397487898e+02 -1.3496486064799556e+03 2.7310832965531754e+03 -4.5385754788000377e+03 -3.7335826640583394e+02 -2.2952501787653827e+02 -8.0893361997973159e+02 -6.2273758860996566e+02 3.1121668222370199e+03 -4.5382622071315211e+02 3.9043026192032266e+02 4.7967595596220285e+01 -3.1619339933555398e+02 1.8942085182222226e+02 -5.9387656433436143e+02 2.8378484080137450e+03 2.0546063762622930e+03 9.5104917783506755e+02 -4.0067699644933617e+02 -2.6547646126574779e+02 -1.5386489740985155e+03 -8.4545765188901703e+02 -4.1243611560111858e+03 2.4137406045422267e+03 -6.8279396639975062e+01 -1.6529725620921371e+02 1.1801704532845949e+03 3.7133627644306279e+02 
      </Row>
      <Row Index="4">
        -6.4188359603755384e+02 -1.1389632928686390e+03 8.4252250906424215e+03 -4.5385754784910623e+03 4.1703663427672662e+04 1.6738359071720713e+03 -1.1913025154355610e+03 1.5237339034918688e+02 5.5547026306843327e+02 1.4972490044263654e+03 1.8329227352724665e+03 9.6544789792572046e+03 2.6726837216625731e+03 -1.9374695649306739e+02 -7.8120657053046841e+02 4.2716076279046888e+02 4.9582287260496960e+03 -3.8918630337117002e+03 7.6910186569829852e+02 5.5845572663716200e+02 -1.2729927071201630e+03 4.7943552142708438e+02 5.2679785574469433e+03 -2.1071769930464743e+03 -4.8254945168898894e+03 -8.8151442272608328e+03 7.2001780146049614e+03 -3.2333927030791216e+02 -9.7196654330979766e+02 
      </Row>
      <Row Index="5">
        -3.3542871557913202e+01 3.0412930009135187e+02 -8.5777017070713305e+02 -3.7335826639541574e+02 1.6738359070336085e+03 2.6019038992897276e+02 -2.0087952035417030e+02 -1.1157714910186986e+02 4.9115933920348027e+01 3.3058344425618060e+01 5.9548707996538511e+01 1.1147389589433346e+03 2.1558563236899820e+02 4.0804706759293751e+01 -5.3093646373371854e+01 2.0035748182220632e+02 -2.3981708518261581e+02 -3.2089038951794686e+02 -3.5151203456492902e+02 1.0343920037111045e+02 -1.5237232436378355e+02 -1.2672206192841821e+02 -9.4068536939598175e+01 -2.3151439053476884e+02 -3.6336033288263684e+02 -1.6950540253931194e+02 3.4715638383789349e+02 3.7918064513449985e+02 -3.0046260138181185e+02 
      </Row>
      <Row Index="6">
        -1.3699777863893024e+02 -7.9456174281153642e+02 3.0311836421875819e+03 -2.2952501792950821e+02 -1.1913025148371919e+03 -2.0087952033679505e+02 7.5404861271771983e+02 4.1918909294663683e+02 1.7043958058251843e+02 -8.8895478172634228e+02 -3.2116712414777908e+01 -2.8189663040542487e+03 -1.9410036722570203e+02 8.5267036912911152e+01 -9.4233536507280562e+01 -2.5249280503322396e+02 1.1507076499287821e+02 -1.1658393294376548e+02 5.3986684449952020e+02 -1.3595733603255852e+02 6.1536434968816980e+02 7.1680253608230544e+02 8.5206437062012560e+02 2.0699716573659430e+03 -2.6601810008446228e+02 3.1322267873225223e+02 -4.3321318780962378e+02 -1.7973398137162196e+03 2.3478535325213758e+02 
      </Row>
      <Row Index="7">
        -2.2264171574459738e+02 2.5263028481258777e+02 2.0123946471217307e+03 -8.0893361998377213e+02 1.5237339069574980e+02 -1.1157714909878067e+02 4.1918909294081425e+02 9.6716401541286052e+02 -4.9575792786983953e+01 -1.6656345842378053e+03 2.3855680018677310e+02 -7.4906912823066978e+02 -3.4339004084623571e+02 1.4007071626650605e+02 -8.9977665614412359e+01 -2.6489637981483920e+01 -1.8062608070410508e+03 -4.8780253592109455e+02 6.4526707220820413e+01 1.9254248874987479e+02 3.6254342287526879e+02 1.5327564433847240e+03 1.8550582633110457e+02 2.9794780638212410e+03 -5.1654740495332248e+02 2.2845674438868707e+02 -3.4630860625878722e+02 -1.1857936867870692e+03 -4.7552038108347375e+01 
      </Row>
      <Row Index="8">
        -5.0484909967630955e+01 -1.7436807902145681e+03 1.0037804399454996e+03 -6.2273758866740468e+02 5.5547026319521206e+02 4.9115933923387388e+01 1.7043958060023479e+02 -4.9575792751925441e+01 1.1938039598724338e+03 -5.0949235372167738e+02 -2.2178250649107233e+02 -2.7005015547809139e+03 2.4102536682117091e+02 6.9407199658531283e+01 -6.1364079668979841e+01 5.6726842195922856e+01 4.3392616349719208e+02 -5.8899100493265541e+02 2.9984832332184737e+01 -2.2623808562225148e+02 1.5550468372875073e+02 -1.1922834270199395e+01 1.6298869206653453e+03 4.2632493033274955e+02 -1.0538811327479755e+03 2.4741164156590366e+02 1.8237051124797341e+02 -5.2050105908902242e+02 1.2635202059035069e+02 
      </Row>
      <Row Index="9">
        3.4283861771129722e+02 -1.0536794066351645e+03 -2.2461594224515106e+03 3.1121668222986432e+03 1.4972490037401149e+03 3.3058344436527989e+01 -8.8895478177559494e+02 -1.6656345842936860e+03 -5.0949235365268237e+02 6.3503955472879488e+03 -5.7034915984903910e+02 3.0308847422600434e+03 1.0742241442042314e+03 -5.1533807046694221e+02 1.0626232254899573e+01 -5.2908002905543560e+02 5.9027684405278897e+03 2.0680652153727183e+03 1.1923352382285907e+03 -6.9555184888649285e+02 -9.1776884698505501e+02 -2.9404423510344218e+03 -1.6277147646641424e+02 -8.1534145507050080e+03 2.4116069853215386e+03 -1.9602350262165132e+03 1.5343888939318526e+03 2.4905357249234776e+03 5.8478315902778981e+01 
      </Row>
      <Row Index="10">
        -3.5476284035559104e+01 5.7285065715187739e+02 3.4537461228806819e+02 -4.5382622068590098e+02 1.8329227352898829e+03 5.9548707999736564e+01 -3.2116712442400676e+01 2.3855680016714581e+02 -2.2178250650633134e+02 -5.7034915979854497e+02 2.6049837546081551e+02 9.0866048530745752e+02 -6.6070186048364519e+01 3.2724702210751552e+01 -9.1480730661757548e-02 6.2769538721345008e+01 -6.7152081005102218e+02 -2.9514125635646167e+02 -1.2937595689254317e+02 1.7413043070440153e+02 -1.5984592833533849e+01 4.0925552493374755e+02 -1.6975477480309939e+02 7.2722977905066443e+02 -2.3775511686317060e+02 -2.8329282748519893e+02 1.3401443782440606e+02 -1.0520352563196889e+02 -8.0984468215190532e+01 
      </Row>
      <Row Index="11">
        1.6023394784871834e+02 6.6184688732172744e+03 -1.1133900985690580e+04 3.9043026223178356e+02 9.6544789770912976e+03 1.1147389588953647e+03 -2.8189663041692679e+03 -7.4906912834418245e+02 -2.7005015547645939e+03 3.0308847422942454e+03 9.0866048519824676e+02 1.7769488698781319e+04 2.8538765651771791e+02 -2.7236353471724141e+02 1.1311833135406764e+02 1.1783442832704523e+03 -2.3743453215540726e+03 2.4291242038041486e+02 -2.0810937808707840e+03 1.5631370090653763e+03 -2.3644861752509428e+03 -1.3770623241022747e+03 -5.4609894620140822e+03 -5.9416848166586460e+03 1.4577197188375160e+03 -2.2020137384633199e+03 1.9784768810371056e+03 6.5760511952908982e+03 -1.8346988759712244e+03 
      </Row>
      <Row Index="12">
        2.0077935242665717e+01 -6.0634856386215597e+02 4.0302752657750958e+01 4.7967595602710077e+01 2.6726837215807727e+03 2.1558563238172570e+02 -1.9410036726831797e+02 -3.4339004086493316e+02 2.4102536682532480e+02 1.0742241442173201e+03 -6.6070186052454630e+01 2.8538765665196570e+02 5.9633564505076970e+02 -4.2759738054296953e+01 -6.5286127309993702e+01 -3.1306943056909784e+00 1.3231306990168287e+03 -7.2080115017236196e+01 1.1754866634141922e+02 -2.4766713643825710e+02 -1.8289284369329482e+02 -5.4387594466078110e+02 6.0820702253872014e+02 -1.4437386484233994e+03 -1.9462788399317878e+02 -7.7567495542120514e+02 8.0306431411226174e+02 3.0618927805461607e+02 -1.1517469627608433e+02 
      </Row>
      <Row Index="13">
        -4.5462783130999881e+01 1.0667380916219442e+02 7.6450305631573542e+01 -3.1619339934477603e+02 -1.9374695642555866e+02 4.0804706758791440e+01 8.5267036916718652e+01 1.4007071627377991e+02 6.9407199651329023e+01 -5.1533807047187042e+02 3.2724702216581079e+01 -2.7236353470753352e+02 -4.2759738054009290e+01 6.8332222274934921e+01 -2.4588048286447808e+01 7.3452314770655803e+01 -5.7720661351360297e+02 -2.1779478273508752e+02 -1.5270220303251801e+02 4.6260799424536344e+01 9.0748261246077334e+01 2.6663957771242821e+02 5.6772248626145938e-02 7.5576776841629544e+02 -2.6002134186930630e+02 2.0668062191586495e+02 -1.1633991116728201e+02 -2.3512924942467043e+02 -7.9381763902355800e+01 
      </Row>
      <Row Index="14">
        9.7883794629133263e+01 1.3985561190991521e+02 -5.7892298780232306e+02 1.8942085182539594e+02 -7.8120657062222699e+02 -5.3093646379202880e+01 -9.4233536493063994e+01 -8.9977665609479388e+01 -6.1364079662157877e+01 1.0626232235884743e+01 -9.1480735499942512e-02 1.1311833128158696e+02 -6.5286127317027933e+01 -2.4588048284613130e+01 9.6023778094271137e+01 -3.5021446926815081e-01 -1.0802893614459693e+02 1.5465569623312109e+02 -7.1916835154935711e+01 -8.9706773003400713e+00 -6.1601181126070401e+01 -1.5921062508944777e+02 -2.5253914326580218e+02 -3.3208959818473505e+02 2.1159853504610544e+02 1.2624276916634506e+02 -1.3420871672187573e+02 2.9747728661363794e+02 8.4707868472975775e+01 
      </Row>
      <Row Index="15">
        -1.8847465980199274e+01 8.8201720370217436e+02 -1.8252402975906864e+03 -5.9387656432368556e+02 4.2716076261695616e+02 2.0035748181524843e+02 -2.5249280503540930e+02 -2.6489637975870451e+01 5.6726842191075491e+01 -5.2908002908188996e+02 6.2769538718030049e+01 1.1783442832622927e+03 -3.1306943253664485e+00 7.3452314771983382e+01 -3.5021446442798254e-01 4.2395243785697369e+02 -1.1624002432822160e+03 -4.9052800503435293e+02 -6.3677265706332219e+02 1.9165037557163282e+02 -1.7563941053884969e+02 4.9260804008518448e+00 -5.4946523689213552e+02 3.7597368166362219e+02 -4.7927598650383288e+02 2.3297040358069981e+02 -2.9319672399373673e+01 5.8601120639890360e+02 -2.3465027596658058e+02 
      </Row>
      <Row Index="16">
        2.5839928467659843e+02 -4.2620252296251874e+03 4.4615177299987063e+03 2.8378484080017088e+03 4.9582287262681930e+03 -2.3981708512163095e+02 1.1507076488418681e+02 -1.8062608071260770e+03 4.3392616355845644e+02 5.9027684406538956e+03 -6.7152081006767276e+02 -2.3743453212373443e+03 1.3231306990868734e+03 -5.7720661351649574e+02 -1.0802893614067305e+02 -1.1624002432261188e+03 9.3956075334375364e+03 1.7908541158062371e+03 2.6498177626828410e+03 -1.2136552804509602e+03 -1.6275104797451840e+02 -3.0731496181357170e+03 3.0767713409160970e+03 -7.3193924363437945e+03 1.5251130481322934e+03 -2.8411455309735065e+03 2.0274850049096642e+03 -2.7324060447340406e+02 9.4935037553666427e+02 
      </Row>
      <Row Index="17">
        2.2921115074483055e+02 -2.2935060140210720e+02 -8.5326400033049515e+02 2.0546063762636509e+03 -3.8918630339105057e+03 -3.2089038952794203e+02 -1.1658393289717588e+02 -4.8780253591658891e+02 -5.8899100489210173e+02 2.0680652153314741e+03 -2.9514125637576763e+02 2.4291242012876819e+02 -7.2080115020258518e+01 -2.1779478272894588e+02 1.5465569622937204e+02 -4.9052800504664867e+02 1.7908541158381790e+03 1.6008574768816159e+03 7.0616977626402149e+02 -2.5660129242899484e+02 -1.4398046994648027e+02 -9.5874913507432314e+02 -8.0782942404152038e+02 -2.6946911143400916e+03 1.9044939857256686e+03 6.7430219097510303e+01 -2.7202437711500829e+02 7.4956384928866464e+02 2.8045198134753213e+02 
      </Row>
      <Row Index="18">
        -3.7327594127093676e+01 -1.6002741604118744e+03 3.8592434075413321e+03 9.5104917781460551e+02 7.6910186615942439e+02 -3.5151203453630887e+02 5.3986684446313291e+02 6.4526707188451610e+01 2.9984832333719510e+01 1.1923352383261190e+03 -1.2937595688162332e+02 -2.0810937806879829e+03 1.1754866639408692e+02 -1.5270220303895803e+02 -7.1916835161714857e+01 -6.3677265704752369e+02 2.6498177627868445e+03 7.0616977623630692e+02 1.5894284930289423e+03 -3.8253431904374429e+02 3.4430439292166278e+02 -1.5177932689213435e+01 1.2909196045190361e+03 -5.6772143378884607e+02 6.5145891707099076e+02 -8.3458017487478651e+02 3.2634585536381758e+02 -1.2864352377759437e+03 5.2122674874345694e+02 
      </Row>
      <Row Index="19">
        -6.4138339908289481e+01 8.7952205071774677e+02 -8.3590676567789296e+02 -4.0067699642767013e+02 5.5845572650182021e+02 1.0343920036145903e+02 -1.3595733602804179e+02 1.9254248875150114e+02 -2.2623808562993031e+02 -6.9555184889216480e+02 1.7413043070040942e+02 1.5631370090366081e+03 -2.4766713645263803e+02 4.6260799423552839e+01 -8.9706772965733421e+00 1.9165037556508804e+02 -1.2136552804615774e+03 -2.5660129240935208e+02 -3.8253431904050103e+02 3.6967059184776144e+02 -9.5313460414523874e+01 3.3321420358508033e+02 -5.9735569860064936e+02 7.0443756759258792e+02 -1.7443696087167720e+02 1.9569244203668819e+02 -1.0745176667982690e+02 2.9286804741703293e+02 -2.4036687923060759e+02 
      </Row>
      <Row Index="20">
        -1.0196103921745427e+02 -5.7566539626540782e+02 2.3052370283535079e+03 -2.6547646131220705e+02 -1.2729927066397267e+03 -1.5237232435185092e+02 6.1536434969459697e+02 3.6254342288529432e+02 1.5550468371374222e+02 -9.1776884695526769e+02 -1.5984592810205982e+01 -2.3644861751781355e+03 -1.8289284366140146e+02 9.0748261243772433e+01 -6.1601181138347712e+01 -1.7563941053905779e+02 -1.6275104788909567e+02 -1.4398046998600262e+02 3.4430439295551992e+02 -9.5313460418720979e+01 5.1679068230916005e+02 6.3200736012516757e+02 6.2975843519147338e+02 1.8665179132013659e+03 -2.6886726178032211e+02 3.8084617034501014e+02 -4.2883965528687321e+02 -1.4586989108925650e+03 1.7188294905233261e+02 
      </Row>
      <Row Index="21">
        -3.6729419330857297e+02 4.0499068130452963e+02 3.3190925988919939e+03 -1.5386489741097200e+03 4.7943552202485353e+02 -1.2672206192224098e+02 7.1680253607070847e+02 1.5327564433868986e+03 -1.1922834330270405e+01 -2.9404423509436169e+03 4.0925552496847581e+02 -1.3770623238992885e+03 -5.4387594462956849e+02 2.6663957770051690e+02 -1.5921062509797929e+02 4.9260803926287622e+00 -3.0731496180009176e+03 -9.5874913508499969e+02 -1.5177932637727622e+01 3.3321420358415241e+02 6.3200736010690764e+02 2.4983522887884142e+03 3.8344570930705322e+02 5.0928993933965367e+03 -1.0551054170536975e+03 4.3186030454337197e+02 -5.6647065854714708e+02 -2.0607856343734957e+03 -1.3188004269812862e+02 
      </Row>
      <Row Index="22">
        -2.0694966044812804e+02 -4.0855222992675604e+03 6.8456695989953614e+03 -8.4545765196389220e+02 5.2679785582266086e+03 -9.4068536894100589e+01 8.5206437055516676e+02 1.8550582631952250e+02 1.6298869206430181e+03 -1.6277147638236738e+02 -1.6975477476455626e+02 -5.4609894616255388e+03 6.0820702260031157e+02 5.6772243394220823e-02 -2.5253914327639689e+02 -5.4946523685875411e+02 3.0767713409516350e+03 -8.0782942410976955e+02 1.2909196044921991e+03 -5.9735569858252165e+02 6.2975843513356267e+02 3.8344570928957535e+02 4.1969204243566801e+03 8.6869107049172305e+02 -1.6387688792960992e+03 -1.1158548649877287e+03 1.0290050182035397e+03 -2.6113652849532536e+03 5.1940095739663923e+02 
      </Row>
      <Row Index="23">
        -7.9239625394914981e+02 1.0045691489594712e+03 6.8816127936009580e+03 -4.1243611561200523e+03 -2.1071769913437292e+03 -2.3151439051486199e+02 2.0699716573764713e+03 2.9794780638635425e+03 4.2632493020433287e+02 -8.1534145505556316e+03 7.2722977914971477e+02 -5.9416848162675797e+03 -1.4437386483382361e+03 7.5576776839630634e+02 -3.3208959821993631e+02 3.7597368164369084e+02 -7.3193924360206893e+03 -2.6946911144280321e+03 -5.6772143364453996e+02 7.0443756758706115e+02 1.8665179131875555e+03 5.0928993934639420e+03 8.6869107062061221e+02 1.3031668956951364e+04 -3.1324408160278826e+03 2.2602476557262235e+03 -2.1712863591427308e+03 -5.4876646060426056e+03 -6.9503827116895920e+01 
      </Row>
      <Row Index="24">
        2.8404748513074946e+02 5.8853392921482452e+02 -1.8569046885134971e+03 2.4137406045670418e+03 -4.8254945172268108e+03 -3.6336033289898899e+02 -2.6601810003302711e+02 -5.1654740495611975e+02 -1.0538811327027815e+03 2.4116069852853311e+03 -2.3775511689191353e+02 1.4577197185340542e+03 -1.9462788400272871e+02 -2.6002134186394437e+02 2.1159853504529181e+02 -4.7927598652137817e+02 1.5251130481741936e+03 1.9044939857440111e+03 6.5145891710239016e+02 -1.7443696089601599e+02 -2.6886726173622236e+02 -1.0551054170556956e+03 -1.6387688792320048e+03 -3.1324408159531804e+03 2.4527238679911970e+03 9.9475286582007811e+01 -4.2969742397477057e+02 1.2355561194485551e+03 2.4686662966600963e+02 
      </Row>
      <Row Index="25">
        2.4562674968707483e+01 5.7746539633608575e+02 -2.3805463370260240e+03 -6.8279396728818298e+01 -8.8151442272590175e+03 -1.6950540257895099e+02 3.1322267888494014e+02 2.2845674449425718e+02 2.4741164157965176e+02 -1.9602350264191564e+03 -2.8329282747123358e+02 -2.2020137389795045e+03 -7.7567495545600741e+02 2.0668062193400343e+02 1.2624276914382816e+02 2.3297040353656359e+02 -2.8411455309646508e+03 6.7430219043789364e+01 -8.3458017476253713e+02 1.9569244201134143e+02 3.8084617046782517e+02 4.3186030472295352e+02 -1.1158548648126432e+03 2.2602476562048437e+03 9.9475286499993928e+01 2.6048058639488072e+03 -1.8167320281522245e+03 -1.3072694226069336e+02 -6.2482037450167830e+01 
      </Row>
      <Row Index="26">
        -3.8914911255143693e+01 -6.9220818570058464e+02 7.5605735967355577e+02 -1.6529725615545186e+02 7.2001780144050781e+03 3.4715638386047624e+02 -4.3321318791056058e+02 -3.4630860631678803e+02 1.8237051124414654e+02 1.5343888940130232e+03 1.3401443781139574e+02 1.9784768813551814e+03 8.0306431411444487e+02 -1.1633991117437931e+02 -1.3420871670289134e+02 -2.9319672364632652e+01 2.0274850048129806e+03 -2.7202437707914618e+02 3.2634585526329352e+02 -1.0745176665381246e+02 -4.2883965536465018e+02 -5.6647065864639967e+02 1.0290050180561004e+03 -2.1712863594066753e+03 -4.2969742391820779e+02 -1.8167320280903014e+03 1.6342540692366576e+03 5.6918968958385267e+02 -2.1794913908923166e+02 
      </Row>
      <Row Index="27">
        4.0719362640695351e+02 2.0962678642476249e+03 -8.4594356086581211e+03 1.1801704533879501e+03 -3.2333927182465595e+02 3.7918064508231669e+02 -1.7973398136708145e+03 -1.1857936867754938e+03 -5.2050105902919836e+02 2.4905357247390425e+03 -1.0520352570131286e+02 6.5760511948306230e+03 3.0618927794175443e+02 -2.3512924940855709e+02 2.9747728664209706e+02 5.8601120638340717e+02 -2.7324060474128487e+02 7.4956384938537872e+02 -1.2864352378384883e+03 2.9286804741869219e+02 -1.4586989108393466e+03 -2.0607856343565454e+03 -2.6113652850562335e+03 -5.4876646058787701e+03 1.2355561195450548e+03 -1.3072694186862640e+02 5.6918968931269808e+02 4.6498588224301611e+03 -5.1647754356841813e+02 
      </Row>
      <Row Index="28">
        8.6708972254511082e+01 -7.1496378927205853e+02 1.4067455921548644e+03 3.7133627642817072e+02 -9.7196654310067788e+02 -3.0046260137406466e+02 2.3478535325566568e+02 -4.7552038114570053e+01 1.2635202059659446e+02 5.8478315933085923e+01 -8.0984468211105650e+01 -1.8346988759668111e+03 -1.1517469625336571e+02 -7.9381763903858172e+01 8.4707868466871332e+01 -2.3465027596717152e+02 9.4935037560455407e+02 2.8045198133139331e+02 5.2122674876204428e+02 -2.4036687923857608e+02 1.7188294905277530e+02 -1.3188004270661065e+02 5.1940095743963275e+02 -6.9503827137462153e+01 2.4686662964310574e+02 -6.2482037503470224e+01 -2.1794913904845512e+02 -5.1647754359052919e+02 5.3460502727021969e+02 
      </Row>
    </InverseHessian>
  </Weights>
</MethodSetup>
